"taxon","BM_HC_1","BM_HC_2","BM_HC_predictor","BM_LC_1","BM_LC_2","BM_LC_predictor","nonBM_HC_1","nonBM_HC_2","nonBM_HC_predictor","nonBM_LC_1","nonBM_LC_2","nonBM_LC_predictor","Phylo_axis_1","Phylo_axis_2","Phylo_axis_3","Phylo_axis_4","Phylo_axis_5","Phylo_axis_6","Phylo_axis_7","Phylo_axis_8","Phylo_axis_9","Phylo_axis_10","Phylo_axis_11","Phylo_axis_12","Phylo_axis_13","Phylo_axis_14","Phylo_axis_15","Phylo_axis_16","Phylo_axis_17","Phylo_axis_18","Phylo_axis_19","Phylo_axis_20","Phylo_axis_21","Phylo_axis_22","Phylo_axis_23","Phylo_axis_24","Phylo_axis_25","Phylo_axis_26","Phylo_axis_27","Phylo_axis_28","Phylo_axis_29","Phylo_axis_30","Phylo_axis_31","Phylo_axis_32","Phylo_axis_33","Phylo_axis_34","Phylo_axis_35","Phylo_axis_36","Phylo_axis_37","Phylo_axis_38","Phylo_axis_39","Phylo_axis_40","Phylo_axis_41","Phylo_axis_42","Phylo_axis_43","Phylo_axis_44","Phylo_axis_45","Phylo_axis_46","Phylo_axis_47","Phylo_axis_48","Phylo_axis_49","Phylo_axis_50"
"t1",-1.84221640637933,-2.29090444109975,-2.82416038052047,1.52426058357097,-2.38472325799077,1.09993619393638,1.18704026716922,0.901940136636396,2.33591611556814,0.358474599875002,-0.300904754922505,0.537259801828622,0.413420603593624,0.0793131399219107,-0.296387529096348,-0.0571105294549847,-0.0505166621840974,0.463148322345455,-0.143564093540446,-0.181130468421065,0.761824215835957,-0.200986172384563,-0.242612954388482,-0.291957555264656,-0.00106097297238651,0.00115534431656034,-0.0470003857957791,-0.00776856486947684,0.156879874834799,0.191527546801736,-0.222785392764265,2.78209291449921,-0.110287969610013,0.0583397125458955,0.00375194817182958,-0.0262267500867389,0.00771296191582029,-0.0424560444191519,-0.0942491100544679,-0.0104074015157117,-0.0132207849979714,-0.0026786972736504,-0.0112511433398538,-0.00126739695586335,0.00611039560786241,-0.00341361186787633,0.00363552545348104,-0.00425368062184271,0.00107850111673119,-0.00545990069094228,-0.000223191729851269,0.000187394934230907,-0.000178048169782917,0.000390219531065617,-0.000579446939276456,0.000441795557172663,0.0000034110219219834,0.0000993636497822309,0.000000000000000237081373942064,-0.00000000000000014009376054312,0.000528431247889206,-0.000000000000000117277610555323
"t10",-0.5005441435473,-0.262293032754802,0.10322340430841,-2.56739283936884,1.45572450207462,1.16687823619033,0.966716795550744,1.19809895313275,1.01092442190255,0.13914748627702,0.128523096365052,0.578022366420355,-2.23158297529475,0.824424578783724,0.186000315082276,0.101908311143512,0.0268420154153101,-0.09370718990173,0.0381461944298347,0.00144435696653984,-0.0133424071997525,-0.00262568477038727,0.00277845317659119,0.000277553767813949,0.0000399612778724443,-0.0000691227223726255,-0.000889688832689999,-0.195807432194239,-0.00216833340045733,-0.000330434278875035,-0.000586676763126168,0.0025135407080416,0.000118515966465895,-0.0016590163579306,-0.000299792405648835,0.000586844879479691,-0.000202128428043102,0.449430275744194,-0.00749808970286255,-0.0076641303455725,-0.13055304581222,-0.112949654308897,0.0000182820677125854,0.000040396653648816,-0.000286426663613527,0.000141530738154732,-0.000951222896587499,0.00258333442391532,-1.24151883328959,-0.00357579027940377,-0.00018780439940998,0.000168007710401161,-0.396878414563504,0.000187027897919899,-0.0000759696383404141,0.0962856527186369,0.00345988805152397,0.00000743318949369581,0.000000000000000195503095074322,0.00000000000000402199164250105,0.0000410496505620736,0.000000000000000111417884339161
"t100",-1.75921181190699,-1.39529647332866,-1.25688209985349,-2.37338642313206,0.497111710174542,2.99189871991322,-1.22891993210103,-0.930691020480708,-1.13082333364609,-0.255740544770619,-0.141557124763356,-0.374950142343947,0.44209234598585,0.08654091973082,-0.339208465169732,-0.0700382154955503,-0.0696457400502501,0.768078214070432,-0.244513326355411,-0.397551872119761,2.01127289123213,-0.590627786173772,-0.779061945216637,-1.46176523400553,0.00719307457318989,-0.00259532791071546,0.0501798736941857,0.0075690494506795,-0.125249932309179,-0.088440286038692,0.0484566764597524,-0.404202109256546,0.00369033927008882,0.00136523020705322,0.000395177275197344,-0.00362361091287148,0.00115357645981009,-0.013744240054864,-0.700194272627714,0.0141418685691631,0.0144737560211227,0.000236654297168054,-0.000706348177027107,-0.000110374413601652,0.000789744452210205,-0.000445593133792806,0.000595308675422306,-0.000720222950492822,0.00018978841385401,-0.00100110718042952,-0.0000459004111322161,0.0000393132503735842,-0.0000380562882664784,0.0000886249002670555,-0.000134608742258478,0.000104601629105775,0.000000816948244035894,0.0000245250909283739,-0.000000000000000873980115370647,-0.0000000000000000996161068307921,0.00013705216526548,-0.000000000000000277968309550027
"t11",0.936871199044017,-0.0679680273514784,2.26589171601747,0.996290390777961,-0.658238469827608,0.056561780842207,0.348276560197132,1.13309846229811,0.212543401140408,-0.770496755664117,1.22803599563916,2.53691119427571,1.3261526483347,0.701468598792264,0.879924201718168,0.0620302177786282,0.0311915335300844,-0.665335710314998,-1.05947219075943,0.316051719926781,0.00505489875533664,0.0115002248756509,-0.0587845865479495,0.000465268099549281,0.0000594918495406654,-0.0000340358504341508,0.000830497080587137,0.000128297372496466,-0.00225786878185348,-0.0162369507867563,-0.00000674910003459985,0.000627991194736967,0.00483423198630091,-0.0000933631474937191,-0.0000244841242501119,0.00924140904398166,-0.00259981277735492,0.00159914187338539,0.0174477398683619,0.68542949949661,-0.0356302541305307,-0.000221010240789476,0.00898651411344597,0.00010036057586738,-0.00324060726033706,0.0306046595951956,-1.26996145569589,-0.0101256378184995,0.00120955136568246,-0.00396212450315149,-0.0000838480949389633,0.0000652019155162819,-0.0000579914417870665,0.000106032250342348,-0.00313259590739528,0.000107032653663592,0.00000080634951324216,0.000456389475983785,-0.000000000000000941422432416526,-0.00000000000000234604467017786,0.00143851790117058,0.0000000000000000792535583793764
"t12",3.376108392973,2.33801775642932,3.49529718386618,1.7316610047257,-2.50309037561644,-2.10262935156102,-0.642593954454488,-0.517851971243778,-0.0393614542129499,-1.41597731511262,1.04013912358435,0.696129891781734,0.528812936296012,0.0905037820396395,-1.22075809861755,0.101151581371039,-0.00328048591728757,0.235809750839603,-0.083515761613696,-0.149477210475141,0.879232091559152,-0.263086057081843,-0.401489506454171,1.73441746634044,-1.00461762553199,-0.00136639184804676,0.20954962823584,0.00488798883359362,-0.429511199087646,-0.0121838481227378,0.00903785426476159,-0.0542944858323927,-0.00110221921532539,0.00190215752695981,0.000205497480711108,-0.00132627282163764,0.000405859454593004,-0.00353111709721591,-0.00292484484454498,-0.00072622590442438,-0.00106519822782367,-0.000106442988784713,0.000384017904992541,0.000103425001935762,-0.00910579788038382,0.000336900267553689,-0.00298141977825594,0.034768785259219,-0.00275635370814905,1.14477365240101,-0.000252417288760183,0.000184355071427424,-0.000156848168309938,0.000262596430418979,-0.000308702055731506,0.000260395307691346,0.0000019483112362863,0.0000451027669583149,-0.00000000000000149615098001554,0.00000000000000155474040302072,0.000217741616468743,-0.000000000000000315775473686973
"t13",0.0653125914353112,-0.581283800786787,-0.465205472022439,-4.94368423323555,5.97847142626479,3.41470827754186,0.7624198180078,0.829392806559928,2.01328275808127,-0.0318816642114552,0.350068732659222,0.772896201032922,0.66887871476958,0.124603167043474,-2.13341201570728,0.293058374219179,0.0718248576072273,-0.355816376973456,0.111270581444208,0.0961017326179436,-0.420122509198893,0.110459410578535,0.153979908860183,-0.488359397758678,-0.480757439042331,0.0000978930786316488,-0.0345353979771518,0.000104486613880653,-0.000091524549610654,0.0000281346695487965,0.000101813855706935,-0.000638642553195079,-0.00000685917879215552,-0.00000310310496262958,-0.00000471969676786951,0.0000475932830413723,-0.000016651047639513,0.000535746372284508,0.00167965833258495,0.000544635914568547,0.000838046289178006,0.00030040191784911,0.00230785694082506,0.000413986045878694,-0.216169433496651,-0.00925371680924075,-0.00963876341841461,1.32144363995494,0.00323082652847431,-0.04737639489964,-0.000122067820199796,0.0000933346902726197,-0.000081796147556886,0.000143173628399122,-0.000169089893141023,0.000142777972038407,0.00000106801801177708,0.0000246762129393869,0.000000000000000813990075898012,-0.00000000000000280609265612116,0.000122831532509064,-0.00000000000000034349734076982
"t14",0.573507632738292,0.029630260491506,0.840913998909393,-0.807258661729735,1.74107604221204,-0.221844774951756,-1.55048946968388,-1.3109992206317,-0.965239164178801,-0.0794425431386621,-0.197626976400697,-0.373650179127542,-0.267578891294851,-2.05871172522007,0.152493558798384,-2.53638402458908,1.92935370589087,-0.375932503496466,0.1657559120286,-0.0121237047139489,-0.0290172826334185,-0.105776629433493,-0.00806048349951253,0.00025544717692405,0.000118216295037723,-0.000681014935263278,0.00229583124257078,0.001408523954347,-0.00689124197830517,-0.00656825848252374,0.49367275962586,0.0313127597010554,0.000140736244401294,-0.00607098806251829,0.000176776848740905,-0.0000356439757490232,0.0000128492124903572,-0.00111482909835355,-0.000430817543949404,-0.000146319568471243,-0.000726495730582861,-0.000148640415554493,-0.000216861160625965,-0.0476529769157181,0.0000348073677013371,-0.0000165309605076055,0.00000915555380507474,-0.00000536664123593045,-0.00000676840963469695,0.0000390171763008608,0.00126187337116536,-1.09616169970637,-0.000132557867534106,0.000923019713884562,-0.0000280389593160862,0.0000811083609893593,0.000000598475384058025,0.00000385695936893486,0.000000000000000725771050533935,-0.000000000000000310267614976279,0.0000188210342634494,0.00000000000000295523877857098
"t15",-0.25296850071614,0.45042062642518,-0.0331532531298852,-2.38644647183255,2.43541504396326,1.14160703536803,-0.106287669292736,0.0129571107281066,-0.776536777617267,0.675220591626548,-0.213430416033576,-1.01299799123779,-2.2745978457502,0.844978783559493,0.193080801781552,0.107660709183474,0.0291471441138433,-0.105706795221801,0.0432470388661884,0.00170810554557009,-0.0161822367400082,-0.00322561866872301,0.00344654310121943,0.000357682949845362,0.000058424936725986,-0.000113866512515028,-0.00184067832677498,-0.42459666693647,-0.00534440445302677,-0.0017555577560452,0.00166353487329861,-0.0030602487280743,-0.0000280472675043718,-0.0000512501632713068,-0.000090254314595087,0.000226434150411021,-0.0000834890195246226,0.330926884686148,-0.0128597767042939,-0.0189374771478436,-0.35154137799093,0.182687039651799,-0.00000419239835975404,-0.00000457651534718144,-0.0000135547453038204,0.00000727844623187453,-0.000129342170942988,0.000373211031602792,-0.187241408823294,-0.000538231141274163,0.0000108771372722394,-0.0000570223105746474,0.837154967133728,0.000131761648279972,-0.0000481621688263584,0.0624930349997482,0.699598080170561,0.00000374495472524074,-0.00000000000000625355172587091,0.0000000000000027542152009255,0.0000211401328164721,0.000000000000000121000062848461
"t16",1.92908968138531,2.9959738110232,1.72575795943126,-0.41863141733598,0.516614057965675,0.839746469462203,0.101764041585184,-0.250544698478889,-0.997494277165673,-0.0360063520230382,0.372675575099153,0.450454122084951,-2.27683928325945,0.846044843415267,0.193444147568069,0.10795166540037,0.0292611865353393,-0.106283118223741,0.0434910941764786,0.00172033660167638,-0.0163115832850438,-0.00325270104910287,0.00347650176503877,0.000361185599427119,0.0000591725881654803,-0.00011556910211694,-0.00187355243681281,-0.432374764225232,-0.00544805236642582,-0.00179557705162037,0.00170983750592087,-0.00315281316017158,-0.0000290450047281161,-0.0000532685781096228,-0.0000944733995962229,0.000237849752430746,-0.0000878123545866678,0.355922503914609,-0.0145960775180089,-0.021838446442509,-0.406618439865221,0.231256197773099,-0.00000708188219532955,-0.0000100260117353432,0.0000153360418287476,-0.00000686184536992701,-0.0000578215240831947,0.000190838243124044,-0.107119672629271,-0.000336246447906737,0.00000787799407377133,-0.0000419307273659681,0.622643431689904,0.000098327694060771,-0.0000343612745334439,0.0354608777590833,-0.852671811054457,0.00000363219687077201,0.00000000000000700301918839095,-0.00000000000000690462873881013,0.000019262039526367,-0.000000000000000165025957424408
"t17",-1.30246016215913,-1.05668195128194,-0.0605932224467037,-4.75236095414548,4.28301849674332,3.5941566047967,1.10227818813379,1.16822541815535,1.67637942643504,0.677006512755877,-1.07233223664631,-0.847489892913986,1.30099320074905,0.682386136402457,0.833801422358464,0.0553825341686947,0.0223676169197802,0.257480697034081,0.976388605022189,0.834956047542398,-0.0175826059400807,0.0334268867851677,-0.146545352739925,0.000977011172572357,0.00011558104124022,-0.0000664878026252886,0.00163721469510205,0.000252314415396824,-0.00437224652136001,-0.0218905905993098,-0.000494300057758211,0.0125424902901212,0.695871925566648,0.00211475450109999,0.000224533077157046,-0.136469557000381,0.888744794683798,-0.000871729496622219,-0.00155848256390585,-0.00887721782776995,-0.0000130773539960543,-0.0000894095724596362,-0.00523855980092111,-0.0000299004521935927,0.000262871497657126,-0.00225045338597506,0.00155576273903553,-0.0000597726554769917,0.0000136825211003503,-0.0000482795365975351,0.00000468674403204698,-0.00000631313289412986,0.0000091383266134138,-0.000123194708875115,0.969046860074696,0.000214454621034389,0.0000010992856458246,0.0114920922613316,-0.00000000000000300770131309066,0.00000000000000410342726408646,0.000915427391492849,-0.000000000000000183251857398831
"t18",-0.122774855129013,-1.28293549885832,-0.110765291349157,1.58311093456053,-2.37026397208433,-2.27952779755307,-1.5240605957322,-0.627438672417243,-0.373526735448887,-0.173394158787817,0.57977875869623,-0.520595624802286,-0.360692704622856,-3.28809251084252,0.707245024652462,1.88717260800174,0.198501125137299,-0.129152561908187,0.058780001939936,-0.00498937232249687,-0.012434756440627,-0.0459707816355879,-0.00353344328989305,0.00011449856362282,0.0000536540172274527,-0.000303302878062009,0.00096380897716799,0.00058332865992083,-0.00274836033505855,-0.00213652748251994,0.036231042703011,-0.00626397123576157,-0.000364922941091604,0.229314031123732,-0.00187341506534,0.000111024352523235,-0.0000289463675099701,0.0000556488953540418,-0.0000392366460712164,-0.0000116076314929398,-0.0000556800220932016,0.00000217886754101934,0.0000308969626511138,0.000234378192957821,-0.0000565004936181214,0.0000271680085867145,-0.0000603789922541097,0.0000962253346084962,-0.000107168229540098,0.000191503209117666,0.332078982170363,-0.0000956688571630101,0.0000453612263920146,-1.0384062734005,-0.00016151440115362,0.000290952691234159,0.00000180422362224284,0.00000863291520164441,-0.000000000000000453291158323818,0.00000000000000266498470746869,0.0000317633371975902,0.00000000000000139859562114894
"t19",-1.04090397753366,0.00533165399377933,-0.0448748308041349,0.454877316675887,-0.826791675236443,-0.748423639129612,0.681759878499707,0.343298279089562,-0.408642249947605,-0.445590002861333,0.246487936792897,0.714451697241007,0.541380214483274,0.0937625057421081,-1.32071520210434,0.126089899792209,0.00909294892271755,0.106318871782582,-0.0393949025031906,-0.0768112060114871,0.435057357284172,-0.126182520482198,-0.187213523734406,0.696843104863055,0.229178676759706,0.000537641664466244,-0.592646970742254,-0.0111925465484883,2.15248217903932,-0.103655018612151,0.0303383486223221,-0.158726908508781,-0.00276198638565389,0.00451678319134389,0.000464983093433395,-0.00297331873782744,0.000908183461260799,-0.00819401633512312,-0.00875973656759387,-0.00238723098216923,-0.00356661913652254,-0.000709228508731177,-0.00265814710644333,-0.000361998539733748,0.0171874420499316,-0.0000545526926256079,0.000965786473510935,-0.0121861405306637,0.000300422590000988,-0.00954777032442652,-0.0000626317463736215,0.000053094376921501,-0.0000508475646685425,0.000113918914420207,-0.000145581389656239,0.000130754011551913,0.00000101324521053746,0.0000254877127296896,-0.711875617800002,-0.0000000000000251927890765121,0.000137936502103583,-0.00000000000000423206761415277
"t2",-1.46580764175284,-1.6874618814958,-0.891323205601229,0.466227155353613,-1.68166563662031,-0.465272782235192,-0.827818763164049,-0.713535787662892,0.624507146314115,0.612117617688048,-0.533316926008244,-0.639013188671345,-0.244990049439139,-1.83464134180271,0.127342365417116,-1.92270114164257,1.23151788402836,-0.178331075093064,0.0750930926142538,-0.00333897714492989,-0.00496915635034488,-0.0125878215640427,-0.000643062731345789,-0.0000184056463101489,-0.000064236495607396,0.000642633180629187,-0.00365145771465832,-0.00240323900420169,0.013743633206818,0.0203652122911426,-2.76137507821759,-0.232593338527695,-0.00212367427337244,0.186849371289415,0.0137795176849001,-0.00122285552759568,0.000372612736720071,-0.0123245224150296,-0.00322726902629043,-0.00105289118219109,-0.00519475011108834,-0.000954306248338505,-0.00104120141619633,-0.0764260161742029,0.000534435999269093,-0.000251778108019917,0.000290792323350009,-0.000402927995957258,0.000372764889048192,-0.00052452421951847,-0.000816364076492851,0.0098159641617816,-0.0000622332355211859,0.00139678553128561,-0.0000496551055650105,0.000158210161289984,0.00000122415229167932,0.00000868947869320645,-0.000000000000000143111201097718,-0.00000000000000304769942186514,0.0000469487670766365,-0.000000000000000181112844505278
"t20",0.334197647029211,0.769509645971814,2.80382274320835,-2.42600382070351,1.69735660179593,2.59700108318915,1.75739716244699,1.56624304451075,0.882201402038375,0.666838093667472,-0.474488307777833,0.149483115319457,0.541380214483274,0.0937625057421082,-1.32071520210434,0.126089899792209,0.0090929489227175,0.106318871782582,-0.0393949025031908,-0.0768112060114867,0.435057357284172,-0.126182520482198,-0.187213523734406,0.696843104863056,0.229178676759707,0.000537641664466808,-0.592646970742253,-0.0111925465484881,2.15248217903932,-0.103655018612153,0.0303383486223219,-0.158726908508784,-0.00276198638565583,0.00451678319134348,0.000464983093432563,-0.00297331873782796,0.000908183461260813,-0.00819401633512244,-0.00875973656759547,-0.00238723098216876,-0.00356661913652182,-0.000709228508730074,-0.0026581471064423,-0.000361998539734675,0.0171874420499347,-0.0000545526926252972,0.000965786473508978,-0.0121861405306644,0.00030042259000061,-0.00954777032442308,-0.0000626317463841237,0.0000530943769233506,-0.0000508475646674273,0.000113918914416224,-0.000145581389650071,0.000130754011546878,0.0000010132452252956,0.0000254877127179721,0.711875617800002,0.000000000000024294822737601,0.000137936502096825,0.00000000000000399319063754707
"t21",-1.60681453056436,-1.07158919743636,0.382283515121421,-3.75371374792911,3.9813635030249,1.30704824709331,0.575707267125846,0.374361800691812,0.333184063909699,0.569399009394771,0.0827295216356723,-0.585512180101347,-0.249906177731147,-1.87191291694203,0.127499621967556,-1.66988617891622,-2.72498614808931,-0.599071744126542,0.251913420039423,-0.0151571209517746,-0.03426657604271,-0.122074665035736,-0.00915789528108009,0.000275434581702062,0.000112164517042396,-0.000585838275969068,0.00168059727162345,0.00100039725214664,-0.00452865245277793,-0.00305501628629997,0.0408612764425492,-0.00505766048502638,-0.0001263608029533,0.00799343048264028,-1.26192640706734,-0.000683993548078354,0.000179704321695149,-0.00442246812746303,-0.00122654458221245,-0.000404283025379547,-0.00199792721664804,-0.000375274132258251,-0.000376464718910184,-0.00218371058054388,0.000250167342010541,-0.000117597085604421,0.000132984697013138,-0.000184256297326716,0.000170560690562026,-0.000240293171601349,-0.000372711018731343,0.00033790833526764,-0.0000294162626867893,0.000657684327238624,-0.000023443466875718,0.0000748967676156651,0.000000580546094451679,0.00000414203877786091,0.0000000000000209844415975935,-0.694488261199991,0.0000225965994386919,0.000000000000000437982192397264
"t22",-1.15144590721081,-0.402059676509247,0.475547837784499,-1.74045039277751,1.80788487221309,0.851726744050042,-0.65764411303226,0.188843950708577,0.0269879963903165,-1.21963515373678,0.523157273131626,0.502259767104389,-0.249906177731158,-1.87191291694203,0.127499621967556,-1.66988617891622,-2.72498614808932,-0.599071744126542,0.251913420039423,-0.0151571209517732,-0.0342665760427092,-0.122074665035734,-0.00915789528108185,0.00027543458170094,0.000112164517039079,-0.000585838275967653,0.00168059727162199,0.00100039725214907,-0.00452865245277781,-0.00305501628629854,0.0408612764425373,-0.00505766048502892,-0.000126360802954053,0.00799343048264302,-1.26192640706734,-0.000683993548076682,0.00017970432169585,-0.00442246812746371,-0.00122654458221186,-0.000404283025376586,-0.00199792721664635,-0.000375274132267194,-0.000376464718909683,-0.00218371058053928,0.000250167342011504,-0.000117597085598953,0.000132984697009651,-0.000184256297317539,0.000170560690569172,-0.000240293171606431,-0.000372711018712959,0.000337908335267442,-0.0000294162626799609,0.000657684327249069,-0.0000234434668850574,0.0000748967676128203,0.000000580546082906899,0.00000414203880590295,-0.0000000000000213067016465863,0.69448826119999,0.0000225965993422326,-0.000000000000000117345968658009
"t23",0.971300987427527,1.24675483079761,0.581558344412992,0.188561353014866,-0.835673284660192,-0.492026378123763,1.66662967697238,1.69574041028572,1.11190535303227,0.731243308115817,-0.972088380293562,0.110820291307392,-2.23088869366546,0.824051664773428,0.185840718401184,0.10174656439515,0.0267596826245343,-0.0931802590212897,0.0379177733267136,0.00143114953691786,-0.0131964324261162,-0.00259478505026503,0.00274417205065238,0.000273701052926227,0.0000400192517838974,-0.0000781187583994602,0.000243425547963065,0.00783251790957355,-0.000155893539264211,0.000349756560380775,-0.00167044910021111,0.00532208730152294,0.000202310226087663,-0.00267401160087785,-0.00046106102566927,0.000893658359817574,-0.00030704374313602,0.67814011610386,-0.00825584011105717,-0.00307979216408842,-0.021953189785369,-1.00290980667283,-0.000218526847636601,-0.00019640612967201,0.000414770164895251,-0.000197351575492407,0.000401511997329548,-0.000808730687499713,0.243902700022511,0.000294704615595846,-0.0000323379069738485,0.000031617656932982,-0.0247174676325294,0.0000849852468856613,-0.0000395784622252269,0.0748633805915496,0.0000289738208588904,0.00000342721277722764,-0.0000000000000050911603490853,-0.00000000000000330076672323056,0.0000229343890546504,0.6714881966
"t24",1.58103470322317,1.90730530644146,1.09597984712765,-0.33808789648759,0.894590500026917,1.00241128991227,0.485783353842329,0.87750148737687,1.12748475994563,-0.200300267019856,0.0898003747889129,0.175877250919113,-2.23088869366546,0.824051664773428,0.185840718401184,0.10174656439515,0.0267596826245344,-0.0931802590212899,0.0379177733267135,0.0014311495369178,-0.0131964324261158,-0.00259478505026565,0.00274417205065233,0.000273701052925987,0.0000400192517834803,-0.0000781187583992035,0.000243425547963483,0.00783251790957266,-0.000155893539264504,0.000349756560381025,-0.00167044910021036,0.00532208730152282,0.000202310226087748,-0.00267401160087676,-0.000461061025670926,0.000893658359817476,-0.000307043743136068,0.67814011610386,-0.00825584011105684,-0.00307979216408937,-0.0219531897853699,-1.00290980667283,-0.000218526847636403,-0.000196406129673517,0.000414770164895136,-0.000197351575491853,0.000401511997329009,-0.00080873068749981,0.243902700022511,0.000294704615595213,-0.0000323379069758139,0.0000316176569264455,-0.0247174676325297,0.0000849852468820284,-0.0000395784622254353,0.074863380591552,0.0000289738208592453,0.00000342721277693944,0.00000000000000590431716467412,-0.00000000000000237221379206304,0.0000229343890658794,-0.671488196599999
"t25",-0.722807614113163,-0.784843895499218,-2.22962285167289,-1.08717344464057,0.0484612427695678,0.749814369057298,0.247435244698158,0.0897238708872271,0.598566910791144,-0.726219666350107,0.511390378582937,0.449446336360884,-2.3000719551444,0.857349733340916,0.197502798531217,0.11143931272084,0.0307847522902863,-0.115206808576643,0.0473434222916119,0.00194729057772428,-0.018956168649481,-0.00383454826243103,0.00414485729858386,0.000452030383060938,0.000092898435960685,-0.000274542989416057,0.00449120001234226,0.564262973515142,0.00182893267625074,-0.000780213645454814,0.0014324302158188,-0.00329474160848165,-0.00006787579161503,0.000599447493227578,0.0000455021435495443,-0.0000532917239576356,0.0000145999665729599,0.0387894266964243,-0.000792066569740359,-0.000292423986749472,-0.00207581756005184,-0.0734044607240724,-0.00000420818206620952,0.000000901709621469798,-0.0000329633651257509,0.0000163573871259535,-0.0000877338114271298,0.000206667140706506,-0.0753973693808039,-0.000113350581607669,0.0000267370602287897,-0.0000311325094127554,0.0292696567181481,-0.000240168206462297,0.000203456214936698,-1.07888381964115,0.0115979699256091,0.0000192626380501598,-0.00000000000000320323324594114,-0.0000000000000023948691551998,0.0000534305576922587,-0.00000000000000139900467192754
"t26",-0.601054645987769,0.692024950126923,-0.52986038924133,-0.406843833884365,-0.491908135187424,1.94078107344652,0.571231091127747,0.419459002973998,0.35130387129662,-0.392174962230914,-0.239756936245791,0.652422829543264,1.17712296861904,0.595766131455468,0.659970760459081,0.0362683187446552,0.00779758758223808,0.16190308400571,0.232210039476935,-0.679284948577789,0.380209516152027,-0.334104111857872,1.82905847527121,0.0472321304365339,0.000701373477674389,-0.000332424387062987,0.0080104732660035,0.00125154268549468,-0.0228195879467562,-0.177109554525328,0.00330872446507549,-0.0254806320696174,-0.0300223430000929,0.000719983687408681,0.0000979632231026389,-0.016757511324347,0.00508315268099236,-0.00215057176690095,-0.00383079423653821,-0.0156813631031036,-0.000491722174119608,-0.000362656192022431,-0.214037669590245,0.000344374671013454,-0.000410019840472482,0.00252796636283848,-0.000322529877902258,0.00000954430807417042,0.000000957744019313366,-0.0000201525227188076,-0.00000132001769369351,0.000000925426391551,-0.000000606688571872815,-0.0000033533792078279,0.000147332308313969,-0.0000136289175385394,-0.000000143151335147823,-0.000133483972087423,-0.00000000000000461757959855461,-0.0000000000000612915683913371,-0.84466970690826,-0.00000000000000672020302042763
"t27",-1.63824430669926,-2.36236177903236,-2.21759121318189,-1.49926675052234,-0.425639869617324,0.251818894728066,0.0349537442857461,-0.0095282136370506,0.152373350860736,2.39910270867352,-1.64131119577593,-0.84548275239456,1.33514307644806,0.70558887043805,0.877237298196941,0.059680271213358,0.0250267771072771,0.303546297371703,1.15901385451698,1.05027602451048,-0.0228966419923633,0.0443016105269159,-0.196819447138732,0.00138256127254997,0.000194184363952189,-0.000131108250143739,0.00435800901108253,0.000713886707427801,-0.0145936046781473,-0.197082695716675,0.00212726892838208,-0.0289664620166449,-0.698099072672104,-0.00136268769558338,-0.0000671797551296694,0.0273165129313963,-0.151067126205243,-0.0000863651739906346,-0.000431081440475979,-0.00266704274304158,-0.00000398029210979758,-0.000033741193918232,-0.00239699333471941,-0.0000145396597251423,0.000151747785066177,-0.00130915909467288,0.00127498400698547,-0.0000550582959832871,0.0000154126271794048,-0.000080536184030724,-0.00000327044946209723,0.00000270319484422211,-0.00000251483284615701,0.00000489955575941787,-0.00327936396674457,0.00000214482969293835,0.00000000748636626005227,-0.170324335613224,-0.00000000000000294640212720672,0.000000000000000956829657759372,0.00000938703546766322,0.000000000000000820496811271401
"t28",-1.19327447605629,-0.767541813945389,-0.0746755833565167,-1.86236778179168,-0.879723056829556,-0.496946316418603,1.72002664318446,1.60206282783054,1.38071012979146,1.78974659832155,-1.80390731841349,-0.643657411027816,0.643223796746986,0.118256156717738,-1.95735393559658,0.254268154445161,0.0555742563675725,-0.216233561551408,0.0648135784606809,0.0321516692005836,-0.0642369407055337,0.0055186559725257,-0.00508825556901584,0.198736838639779,1.13866209577853,-0.000590746724949849,1.24321201580841,-0.0067761932357636,-0.0119929485257222,0.000621311004955441,0.00195458590271318,-0.0140682377782352,-0.000353621149148736,0.000671252152409646,0.0000827987164328364,-0.00056331813665636,0.000175559001254123,-0.00196972133789546,-0.00266112299453928,-0.000760044027688462,-0.00114508284552813,-0.000279290278037243,-0.00159358733499827,-0.000278294206137361,0.29999916606532,0.0146306866206985,-0.000445766544621889,0.0194813955594129,-0.0000111024770608587,0.000448613770279928,-0.00000141837455812736,0.0000016926083138784,-0.00000199984922374596,0.00000615506638116985,-0.00000795780521173614,0.00000682688695531879,0.0000000496326771319669,0.000000792830104198024,-0.00000000000000235973315806608,-0.00000000000000323236571203443,-0.0000103895197872286,0.00000000000000333487152083265
"t29",-0.576977449679437,-0.899236795469583,-0.896940493698206,-2.2845063409881,2.05875844612747,3.31875982227702,0.296895441537452,0.597203340013461,2.24505496464078,1.15679016363563,-0.491068269270124,-0.658291250545391,0.623328481171804,0.113453085948136,-1.83133000343927,0.228519632415648,0.045977396942781,-0.146286906029298,0.0420427799822005,0.00638823958412178,0.0616828183931622,-0.0290574760930549,-0.0545973555469536,0.363735404125034,1.12208925813803,-0.000363828356245027,-1.33878434262282,0.014879357237351,-0.701622939619436,0.00146328637714186,0.00332608901612746,-0.0224218316917197,-0.0005158612697863,0.000939781214836304,0.000109577214926598,-0.000729538418678921,0.000225693240777085,-0.00230232808080656,-0.00268031935261837,-0.000738489412042098,-0.00110530488219514,-0.000227179122052153,-0.000894772640218569,-0.000125948123716224,0.0233640355858156,0.000865743640479669,0.000347583303891678,-0.0154995103520429,0.0000520976976418567,-0.00216747035942986,-0.0000153516242680705,0.0000129109808529742,-0.0000122173062483652,0.0000252629677619156,-0.0000305358515392536,0.0000256595036748955,0.000000188509777784164,0.00000378351665141825,0.00000000000000732439434347563,0.00000000000000777093069938363,0.000000902553427979851,0.000000000000000209859363805403
"t3",0.265344093534712,-0.0328026373866919,-0.578240768539629,-0.243315043522282,-0.642587932719406,-2.22265863013871,-0.631814805879416,0.0074088740541469,-0.349885333284523,-0.420297973646057,-0.379684731925531,0.615947758560395,-0.324016493021359,-2.85719459271069,0.566930494337044,1.33875722809419,0.112506063653753,-0.0482056137549649,0.0204684699195677,-0.000706022147167301,-0.000269944245742084,0.00174502558975605,0.00029175240228296,-0.0000290462851671584,-0.0000412192774656971,0.000359328391038908,-0.00175203249705646,-0.00112349508713205,0.00601572368571518,0.00665825159904559,-0.174256796038505,0.0362514696310648,0.00308088759474907,-2.4965698544855,0.0328965079536127,-0.00247944646612594,0.000708308281231788,-0.015563043438033,-0.00342753501121506,-0.00109655010048051,-0.00539302396195788,-0.000933853696791471,-0.000878614452291909,-0.00464926652634071,0.000557773324649864,-0.000261917759487406,0.000288103462414185,-0.000397426963025964,0.000366112148692395,-0.000513595670824714,-0.0248645468796256,0.000625198140241094,-0.0000604695664460713,0.0407730977613431,-0.0000399050703557228,0.00013520878720817,0.00000106111590007889,0.00000765241460722901,-0.000000000000000127319184863701,0.0000000000000000125971007762614,0.0000415660335015681,-0.000000000000000373075973021952
"t30",-0.812562920483022,0.00334015115478326,-1.14945149706856,-0.43525257140945,-0.407008220737409,2.26388953053333,-0.261679283474582,0.0190208749216413,-0.321156033668118,0.743193043750571,-0.835767777886122,-0.752120989296025,1.1805168917715,0.597962230486102,0.663587874726825,0.0365525882418129,0.00788552794683474,0.164427715480484,0.235954378252308,-0.693078138657635,0.388791822086792,-0.342010036314224,1.87380160001274,0.0485267422480497,0.000726129905967636,-0.000345993046613027,0.00839565261360907,0.00131313572751719,-0.0240025381238485,-0.187732218730317,0.00354554483928621,-0.0274412777128144,-0.0326764753126599,0.000789307292389033,0.000108818915711178,-0.0187303666018017,0.00569444184378291,-0.00249489668848321,-0.00473162041520744,-0.0196498546781877,-0.000617751631873821,-0.000483535776471263,-0.311377032461867,0.000517864298316513,-0.000679458928460084,0.00420716903967186,-0.000634396427768664,0.0000196455485714936,0.00000210614721454407,-0.0000487115932344035,-0.00000598218305434145,0.00000557308437775967,-0.00000578439151553486,0.0000163101415064984,-0.000368205974393691,0.0000216964911645082,0.000000176779317846722,0.0000848277558761802,0.00000000000000216333052210529,0.0000000000000135032383135863,0.123900608712609,0.000000000000000310516227574411
"t31",0.517592988903298,0.635961506379295,1.11341313653872,-1.82872018198634,1.05320231366742,2.61651969176219,0.826291304889476,0.0716800412406464,-0.345683976013446,0.371821540925517,-1.43519345129157,0.129699806012956,1.30570274015401,0.685545318577192,0.83954514648087,0.0559286659618168,0.0226854488775581,0.262548621290392,0.996265904335575,0.856399290932488,-0.0180850641438793,0.0344287437886483,-0.151087476379993,0.00101098476089774,0.000120774458442966,-0.0000699509057215744,0.00173799745035347,0.000268218989558554,-0.00466289358592283,-0.0235804069773204,-0.000540075346889375,0.0137942685168623,0.776090253472097,0.00238125163731748,0.000257323846668137,-0.157713966914328,1.03024116411614,-0.00106018866819147,-0.00207316273669737,-0.0120632529843839,-0.0000178392251882898,-0.000133650552936458,-0.00905140026013311,-0.0000548044729947872,0.000581847095864919,-0.00502594983431278,0.00521379427049176,-0.000229656957158688,0.0000662180765083857,-0.000361127804688738,-0.0000189250108460967,0.0000171120912602457,-0.0000178084479883014,0.0000865304013756341,-0.436977484344326,-0.0000607789607701572,-0.000000216335643113139,-0.000107697192285567,0.000000000000000438645582464801,-0.00000000000000377549017682039,0.000195543606128516,-0.000000000000000579641303936112
"t32",-0.280595545960093,0.176788470270917,0.774982204265599,-2.29921613685515,1.48455011253797,1.61055388065189,0.645718054742102,0.761748399959416,-0.610612131965214,0.399975945287084,-0.390339944973739,-0.578942925643025,1.30570274015401,0.685545318577192,0.83954514648087,0.0559286659618169,0.0226854488775583,0.262548621290392,0.996265904335576,0.856399290932488,-0.0180850641438799,0.0344287437886481,-0.151087476379993,0.00101098476089794,0.000120774458443329,-0.0000699509057221112,0.00173799745035342,0.000268218989558521,-0.00466289358592301,-0.0235804069773202,-0.000540075346889078,0.0137942685168629,0.776090253472097,0.00238125163731712,0.00025732384666899,-0.157713966914328,1.03024116411614,-0.00106018866819168,-0.00207316273669718,-0.0120632529843846,-0.0000178392251872832,-0.000133650552936398,-0.0090514002601329,-0.0000548044729940827,0.000581847095865979,-0.00502594983431259,0.00521379427049162,-0.000229656957160009,0.0000662180765086244,-0.000361127804688893,-0.0000189250108466314,0.0000171120912606474,-0.0000178084479887793,0.0000865304013762453,-0.436977484344325,-0.0000607789607700328,-0.000000216335642980591,-0.000107697192286766,0.00000000000000250138909656609,-0.00000000000000152651793986421,0.000195543606129809,0.00000000000000054465625086479
"t33",0.0415530022721403,-0.826496154275443,0.661231689158502,0.731624533270513,-0.527011810417341,-1.5802065889346,-0.794812622758699,0.264905801709445,0.0259789198243016,-0.71116953464578,0.318367213274996,0.256843073634145,-0.364504491458179,-3.3326347433681,0.721574109164072,1.94227969587116,0.206937611015894,-0.136853324587254,0.0624107409277767,-0.00538304828534153,-0.0135340131157245,-0.0502471762271736,-0.00387418921008923,0.000126998824405072,0.0000614123031179985,-0.000355049046617013,0.00116283008090157,0.000707138205323605,-0.00336897231763586,-0.00271260011614946,0.0484444570412078,-0.0085851455142169,-0.000528105630409945,0.344989048588612,-0.00303754954284608,0.00018685203309438,-0.0000493987739672353,0.000121112282189082,-0.000166154052157642,-0.0000625186687663248,-0.000315152069387787,-0.0000795589481940601,-0.000099205035256622,-0.000566300621426261,0.0000814480701345874,-0.0000385205693386202,0.0000548555945591367,-0.0000810326379416283,0.0000826547992942528,-0.000135337952660772,-0.376553031554713,-0.000385840677355753,0.0000129371840443668,0.0496575021555822,0.00000737812547759079,-0.0000105184842659034,-0.0000000518957623596659,-0.0000000683963493803697,-0.00000000000000374304667771641,-0.00000000000000336156043333479,0.000000422660763713944,0.00000000000000200066412028378
"t34",2.08441375043957,1.29885249146183,2.30083608881817,-0.0618894207418798,-1.49828072911854,0.125556535493613,-0.752615773621416,-1.08099923629211,-1.43644091624425,0.429602328038703,-1.12315696128333,-0.359138159060378,1.38243929394046,0.739994166378857,0.953777542759644,0.0697580184790935,0.0371099680586287,-0.853691980697961,-1.37267467022282,0.443552679137033,0.00742943556583822,0.0172956844446067,-0.0899425047139668,0.000760525690200808,0.00011900139454207,-0.000080704147795381,0.00260350104243427,0.000423350443324505,-0.00848754669307214,-0.107138162363264,0.000643495411354932,-0.00738640146399622,-0.0199261106593352,0.000266994623520481,0.0000450286414708701,-0.014568690248689,0.00389701631251515,-0.00138387711311147,-0.00948625286019084,-0.355176237192617,0.0183465631063647,0.00013052390994559,0.00208697909911991,0.00000702451693921401,0.0000446645733204897,-0.000449952553480664,0.027019685877325,0.000201763228734343,-0.0000213360882157388,0.0000568837839723043,0.0000000761352187882608,0.000000128263883537391,-0.0000002764743977849,0.00000150358890857505,-0.0000550163570797173,0.00000216107578688395,0.0000000174349172864528,0.0000111476339675702,-0.000000000000000479023726980836,0.000000000000000501595519023562,0.0000323303368131202,-0.000000000000000230003513793454
"t35",0.637409623221611,0.976251329879466,0.259040193124729,-2.82326956865124,3.54184677545607,2.01080280276284,0.747850404478483,0.817057016751023,-0.0159763679576748,1.87234635847043,-2.21010007952492,-1.49595375240845,1.16740823570146,0.591216215388132,0.661360796300709,0.0380783784572556,0.0114517403574054,0.035816924137623,0.125366285524091,-0.275457183852043,-0.0413659774818842,-0.000316987425262316,0.0365641940821821,-0.000742680320261618,-0.000267985673310677,0.000280952297008035,-0.0157936656049301,-0.00281171518655402,0.0703144704896124,2.1647268546384,0.0330545248410408,-0.167669183807049,-0.2277098532532,0.00236869994832191,0.000296739309494776,-0.108690818857551,0.018392728424146,-0.00447466342415894,-0.00657779667477658,-0.0400488951243511,0.000114228009857237,-0.00037592437589616,-0.0238571447110303,-0.00014181391402779,0.00162809924451366,-0.016498470183325,0.0126085942370978,-0.000494096666811255,0.000140273180610123,-0.000741058035458478,-0.0000321601751890444,0.00002721736852757,-0.0000260483487347371,0.0000585420237989299,-0.00184924787647092,0.0000666187835883229,0.00000051750449349914,0.000315986429283999,-0.000000000000000156714840409802,-0.000000000000000110041241225604,0.00111472716965262,-0.000000000000000559885289064346
"t36",0.997511273323799,1.75902319767185,0.736881554791524,-3.8658188511108,5.08455947667725,3.96658961121268,0.882861250980812,0.281943807466991,0.872753953968644,-1.10963177258575,0.874607817628852,0.175894980627673,1.16740823570146,0.591216215388132,0.661360796300709,0.0380783784572555,0.0114517403574055,0.0358169241376229,0.125366285524092,-0.275457183852043,-0.0413659774818842,-0.000316987425262198,0.0365641940821822,-0.000742680320261244,-0.000267985673311557,0.000280952297008899,-0.0157936656049299,-0.00281171518655412,0.0703144704896121,2.16472685463841,0.0330545248410412,-0.167669183807049,-0.2277098532532,0.00236869994832143,0.000296739309495578,-0.108690818857551,0.0183927284241462,-0.00447466342415922,-0.00657779667477638,-0.0400488951243512,0.000114228009858285,-0.000375924375895866,-0.0238571447110299,-0.000141813914027439,0.00162809924451444,-0.0164984701833244,0.0126085942370985,-0.000494096666810345,0.000140273180611111,-0.00074105803545984,-0.0000321601751904864,0.0000272173685298524,-0.0000260483487349348,0.0000585420237991007,-0.00184924787647121,0.0000666187835878277,0.000000517504493314572,0.000315986429284605,0.000000000000000262426468425671,-0.00000000000000104370547293166,0.0011147271696522,0.000000000000000539577833264953
"t37",-2.98765452667845,-2.38275452001273,-1.50345246114561,-2.73580620371218,0.152490276543538,0.611017540017616,-0.966279128222648,-0.845912955627248,-0.294445269758605,-0.37896076302667,0.897245661116505,0.204663916903162,1.27521552419079,0.664869968845909,0.801006856045566,0.0521379542697798,0.0203613706747458,0.222787338069559,0.838889240393268,0.673329933131865,-0.0136023821335795,0.0252913881751511,-0.108969911665607,0.000675086882768054,0.0000579206325199125,-0.0000197830131139264,-0.000276965960738252,-0.0000707647583724759,0.00268981053930189,0.0929516103803386,-0.00201123603117962,0.0344444046784391,1.20491505113373,0.00274769140173566,0.00006546767048044,0.0954501625470664,-1.17096401504117,-0.00331933920875667,-0.00410660236772174,-0.0229948443282638,-0.0000337996575093102,-0.000229086903852676,-0.0142505226700688,-0.0000842159116462986,0.000842904873343336,-0.00726412019777577,0.00696008246715223,-0.000300793265383842,0.0000844693018248683,-0.000444594078167032,-0.0000192666516427997,0.0000163247054158041,-0.0000156544829728874,0.0000364493459839661,-0.0135100982741181,0.0000369250389514516,0.000000294152856639741,0.00222628903624256,-0.00000000000000101081511873454,-0.00000000000000182202147398085,0.000650789525750357,-0.000000000000000131070078881793
"t38",-2.39984161824855,-2.22075911127472,-1.17213358851131,-4.10466594378399,2.00340008780656,2.52154005891711,0.893327120324815,1.56695247031056,1.54361148990112,0.060909581637091,-0.190461439680549,0.48779226882193,1.27521552419079,0.664869968845909,0.801006856045566,0.0521379542697802,0.020361370674746,0.222787338069558,0.838889240393268,0.673329933131865,-0.0136023821335794,0.0252913881751513,-0.108969911665607,0.000675086882768179,0.0000579206325202003,-0.0000197830131134141,-0.000276965960738749,-0.0000707647583728521,0.00268981053930146,0.0929516103803382,-0.00201123603117734,0.0344444046784395,1.20491505113373,0.00274769140173464,0.0000654676704825721,0.0954501625470664,-1.17096401504117,-0.00331933920875668,-0.00410660236772196,-0.0229948443282637,-0.0000337996575092821,-0.000229086903852656,-0.0142505226700687,-0.0000842159116473494,0.00084290487334173,-0.00726412019777541,0.00696008246715263,-0.000300793265385242,0.0000844693018249168,-0.000444594078166659,-0.0000192666516436626,0.0000163247054154392,-0.0000156544829720701,0.0000364493459836562,-0.013510098274118,0.0000369250389518314,0.000000294152856620807,0.00222628903624336,0.0000000000000012839841659341,0.00000000000000100623149067617,0.000650789525751196,0.00000000000000000648744236046179
"t39",-1.81391065590065,-0.846226496006215,-1.92371928617779,1.98747416384845,-3.56651454769256,-0.191759700164103,1.17006424994679,1.87556244732917,1.96069128480376,0.857219863535653,-0.553523470331897,-0.864027871404807,1.18226203230446,0.599091007007738,0.665445400367696,0.0366984034376412,0.00793056171947445,0.165717905610573,0.237867407718801,-0.70011143417,0.393163427120517,-0.346035082812194,1.89657273956108,0.0491847220229796,0.000738667723010473,-0.000352848200421362,0.00858964491265991,0.00134414166328584,-0.0245973754239445,-0.193055726684583,0.00366367369906531,-0.0284172129126415,-0.03399182525689,0.00082356262714719,0.000114155150562905,-0.0196978086767159,0.00599394300213103,-0.0026614285828232,-0.00515823455687301,-0.0215208564041048,-0.000677123186369492,-0.000539510103104884,-0.355464017291431,0.000595847043462043,-0.000798166052689014,0.0049463738908858,-0.000767880459844195,0.0000239408674531061,0.00000259019387513835,-0.0000606136928790321,-0.000007832258780185,0.00000739402607138273,-0.0000077852211939836,0.0000234438526077183,-0.000548837813224891,0.000033621915034509,0.000000281878780361396,0.000149870814857618,0.0000000000000014278487051073,0.0000000000000212380525434202,0.323720176196838,0.00000000000000286771089613099
"t4",-0.592466438738331,-1.68885387929555,-1.5615477940983,-1.78666359187891,0.111946677375221,2.64488051532349,-0.056505334822495,0.198340384533767,1.23290177794785,-0.0770920394385526,-0.0448224513657817,1.05417649912222,0.434961451103684,0.0847525784509462,-0.328737655894784,-0.0669273085819242,-0.0651541053884089,0.698796505630861,-0.221673891183541,-0.350259159268958,1.74365126345717,-0.507995451298877,-0.666137311894573,-1.2224173921207,0.00564244497575579,-0.00193804914762688,0.0348882248578932,0.00520042354074352,-0.0836402304914514,-0.0535996507345841,0.024836990404881,-0.188707448004074,0.00134272721850073,0.000393528841674072,0.0000543034675133183,-0.000216785566177184,0.0000351167557020472,0.00715809633953534,1.65905160326302,-0.0442499609089592,-0.0476053585951412,-0.00317536931649646,-0.0099083522257952,-0.00106273491102743,0.0047203285678634,-0.00263070373020986,0.00264114783326353,-0.00306185036016795,0.000768033854586241,-0.00384371512937898,-0.000152187273720558,0.000127087617221573,-0.000120142663972813,0.000259161635166087,-0.000382657108964896,0.000290399123499224,0.00000223594646763502,0.0000646801810568918,0.000000000000000494999857561323,-0.000000000000000741713609695553,0.000340334045055724,0.0000000000000000983175559196142
"t40",-1.64907267998188,-0.830062848870331,-1.56013187991518,-0.0276709158148114,-1.68692774954963,1.64083169757741,1.14722966689647,0.973992009049432,0.730763678799371,0.817030150200063,-0.584926528729407,-0.419045766600852,1.18226203230445,0.599091007007738,0.665445400367695,0.0366984034376411,0.00793056171947441,0.165717905610573,0.237867407718802,-0.700111434170001,0.393163427120517,-0.346035082812194,1.89657273956108,0.0491847220229804,0.000738667723011312,-0.000352848200422389,0.00858964491266067,0.00134414166328574,-0.0245973754239437,-0.193055726684583,0.00366367369906259,-0.0284172129126417,-0.0339918252568899,0.000823562627145812,0.000114155150563061,-0.019697808676716,0.00599394300213101,-0.00266142858282363,-0.00515823455687323,-0.0215208564041049,-0.000677123186369448,-0.0005395101031046,-0.355464017291431,0.000595847043462146,-0.000798166052687446,0.00494637389088563,-0.000767880459844337,0.0000239408674527007,0.00000259019387479044,-0.0000606136928790928,-0.00000783225878108282,0.00000739402607363374,-0.00000778522119433029,0.0000234438526096007,-0.000548837813224922,0.0000336219150351254,0.000000281878780362231,0.000149870814857996,0.000000000000000844543500662106,0.0000000000000200590458858644,0.323720176196841,0.00000000000000260473450622962
"t41",-2.82632281933426,-2.5353005673773,-3.24767839844361,-3.29699652499882,1.12962292763812,1.6077120783755,1.60985407477402,1.59384941647483,1.62580149723979,-0.965611764440986,0.655600232114332,0.732094660785046,1.33775287624437,0.707350488261437,0.880486765212046,0.0599955381002686,0.0252162364350628,0.306707514030648,1.17148768415317,1.06444117203424,-0.0232390296104267,0.044995210120608,-0.200002068701593,0.00140752637296301,0.000198659374562579,-0.000134580483983419,0.00449287372692118,0.00073646939275526,-0.0150784660126983,-0.204591108528461,0.00222277371376867,-0.0303565010793775,-0.736123428717272,-0.00144286288457206,-0.000071661111140588,0.0292388590498328,-0.161898748976365,-0.0000942920585880498,-0.000485302358304748,-0.00302242120062567,-0.0000045159246001418,-0.0000392779507851479,-0.00288604492650418,-0.0000177129693240575,0.000190779491845107,-0.00164802768894656,0.00167939953504074,-0.0000733061313945573,0.0000208229055533039,-0.000110891111827802,-0.00000490339745971415,0.00000414729181470299,-0.00000395719462423705,0.00000870984650911169,-0.00626543375654703,0.00000444519145828723,0.0000000165230798734352,-0.484320626769752,-0.00000000000000332884056066249,0.00000000000000972062681903372,0.000390786203055077,-0.000000000000000648934286234764
"t42",-3.40400466559291,-3.11230492341528,-2.1081390132503,-2.05642128931562,-0.105314427039461,0.555800148620061,1.50063791665121,1.44055660855917,0.952729014044829,-1.72934073538833,1.72695454300588,1.88324605407611,1.33775287624437,0.707350488261438,0.880486765212046,0.0599955381002686,0.0252162364350625,0.306707514030648,1.17148768415317,1.06444117203424,-0.0232390296104266,0.044995210120608,-0.200002068701594,0.00140752637296309,0.000198659374562232,-0.000134580483983197,0.00449287372692118,0.000736469392755357,-0.015078466012698,-0.204591108528461,0.00222277371376929,-0.0303565010793775,-0.736123428717271,-0.00144286288457069,-0.000071661111142252,0.0292388590498326,-0.161898748976367,-0.0000942920585870255,-0.000485302358305145,-0.00302242120062586,-0.00000451592460093689,-0.0000392779507857509,-0.00288604492650411,-0.0000177129693259932,0.000190779491844359,-0.00164802768894665,0.00167939953504106,-0.0000733061313938813,0.0000208229055540171,-0.000110891111827456,-0.00000490339746056446,0.00000414729181501503,-0.00000395719462349218,0.00000870984650761536,-0.00626543375654722,0.00000444519145684617,0.000000016523079867089,-0.484320626769754,-0.00000000000000289922046965979,0.00000000000000695370946083914,0.00039078620305475,0.0000000000000000394062758970616
"t43",2.57486154099588,1.55056030116361,2.52459890109272,-3.39669872872828,2.12779618570091,3.4320678419808,-0.391236389724326,0.013334723033032,-0.171212219514249,0.546472667785142,-0.432115713787881,0.115993163360324,1.35222429358322,0.719272229934226,0.913876253432826,0.0655582595644398,0.0338656881018779,-0.749311124424216,-1.19887423609601,0.372043461493526,0.00608991282660452,0.0140171749087937,-0.0722800517743393,0.000591873356742664,0.0000843011996389133,-0.0000530905264471389,0.00153371393178496,0.00024477613033824,-0.00469008865741797,-0.0504678359047615,0.000224598829069568,-0.00214264029353179,-0.00316755900544159,0.0000171894822842796,-0.00000540511486485475,0.0030977487188159,-0.000963697363919865,0.00118565703026647,0.0230007678802394,1.03364021122149,-0.0551062255590327,-0.000776779521767008,-0.0364075718200279,-0.000217312270716881,0.00279527241750098,-0.0256565007705863,0.461421101568903,0.00308330699641591,-0.000290024679064506,0.00069043272898143,0.000000714690195579686,0.00000116280778698309,-0.00000243365001126884,0.0000123654489210013,-0.00044796516447322,0.0000176216271656721,0.00000014310900337683,0.0000959598970831376,0.0000000000000000645252221547398,-0.00000000000000026431079047343,0.00037650598748815,-0.000000000000000486173803311192
"t44",2.29907783120418,1.31561156375473,2.17068947460076,-1.85618742652304,1.33019874795296,3.07761790560203,2.26238909409292,2.30853823318417,2.71486260822679,1.81342324795824,-1.41392995136351,-0.466704131591655,1.35222429358322,0.719272229934226,0.913876253432827,0.0655582595644398,0.0338656881018779,-0.749311124424215,-1.19887423609601,0.372043461493526,0.00608991282660417,0.0140171749087936,-0.07228005177434,0.000591873356742246,0.0000843011996391182,-0.0000530905264461846,0.00153371393178446,0.000244776130338402,-0.00469008865741836,-0.0504678359047613,0.000224598829069609,-0.00214264029353169,-0.00316755900544162,0.0000171894822844923,-0.00000540511486520144,0.00309774871881587,-0.000963697363919925,0.00118565703026678,0.023000767880239,1.03364021122149,-0.0551062255590336,-0.000776779521767199,-0.0364075718200279,-0.000217312270717269,0.00279527241749994,-0.0256565007705861,0.461421101568902,0.00308330699641674,-0.000290024679065177,0.00069043272898226,0.000000714690196147355,0.00000116280778400275,-0.00000243365001129118,0.0000123654489210408,-0.00044796516447351,0.0000176216271657132,0.000000143109003309715,0.0000959598970822106,0.000000000000000429527595980262,-0.000000000000000795886046481255,0.000376505987488959,-0.000000000000000149792417707677
"t45",0.0589460204790483,0.322167188585358,-1.01224830876604,0.511058402378522,-1.94104846940373,-2.23412945354852,1.79618958872805,1.50330647214298,0.414796031694257,0.62806875312604,-0.075395553496161,-1.07922213359402,-2.35438416684544,0.88339520894989,0.206550818162371,0.11887952750854,0.0338267065745193,-0.131532144040378,0.0543126724694167,0.00232179893459201,-0.0230929694873246,-0.00472062374462415,0.00514235461138201,0.000577356849413001,0.000128768924341068,-0.000404532715537191,0.00721234880119741,0.918919632103952,0.00307924920435013,-0.00146658284359413,0.00322187751264272,-0.00814592636864131,-0.000212358625170944,0.00228888110710287,0.000290287757965534,-0.000496685353582092,0.000163473215668644,-0.20700961710455,0.00117415805579132,0.000372706025781415,0.00258125283406204,0.0587509785070553,0.0000022453245950789,-0.000000428876809579547,0.0000120229837325925,-0.00000590763071727979,0.0000233280943797304,-0.0000515603914153794,0.0173247422359714,0.0000235606340555362,-0.00000379442990251667,0.00000404342341679228,-0.00346741517803324,0.000019431272024634,-0.000013622096706356,0.0597206397698532,-0.00056190119972549,-0.000000597263563359755,0.000000000000000286498698276637,0.00000000000000206964294474775,-0.000000341584852882001,-0.0000000000000014068630869788
"t46",3.29221961196051,3.22262104158424,3.81069654704419,-0.88866051633726,2.06560836342246,0.192479747968805,-0.974296175757963,-0.431337659556918,-0.768433210600692,-1.10655811558157,1.25263037785226,0.464164219224821,-0.119432665563287,-0.457203000290062,-0.177527065926977,-0.400339318308459,-0.233868699221573,2.12184780930825,-1.05072819829571,0.341041776395682,-0.990379975577975,-0.781274397199939,0.0465391872324231,0.00714898706262894,0.000956537592914448,1.8997554944994,0.0107616279517567,0.00626371164470644,-0.0271055439088308,-0.0162570286890308,0.0329195882290233,-0.0459389671993109,-0.000968325240954544,0.0153712660638766,0.00141684697086951,-0.00122639749638571,0.000378923751992381,-0.0146820743982315,-0.00428595662114467,-0.00141528967877046,-0.00699574897761403,-0.00131447883624737,-0.00130491959855339,-0.00107040472691105,0.000876799367309099,-0.000412048048368025,0.000463267490110449,-0.000641271329250132,0.00059290979820467,-0.000834156154521198,-0.000202597777147547,0.000170530991952164,-0.00010165368040932,0.000359691013681005,-0.0000809496731282251,0.000257909452145977,0.00000199687979393876,0.0000142115285491519,0.000000000000000526476867682649,-0.00000000000000118761796278017,0.0000772250397457899,-0.000000000000000146665499081864
"t47",2.12087320586104,2.69365146649921,3.08591002373291,-2.13332567875056,3.28865226798693,2.30697307913877,-0.770032804786559,-0.929141591751631,0.285160335859827,0.993936441438319,-1.06337852724241,-2.26355129987825,-0.119432665563288,-0.457203000290062,-0.177527065926977,-0.400339318308458,-0.233868699221573,2.12184780930826,-1.0507281982957,0.341041776395683,-0.990379975577976,-0.781274397199939,0.0465391872324228,0.00714898706262785,0.000956537592914627,1.8997554944994,0.0107616279517582,0.00626371164470659,-0.0271055439088337,-0.0162570286890319,0.0329195882290235,-0.0459389671993118,-0.000968325240952742,0.015371266063876,0.00141684697087041,-0.00122639749638668,0.000378923751991094,-0.0146820743982327,-0.00428595662114565,-0.00141528967877086,-0.00699574897761571,-0.00131447883624628,-0.00130491959855423,-0.00107040472691121,0.000876799367309453,-0.000412048048367154,0.000463267490110666,-0.000641271329252151,0.000592909798205934,-0.000834156154523818,-0.000202597777147412,0.000170530991946647,-0.000101653680407092,0.000359691013681735,-0.0000809496731252531,0.000257909452145314,0.00000199687979337166,0.0000142115285478545,-0.000000000000000723123794612902,0.0000000000000000186489643145077,0.000077225039745247,-0.0000000000000000203647431814874
"t48",-0.169909196074534,-0.310368846958388,-0.283825455371874,-2.6374123842833,1.19782072295042,1.8032323596546,0.576297951716459,1.19598846668666,0.640489255609323,-0.624150927406542,0.716796548003398,0.38984699964417,-2.34370556406184,0.878087627017671,0.204553593565313,0.117055235758652,0.0329562657875763,-0.125839259261976,0.051821372372541,0.00215829039284688,-0.0210709046121528,-0.00426268098032913,0.00460496955267735,0.0004982272299864,0.0000918692860965892,-0.000196872993924321,-0.0036646834829777,-0.865784291292208,-0.011547522108118,-0.00465718310904387,0.00655536074124244,-0.0155865775872441,-0.000384158307709806,0.00409806266463524,0.000525163849736925,-0.000911030713270287,0.000301699802901023,-0.451395744029029,0.00760706877869217,0.00970835137180631,0.175817806234486,-0.0527882243289675,0.000000226448522446639,-0.000000461297903934081,0.00000895619198418988,-0.00000445421634177643,0.0000273683533862992,-0.0000692731213830428,0.0296424372881492,0.0000707149157527077,-0.000000681122963895442,0.00000292049510090302,-0.0339902381248215,-0.000000881762036072391,-0.000000261072506977877,0.000888956943277274,0.000669932948920514,0.000000152808598087866,0.00000000000000178256187939058,0.00000000000000596863362203015,0.00000135380292404404,-0.00000000000000179762185901105
"t49",-0.752526458224977,-0.967963115406956,-0.0267478840458514,-1.27984291961145,2.1489139215012,0.646285678143196,-0.152087852293017,0.100548997250483,0.506040827268155,1.427009338872,-1.24441538326737,-1.11311947333105,-0.269311283439302,-2.0757761548983,0.154378800363686,-2.58141247201219,1.97893733608398,-0.389393466166662,0.17189915837558,-0.0126937843949608,-0.0305402861038373,-0.111608136031538,-0.00852053820504322,0.000271871318915192,0.000128147496837475,-0.000747858941254712,0.00256497180665438,0.00157788790696354,-0.00776847063779774,-0.00755103111754342,0.583868821588632,0.0375301700988244,0.000173607698442276,-0.0076411588440797,0.000231071981192003,-0.0000474541620819608,0.0000172227341928358,-0.00166979771293035,-0.000818168412346655,-0.000296157109212955,-0.0014879764533129,-0.000420386282082869,-0.00139654170079387,-0.598130889867671,-0.000244201986894451,0.000108506353775882,-0.0000171092370379095,0.00000840052440017145,0.00000857552548996451,-0.0000389122373049607,-0.000544180603686753,0.388056167324687,0.0000379079679671104,-0.0000835758813239199,0.000000745304792491235,0.00000194726901526625,0.0000000318704933363686,0.00000048350754542535,-0.000000000000000822893701692072,0.00000000000000508601935236374,0.00000435435477465768,0.0000000000000000549882724267983
"t5",4.38056199842025,2.92856491709347,2.4668687156431,0.448185455572181,0.951728342356627,0.30646523980172,-1.04234888756902,-1.81243753210647,-1.48148032550561,-0.369357055174078,0.10499877054208,0.240857240643034,-1.97153650462696,0.699919147006904,0.142913928028271,0.0666774855455287,0.0125759693351872,-0.0182907342151295,0.00601976070313562,-0.000248636968080727,0.00511524288719958,0.00129992687977572,-0.00161627406237875,-0.000261625141469812,-0.0000986868137480852,0.000353827491537373,-0.0028893018134877,-0.0745847303835731,0.00689597446755882,0.00625163163076028,-0.012397683572648,0.0325811131400835,0.000939231742765061,-0.0108174193276674,-0.00151957920072844,0.00269958712904108,-0.000899023061987002,1.12632649537088,0.0325094257309225,0.0719478830301033,1.41162700584731,0.635181626147566,-0.00496357383402314,-0.00227081654272607,0.00254651622449816,-0.00119095930370487,0.00124121992677472,-0.00180149783175425,0.119083985106737,-0.00157158872402198,-0.000249128711217256,0.000208146927819953,-0.0139151693352246,0.000414757899042584,-0.000149161533704549,0.0286570096078539,0.000216653799781189,0.0000233672792617779,-0.000000000000000373956612796112,0.000000000000000155502517747478,0.000122079597625278,-0.000000000000000225936694526101
"t50",0.383876724933059,0.0304321996215692,0.349944865598231,-0.521655618890946,1.96859167611469,0.853535633425681,-0.204148595826118,-0.0202255422924125,0.411988750440972,1.61022804531397,-1.16868088070331,-1.14383461659234,-0.269311283439302,-2.07577615489829,0.154378800363678,-2.58141247201219,1.97893733608398,-0.389393466166648,0.171899158375578,-0.0126937843949604,-0.0305402861038354,-0.111608136031535,-0.00852053820504385,0.000271871318914149,0.00012814749683522,-0.000747858941255458,0.00256497180666059,0.00157788790696434,-0.0077684706378015,-0.00755103111754686,0.583868821588637,0.0375301700988256,0.000173607698438801,-0.00764115884407724,0.000231071981194777,-0.0000474541620818883,0.0000172227341943102,-0.0016697977129238,-0.000818168412345249,-0.000296157109212232,-0.00148797645331052,-0.000420386282084189,-0.00139654170079391,-0.598130889867674,-0.000244201986901075,0.000108506353777033,-0.000017109237039327,0.00000840052439621527,0.00000857552549046302,-0.0000389122373017747,-0.00054418060368196,0.388056167324676,0.0000379079679708208,-0.0000835758813274603,0.000000745304791778556,0.00000194726901127526,0.000000031870494611928,0.000000483507549526088,-0.000000000000000117853539639179,-0.00000000000000306480123975625,0.00000435435478048287,-0.00000000000000179009052650034
"t51",0.439022684200419,0.352959034900234,0.684767541993903,-3.52281507073786,2.46092762449103,3.26175432591822,-1.64303091728067,-1.41537756896534,-1.56091791721086,-0.154941023772088,-0.116469256479949,-0.410425990754586,1.28538548656498,0.670638417726736,0.806352998369072,0.0517772362150286,0.0190117674865938,0.085888307779783,0.31933262302421,-1.48094734044723,-0.668619523889317,0.238737418923844,-0.743010561416034,0.00311555804931253,0.000307023662751959,-0.000188997681101854,0.00585156817834758,0.000951333753200601,-0.0191866132897019,-0.269497347713743,0.000524557291723039,-0.011617634691407,-0.0419185908353109,0.000679558957714819,0.000251445044377807,-0.689089556927412,-0.0764104642560998,0.000161477842800397,-0.000771960189784978,-0.00536162464116219,0.0000156012478697252,-0.0000706935755019168,-0.00633391464328908,-0.0000445152918858977,0.00376414135046672,-0.07309801963426,0.000588249964845543,-0.0000364920676848268,0.0000137576799419498,-0.0000877546798256022,-0.00000510540269431582,0.0000044700714736069,-0.00000440490068700127,0.0000107316824291387,-0.000347675296188063,0.0000127699906928524,0.000000100280193052005,0.0000627689079673354,-0.00000000000000166888466741971,0.00000000000000598587736851234,0.00022675201412271,-0.000000000000000257822014312983
"t52",-0.186333850473179,-0.376433246794305,0.439959610507982,-2.88526129534708,1.51326380128282,2.29962182130247,0.231592506866589,0.622824603722938,0.347069867388237,-0.466238868248858,0.342309865068959,1.4192935431959,1.28538548656498,0.670638417726736,0.806352998369072,0.0517772362150287,0.0190117674865936,0.0858883077797832,0.31933262302421,-1.48094734044724,-0.668619523889317,0.238737418923844,-0.743010561416035,0.00311555804931265,0.000307023662751987,-0.000188997681101158,0.00585156817834844,0.000951333753200669,-0.0191866132897019,-0.269497347713744,0.000524557291723001,-0.0116176346914068,-0.0419185908353109,0.000679558957714183,0.000251445044377205,-0.689089556927412,-0.0764104642560997,0.000161477842799024,-0.0007719601897852,-0.00536162464116193,0.0000156012478700119,-0.0000706935755017619,-0.00633391464328906,-0.0000445152918880773,0.00376414135046723,-0.0730980196342606,0.000588249964846711,-0.0000364920676846393,0.0000137576799416794,-0.0000877546798265147,-0.00000510540269533126,0.00000447007147627317,-0.00000440490068672081,0.0000107316824308618,-0.000347675296188196,0.0000127699906929807,0.000000100280192946229,0.0000627689079670848,-0.00000000000000071184495674636,0.00000000000000725347990206946,0.000226752014123605,-0.000000000000000142707809792371
"t53",-0.0993472422973504,-1.81746828488911,-0.950718493407499,2.29790516093811,-2.53631571546619,-3.45249069802388,1.18093970068312,2.08518917054661,2.21660555053221,0.200571065620141,0.456555991192133,0.532314601578954,-0.364400802646026,-3.33141189188329,0.721172685909003,1.94069546867469,0.206686098481701,-0.136613541627273,0.0622970990409729,-0.00537022554534022,-0.0134974547605885,-0.0501035490251178,-0.0038626629443184,0.000126564936121797,0.0000611248387393498,-0.000353047887223643,0.00115471353645071,0.000702048657786986,-0.00334299195689786,-0.00268714829782563,0.0478650986155494,-0.00847158184613266,-0.000519609780875573,0.338720224839209,-0.00296995437474457,0.000182311212383039,-0.0000481604908596791,0.000116482062868407,-0.000154865475165081,-0.0000577763473681671,-0.00029078692922719,-0.0000704452534085655,-0.0000812109254556717,-0.000447039050744254,0.0000563250617743143,-0.0000264561203008448,0.0000259506100694755,-0.000032815027740836,0.0000246158801210616,-0.000017257070680481,0.608017566244929,0.00109769923833349,-0.0000728697578979548,0.381333424210377,0.0000393296207771316,-0.0000478911447706684,-0.000000223329166019583,-0.000000283090624826846,0.00000000000000314937478575964,-0.00000000000000791397218338359,0.000002772679978425,-0.00000000000000110424243185835
"t54",0.0593307243190815,-2.25149122109823,-0.681220146462327,2.07131841536446,-2.38145304374904,-3.47573330890575,-1.23370633669139,-1.26562299604089,-1.83811980118582,2.09934043340196,-2.29693469453765,-1.91834545290773,-0.364400802646026,-3.33141189188329,0.721172685909004,1.94069546867469,0.206686098481701,-0.136613541627273,0.0622970990409725,-0.00537022554533997,-0.0134974547605884,-0.0501035490251179,-0.00386266294431859,0.000126564936121926,0.0000611248387396527,-0.000353047887224211,0.00115471353645168,0.00070204865778714,-0.00334299195689809,-0.00268714829782488,0.047865098615549,-0.00847158184613303,-0.000519609780875483,0.33872022483921,-0.0029699543747454,0.000182311212383411,-0.000048160490859389,0.000116482062868228,-0.000154865475165066,-0.0000577763473680185,-0.000290786929227929,-0.0000704452534086613,-0.0000812109254557196,-0.000447039050743719,0.0000563250617727985,-0.0000264561203010769,0.0000259506100691776,-0.0000328150277402289,0.0000246158801209225,-0.0000172570706802599,0.608017566244928,0.00109769923832947,-0.00007286975789805,0.381333424210377,0.0000393296207766804,-0.0000478911447699573,-0.000000223329165883277,-0.000000283090623982494,0.00000000000000410444976606488,-0.00000000000000556958900304138,0.00000277267997901437,-0.00000000000000149361600258539
"t55",-1.79757660208836,-0.779653067696714,-0.57709813832073,-4.39730065246575,2.78510077943955,0.986410495351487,0.660315799324684,1.06502468568666,-0.06496459692819,-2.09181999797841,2.09931579867204,2.53346007647584,0.644891114337982,0.118647746808246,-1.96697384001633,0.256051161481457,0.0561331107680068,-0.219227481310921,0.0657410715790001,0.0327287187720123,-0.0655157803977197,0.00563370955836558,-0.00519783552635095,0.203518965892623,1.17368292066381,-0.00061164863893027,1.29468167042478,-0.00706301943310347,-0.0125263795409903,0.000653046972312653,0.00207248293243681,-0.0149761161882043,-0.000379575025703879,0.000724540348320172,0.000090269185373671,-0.000616997078263813,0.000192610728615786,-0.00221614888884486,-0.00312222842992849,-0.000899888875879,-0.00135795369401553,-0.000343194647427448,-0.00205276989918605,-0.000364468043443199,0.410873235871323,0.0200750871980721,-0.000652996817423671,0.0289896225290379,-0.0000168796832900315,0.000701471841747692,-0.00000252350040322898,0.00000312134867986615,-0.00000383820205011909,0.0000144445558744735,-0.0000212004336936337,0.0000211752143128503,0.000000174537431499073,0.0000051594107705123,0.00000000000000142694507713279,0.00000000000000415125684658381,0.0000392849632493282,-0.00000000000000148177162388613
"t56",-1.37905220295625,-0.610392444189544,-0.197249366160859,-5.20046514734782,2.82511985950089,1.72894057284979,-1.21163062628117,-1.8111002406062,-0.754087565934514,0.607044610995989,-0.360151047924056,-0.692523446677229,0.644891114337982,0.118647746808246,-1.96697384001633,0.256051161481457,0.0561331107680067,-0.219227481310921,0.065741071579,0.0327287187720127,-0.0655157803977184,0.00563370955836545,-0.0051978355263506,0.203518965892623,1.17368292066381,-0.000611648638930272,1.29468167042479,-0.00706301943310341,-0.0125263795409891,0.000653046972315094,0.00207248293243812,-0.0149761161882052,-0.000379575025704139,0.000724540348320593,0.0000902691853743535,-0.000616997078264097,0.000192610728616488,-0.00221614888884571,-0.00312222842992944,-0.000899888875877642,-0.00135795369401878,-0.000343194647427474,-0.00205276989918691,-0.000364468043437516,0.410873235871326,0.0200750871980711,-0.0006529968174256,0.0289896225290378,-0.000016879683290933,0.000701471841748353,-0.00000252350040376766,0.00000312134868433963,-0.00000383820204997858,0.0000144445558804464,-0.00002120043369696,0.0000211752143135619,0.000000174537430372306,0.00000515941077357885,-0.000000000000000273604622299223,-0.00000000000000220379348966358,0.0000392849632444668,-0.00000000000000181277859285432
"t57",-1.021421497535,-1.22420329865181,-1.61207324682089,-3.22949999805548,2.81395750076795,3.21651289639207,0.140117897972454,-0.0051768727135176,-0.096509593792772,-0.471288353818995,1.09090757097023,0.882723611321676,0.62478747473078,0.113792270274373,-1.83945319407579,0.229965216206853,0.0463942068694197,-0.148111349218351,0.0425846557874618,0.00649142264730601,0.0627874735400141,-0.0296023131785165,-0.0556546851702786,0.371601602649344,1.15306062327957,-0.00037536937885353,-1.38841042431909,0.0154431542024431,-0.729545695614125,0.00153006703898069,0.0035049803628039,-0.0237108808104033,-0.000549525919582981,0.00100603133987309,0.000118335991757321,-0.000791059418211141,0.000245084993082351,-0.00255560617141745,-0.00308453739152333,-0.000856483727501937,-0.00128366419179195,-0.000271894807086461,-0.00111384082849626,-0.000158938983603335,0.030579507651431,0.0011348087349397,0.00048004119065616,-0.0216721010602851,0.0000740769046052546,-0.0031495806354509,-0.0000245783677247817,0.000021216511815356,-0.0000206586177328567,0.000048981727549401,-0.0000641511882410277,0.0000589878965988915,0.000000464476205234871,0.0000123002683699463,-0.00000000000000284718570024921,-0.00000000000000221018990267667,0.000077440914722863,0.000000000000000825028497754283
"t58",0.371090091307673,-0.134749144103095,-0.758319477076322,-1.5000111772892,1.51249442688111,2.97468225925789,-0.0564591662626829,-0.318522727500457,0.108415572873574,0.696636526829698,-0.775462476415874,-0.412088786683423,0.62478747473078,0.113792270274374,-1.83945319407578,0.229965216206853,0.04639420686942,-0.148111349218352,0.0425846557874623,0.0064914226473051,0.0627874735400138,-0.0296023131785175,-0.0556546851702779,0.371601602649343,1.15306062327957,-0.000375369378855135,-1.38841042431909,0.0154431542024421,-0.729545695614124,0.00153006703898004,0.00350498036280364,-0.023710880810404,-0.000549525919583357,0.00100603133987268,0.000118335991757344,-0.000791059418211172,0.000245084993081737,-0.00255560617141884,-0.00308453739152211,-0.000856483727502322,-0.00128366419179262,-0.000271894807088683,-0.00111384082849634,-0.000158938983602989,0.0305795076514327,0.00113480873493929,0.000480041190656434,-0.0216721010602855,0.0000740769046053222,-0.00314958063545317,-0.0000245783677283938,0.0000212165118192185,-0.0000206586177354022,0.0000489817275506042,-0.0000641511882392507,0.0000589878965975344,0.000000464476207318563,0.0000123002683716943,-0.00000000000000454924939490071,-0.00000000000000627537759765959,0.0000774409147230849,-0.00000000000000133798618167133
"t59",-0.740499912581009,-0.747262089022671,-0.728575860858584,-1.81098623073404,0.0910892918991969,1.18128806317612,0.551192672805519,-0.0914221108526012,0.54397180456967,1.23872905277302,-0.998676987232254,-1.00206646934134,-2.29028372035341,0.85243834180394,0.195622586768929,0.109695400507401,0.0299442619656269,-0.10973261250381,0.0449517212942252,0.00179348655477741,-0.0170848733071558,-0.00341458224524922,0.00365555201199643,0.000382109333257299,0.0000636330901719893,-0.000125717734592194,-0.00206927744660406,-0.478675470033654,-0.00606478042537509,-0.00203339526066349,0.00198449847022339,-0.00370143856208619,-0.0000349482267117083,-0.0000651965869143007,-0.00011935267283659,0.000305097463382513,-0.000113271121337874,0.502281171668262,-0.0246614068283925,-0.0386171382170619,-0.725045138349934,0.509461697070389,-0.00002341410491636,-0.0000406756676966325,0.000175528293974167,-0.000085217829547336,0.000329339960810685,-0.000790389837833821,0.320234843453773,0.000728255127189497,-0.00000691113093675153,0.0000308244976016871,-0.383060649493928,-0.0000290907087949226,0.00000682689688188285,-0.00440358853438621,0.0699435095089501,0.0000000695981224989023,-0.00000000000000061801800063647,0.00000000000000154832401711796,0.00000310489109076805,0.00000000000000100083540199055
"t6",-1.10084652305365,-1.70660930924718,-3.00205605209247,-5.08971727619383,4.98343378857487,2.13398232193679,1.06347168550778,1.03901975931348,1.74098926498147,0.23173400686928,0.348484874530294,0.508353397244406,-0.265540451058353,-2.03861151201545,0.150267698438088,-2.48305529666624,1.87036420767573,-0.359826894178547,0.158400573736339,-0.0114373767991478,-0.0271782254838107,-0.0987248305625125,-0.00750357126320077,0.000235487648380613,0.000106020728542206,-0.000598326882960055,0.00195966327104314,0.00119666277653723,-0.00579004967307917,-0.00532108916490271,0.377416445547606,0.02324077754157,0.0000973934436434797,-0.00397835806079378,0.000102965435984703,-0.0000194354445717984,0.00000682597834956199,-0.000306896414741657,0.000197631861027673,0.000103364604383849,0.000548589158471023,0.000364215125298363,0.00252199484115294,1.35336477115375,0.00102486792699248,-0.000468087515477056,0.000316287722923942,-0.000414434356094969,0.00036245516251606,-0.000486572517321511,-0.000977923563070883,0.30497296744142,-0.000010389822546659,0.000728281499401291,-0.000026479455323608,0.0000848460311826025,0.00000065663492013325,0.0000046339662662939,0.000000000000000178252378259719,-0.00000000000000180812137579532,0.0000245749050968253,-0.00000000000000140976221041709
"t60",-1.73465028441582,-1.61887503986233,-1.88260245850961,-1.9389266491043,-0.126318547239202,0.533597853430876,-0.404674701298734,-0.174491589746111,-0.362347372425037,-0.257023149121703,0.438111777457606,-0.164259014803117,-2.29028372035341,0.85243834180394,0.195622586768929,0.109695400507401,0.0299442619656271,-0.109732612503809,0.0449517212942253,0.00179348655477721,-0.0170848733071566,-0.00341458224524967,0.00365555201199598,0.000382109333257531,0.0000636330901719891,-0.000125717734592388,-0.00206927744660391,-0.478675470033654,-0.00606478042537527,-0.00203339526066376,0.00198449847022035,-0.00370143856208585,-0.0000349482267115626,-0.0000651965869150599,-0.000119352672836824,0.000305097463382654,-0.000113271121337622,0.502281171668262,-0.0246614068283929,-0.038617138217062,-0.725045138349935,0.50946169707039,-0.0000234141049166204,-0.0000406756676998574,0.000175528293973209,-0.0000852178295475338,0.000329339960810214,-0.000790389837834253,0.320234843453772,0.000728255127190117,-0.00000691113093616683,0.0000308244976026267,-0.383060649493928,-0.0000290907087958778,0.00000682689688119906,-0.00440358853438567,0.0699435095089497,0.0000000695981230497083,-0.000000000000000302352034493921,0.00000000000000193167155750822,0.00000310489109124336,-0.00000000000000063295245701411
"t61",1.25348008534147,0.700093210835066,1.64085971546734,-0.959263376551867,0.58880882299323,1.21444437205873,-0.231583313982472,-0.684284819386936,0.193591098285515,-0.165268915879955,-0.677282054067148,0.657091312841486,1.38599469803141,0.742424475422482,0.958422847173829,0.0702422473876779,0.0374788006460424,-0.865351586019353,-1.39204665174019,0.45138884262397,0.00757488027657702,0.0176500941663431,-0.0918456622100776,0.000778482969183398,0.000122580515554911,-0.0000834899141285059,0.00270833253934159,0.000440770727637545,-0.00885413621642629,-0.112434449615385,0.000680883945704617,-0.0078445824996709,-0.0213255535288443,0.000287215633307643,0.0000488834140303777,-0.0158825588520965,0.00425491377116084,-0.00154531422765394,-0.0109830575063193,-0.414376369154798,0.0214333303724539,0.000157001165559721,0.00260540920816051,0.00000888111586979301,0.0000583742012316427,-0.000588854171755426,0.0370211723984757,0.000279389536084937,-0.0000299679818664139,0.0000813612578224593,0.000000117673287842644,0.000000202226244962716,-0.000000445318665285497,0.00000266645845864544,-0.00010277123305357,0.00000426392838566315,0.0000000357906679112673,0.0000262906613506137,0.00000000000000159399905204333,-0.00000000000000311770494650389,0.000124065721726359,0.000000000000000571740276859377
"t62",-0.560113601330036,0.0181091949753626,0.0690163300926623,-4.03373072453833,2.73199726808449,2.26014229753606,-1.10201083905259,-0.911855880483489,-1.58010050994795,1.24856491099881,-0.882249844171508,-1.25538023536498,-2.34528872827856,0.878844696753549,0.204814846091836,0.117268005702446,0.0330418591298305,-0.126287230704894,0.0520119321609709,0.00216820160172506,-0.0211779868205215,-0.00428534161213763,0.00463023692256328,0.000501272694885398,0.0000925814746933807,-0.000198619372841923,-0.00370245859065948,-0.874899041485392,-0.0116749535890719,-0.00471576274660705,0.00665172480119062,-0.0158305657019237,-0.000390930831692108,0.00417569638282706,0.000536338749783171,-0.000931393911324312,0.000308559895428153,-0.464233517239872,0.00789254482070174,0.0100912112475261,0.182810259541211,-0.0552696949406566,0.000000239159337573976,-0.000000488613646185545,0.00000955843922605168,-0.00000475517534432487,0.0000295181800241038,-0.0000748888942598059,0.0321452749620097,0.000076988550287007,-0.00000075385750309632,0.0000032457484209435,-0.0379423053345979,-0.00000100348388842967,-0.000000300133146625627,0.00103266152623521,0.000784014063426844,0.000000183360615771263,0.000000000000000276269374578569,0.00000000000000217250961043578,0.00000175504605892907,0.00000000000000102579834285048
"t63",-0.30869838043037,0.575432125382278,-0.473208493635149,-3.22815933862077,2.47507050987803,1.23862620740182,-0.196454138852921,0.18786700110481,0.449713194928269,-0.0273009431114137,0.24261028506315,0.277922689720648,-2.34582350154892,0.879100334579012,0.204902992893467,0.117339720673473,0.0330706660336201,-0.126437723054271,0.0520759349420705,0.00217152469718714,-0.0212138568575061,-0.00429292904217633,0.00463869443778408,0.000502290874556003,0.0000928188456460874,-0.000199200218759503,-0.00371498890182837,-0.877921238844995,-0.011717166362987,-0.00473511215901713,0.00668342992600683,-0.0159106999985598,-0.000393147093831765,0.00420104031296856,0.000539971325178228,-0.000938000369556904,0.000310783961652833,-0.468352920492534,0.00798267942306952,0.0102116879547238,0.185009321259359,-0.0560403119832104,0.000000243045432198013,-0.000000496920999773665,0.00000973915007115459,-0.00000484543273279898,0.0000301513478718096,-0.0000765360973861709,0.0328754104568323,0.00007880615860293,-0.000000774338883709056,0.00000333669153935782,-0.0390390744955236,-0.00000103618262087233,-0.000000310451464596565,0.00106997918654702,0.000813284584211003,0.000000190892554260251,-0.00000000000000117616834303684,-0.00000000000000429503380665728,0.00000184312736307747,0.00000000000000183417968713562
"t64",-0.413043271290926,0.054933945326797,0.118055688693301,-2.769428362681,2.20759694057252,1.64805268879119,-0.0990755604788668,-1.06905016818123,-0.0126698331838566,0.0774857594287454,0.146420699394975,0.12941127356789,-2.34582350154892,0.879100334579012,0.204902992893467,0.117339720673473,0.0330706660336201,-0.126437723054271,0.0520759349420708,0.00217152469718741,-0.0212138568575061,-0.00429292904217612,0.00463869443778383,0.000502290874555725,0.0000928188456458675,-0.000199200218758756,-0.00371498890182891,-0.877921238844994,-0.0117171663629872,-0.00473511215901698,0.00668342992600584,-0.0159106999985604,-0.000393147093831884,0.00420104031296885,0.000539971325177674,-0.000938000369556669,0.000310783961652828,-0.468352920492533,0.00798267942306938,0.0102116879547241,0.185009321259358,-0.0560403119832109,0.000000243045432205009,-0.00000049692099901802,0.00000973915007043691,-0.00000484543273241903,0.0000301513478718549,-0.0000765360973846331,0.0328754104568308,0.0000788061586032777,-0.000000774338883796778,0.00000333669154033437,-0.0390390744955244,-0.00000103618261935244,-0.000000310451464582012,0.00106997918654755,0.000813284584211601,0.000000190892554412914,-0.00000000000000285273413705781,-0.00000000000000537181445344236,0.00000184312736307092,0.00000000000000174771959803269
"t65",-0.648050750963763,-1.14172296952837,-0.266926626300888,-2.83769931746032,1.65734535943751,2.2780941892547,-0.30756842402579,-0.0131522693846855,1.1276930190112,0.163327141525562,0.921536815032208,0.656748145812997,1.28600790267525,0.671052943343726,0.807091468940315,0.0518447401907461,0.0190471968089393,0.0861077964773155,0.320175636586109,-1.48583183282507,-0.671060591184488,0.239649273440844,-0.745939971456632,0.00312924621668266,0.000308735734137096,-0.000190204287043097,0.00589500850145963,0.000958547557876276,-0.0193391540878517,-0.271941282988629,0.000530122062194175,-0.0117489332964496,-0.0424526119719063,0.000688867140844089,0.000255317659160474,-0.700242864909374,-0.0776687968028948,0.000164811956600719,-0.000793068763849621,-0.00551580134670101,0.0000160537379026674,-0.0000731234511970733,-0.00659468375367483,-0.0000464505156132775,0.00395041937172344,-0.0767332006105021,0.000622359255488957,-0.000038677138967433,0.0000146163540275239,-0.0000935150972030757,-0.00000551012710632833,0.00000483988742260498,-0.00000478560667359273,0.0000118349833735845,-0.000386430578918025,0.0000143079710154524,0.000000112999000677917,0.0000720922643637056,0.000000000000000404365042515156,-0.00000000000000527270816863742,0.000275550569577749,-0.000000000000000115212675842562
"t66",0.269909984506059,-0.39131309872345,0.337659372044821,-2.94552807815463,1.91276623186661,2.15086517051814,-2.01784498642574,-2.09898600759549,-2.08977108676757,0.386752319667289,-0.671701936506607,-0.394959911704108,1.28600790267525,0.671052943343726,0.807091468940315,0.051844740190746,0.0190471968089391,0.0861077964773155,0.320175636586109,-1.48583183282507,-0.671060591184488,0.239649273440844,-0.745939971456632,0.00312924621668279,0.000308735734136637,-0.000190204287042803,0.00589500850145895,0.000958547557876077,-0.0193391540878515,-0.271941282988629,0.00053012206219273,-0.0117489332964492,-0.0424526119719062,0.000688867140843716,0.000255317659160474,-0.700242864909374,-0.0776687968028949,0.00016481195660147,-0.000793068763849489,-0.00551580134670091,0.000016053737903158,-0.0000731234511976566,-0.00659468375367506,-0.0000464505156139279,0.00395041937172341,-0.0767332006105025,0.000622359255488933,-0.0000386771389676659,0.0000146163540277006,-0.0000935150972028098,-0.0000055101271062928,0.0000048398874244599,-0.00000478560667356022,0.0000118349833754627,-0.000386430578918303,0.0000143079710160274,0.000000112999000729464,0.0000720922643637195,0.00000000000000152207557379646,-0.00000000000000872794733268828,0.000275550569577653,0.000000000000000124499535190118
"t67",-2.16070432673463,-1.87249104398946,-1.98529582967801,-3.65609458895767,1.63032351364745,1.40300392497895,0.267149186096134,-0.123958548737162,-0.07436108559352,-0.422867036204935,0.470662700214493,0.139136084413568,1.33889494583051,0.708122238993787,0.881913839150623,0.0601344402806575,0.0253000991063789,0.308114914498101,1.17704506778951,1.07078707649866,-0.0233928741418693,0.0453073084165733,-0.201435641859934,0.0014188146533972,0.000200703319179779,-0.000136177459653604,0.00455546202706111,0.000746964116037663,-0.0153045152152399,-0.208126083618289,0.00226835445470032,-0.0310240302815664,-0.754621479587281,-0.00148220744988679,-0.0000738949530547148,0.0302040978083047,-0.167351807969046,-0.0000984443397404927,-0.000515662786353515,-0.00322433330901457,-0.00000482103596432983,-0.0000426181406944767,-0.00320476612320685,-0.00001983859333363,0.000218963545319592,-0.00189348818991607,0.00200726937492973,-0.0000885139329332093,0.0000255069261201497,-0.00013853336022376,-0.00000680242269155555,0.00000595244903844978,-0.00000591643414521688,0.0000170593835311977,-0.0158903098421133,0.0000187922145378952,0.00000018310725744817,0.559859569186346,0.00000000000000401727669296035,-0.0000000000000108269667551353,0.000107173865139254,-0.000000000000000599051172392768
"t68",-2.55025964516744,-2.53813574996735,-2.33769573857068,-4.158916596138,1.59200084164411,1.91103411786314,-0.290624421381065,0.54476822176893,0.0226298886779372,0.591055121972308,-0.768226624909002,-0.74445283206524,1.33889494583051,0.708122238993787,0.881913839150623,0.0601344402806576,0.0253000991063792,0.308114914498101,1.17704506778951,1.07078707649866,-0.0233928741418698,0.0453073084165736,-0.201435641859934,0.00141881465339758,0.000200703319180432,-0.00013617745965317,0.00455546202706124,0.000746964116037324,-0.0153045152152395,-0.208126083618289,0.00226835445470206,-0.0310240302815666,-0.754621479587281,-0.00148220744988748,-0.0000738949530535361,0.0302040978083042,-0.167351807969046,-0.0000984443397406424,-0.00051566278635387,-0.00322433330901521,-0.00000482103596483262,-0.0000426181406951378,-0.00320476612320685,-0.0000198385933330141,0.000218963545320581,-0.001893488189916,0.00200726937492935,-0.0000885139329321906,0.0000255069261201483,-0.000138533360223266,-0.00000680242269150176,0.0000059524490388661,-0.00000591643414523006,0.0000170593835318426,-0.0158903098421125,0.0000187922145379759,0.000000183107256687061,0.559859569186347,0.00000000000000464249602226108,-0.00000000000000956617928896289,0.000107173865139086,-0.0000000000000000360769670116674
"t69",1.57674235879652,1.78925126625569,2.88026853196017,-1.3962081496552,1.49911252609822,0.618301778866511,0.191539449634756,-0.382250353799263,-0.928055932779086,-1.12280642165308,0.831617524635365,1.2154356230651,0.532944779669093,0.0914096515756447,-1.23900635796006,0.103326690867491,-0.00338286806374242,0.246097497676528,-0.0872885970267774,-0.158072543738018,0.935766724299019,-0.28087022031936,-0.42960496229665,1.87156605083364,-1.10909344945655,-0.0015331998598207,0.240298956018123,0.00562442660456486,-0.498181682627784,-0.014490849861582,0.0111512469227381,-0.0681678373041095,-0.0014375708607662,0.00254866772835449,0.000289884466500708,-0.00191895726201606,0.000592786805233085,-0.00605388217487552,-0.00738883803535405,-0.00206480588417396,-0.00309848149439102,-0.000679127530200253,-0.00293570099740477,-0.000423068818073948,0.0153780133307634,-0.000554132009498005,0.00236381769787047,-0.0239617802289802,0.00158709175081785,-0.528733267792467,0.0000450758852003673,-0.0000247653057933408,0.0000147541990821171,0.00000758180859960773,-0.0000221167672959446,0.0000277123562962436,0.000000247292883967516,0.00000806301884659307,0.000000000000000543572587221813,-0.00000000000000181255205376986,0.0000562844266397569,-0.0000000000000000323103428619877
"t7",-0.96002429172739,0.0227875861527413,-1.34363852909316,-1.9162548594539,0.66430891414516,3.20754038827747,-0.300210779069747,-0.131079416911972,0.611318138658558,0.732191702478038,-0.237796337849383,-1.25722505634868,1.15366397478722,0.580560767298053,0.634831385888655,0.034282753023948,0.00717886960326466,0.143978545094526,0.205596025843669,-0.580380880874066,0.318376708062633,-0.277014055403214,1.50541892899455,0.0378098724287932,0.000518200730678805,-0.000230868226767533,0.00508366146421529,0.00078242512327443,-0.0137605419868386,-0.0943781098500903,0.0014196181925256,-0.00966660092799585,-0.00810461572575956,0.00013818548994827,0.00000410783566190046,0.000541848683588453,-0.000304777572470403,0.00114071387884513,0.00619800701424449,0.0301427075371117,0.000973168840252398,0.00128387774919501,1.50506604083102,-0.00307628752863534,0.00734153050859219,-0.0467176599327699,0.0285358119033312,-0.00192120056257557,0.000484258729081191,-0.00234207703754936,-0.000082578775608524,0.000067622577250713,-0.0000627924807613299,0.000128482853450711,-0.00259205622836853,0.000138567966040987,0.00000106047135902955,0.000415729295493094,-0.000000000000000272332816819391,0.00000000000000355081508315207,0.0584866479045462,0.000000000000000482784594759993
"t70",1.12579123654119,1.45886861354107,2.24433367614414,-0.62038752226209,0.952470878451376,-0.204064126635811,0.0268633048970022,-0.519803111864166,-0.131585943193768,-0.0128564730806728,-0.300740735448114,-0.00869058393262835,0.532944779669093,0.0914096515756447,-1.23900635796006,0.10332669086749,-0.00338286806374247,0.246097497676528,-0.0872885970267772,-0.158072543738018,0.935766724299019,-0.28087022031936,-0.42960496229665,1.87156605083363,-1.10909344945655,-0.00153319985982119,0.240298956018123,0.00562442660456734,-0.498181682627783,-0.0144908498615829,0.0111512469227376,-0.0681678373041099,-0.0014375708607663,0.0025486677283563,0.00028988446649941,-0.0019189572620164,0.000592786805233152,-0.0060538821748758,-0.00738883803535359,-0.00206480588417425,-0.00309848149439275,-0.000679127530202279,-0.00293570099740516,-0.000423068818073687,0.0153780133307637,-0.000554132009498585,0.00236381769787081,-0.0239617802289798,0.00158709175081744,-0.528733267792465,0.0000450758851970313,-0.0000247653057913547,0.0000147541990816525,0.00000758180860247793,-0.000022116767295572,0.0000277123562950841,0.000000247292883367762,0.00000806301884636358,0.000000000000000627400895777846,-0.00000000000000112508213133667,0.0000562844266387444,0.000000000000000182820115508852
"t71",-2.08115401781326,-1.54853490092195,-2.14802985369983,-0.207200858330319,-1.14957373914105,-1.50285025491852,0.0091118467134774,0.708354647670805,1.03629422546887,-1.80386105344832,1.98192923536325,1.68310219439101,-2.36075455137822,0.886446916356353,0.207608479661085,0.119746595136389,0.0341796517702676,-0.133416020517286,0.0551163613698824,0.00236476389297664,-0.0235662434778813,-0.00482186157983295,0.00525621252343599,0.000591611418752673,0.000132811034084645,-0.000419087987022169,0.00751456172694372,0.958258814380839,0.00321753632511688,-0.00154183174667062,0.00341569824164708,-0.00866851604463574,-0.000227747819810016,0.00246747502371858,0.000315819782542486,-0.000542648205396285,0.000178871341603159,-0.231608987130313,0.00136079386714942,0.00043513882760786,0.00301753349116597,0.0706146960928532,0.00000279405081349348,-0.000000539942560987875,0.0000156002876214648,-0.00000767466416884763,0.0000315691676098253,-0.0000704258591834153,0.0239586334836557,0.0000330975070949734,-0.00000569024031685424,0.00000616362470624053,-0.00537830960756454,0.0000325202585651123,-0.0000237180831839565,0.108285651869561,-0.0010484927400555,-0.00000122688091666546,0.000000000000000886988678795392,-0.00000000000000283943544014103,-0.000000935185480095327,-0.000000000000000107745185875971
"t72",-1.12543345408822,-1.07170528201573,-1.13158275881838,-1.45247847724477,0.156796587304556,-0.763059371569164,0.233206389258635,-0.0230159898884827,-0.686746493623743,-0.818054128556621,0.78949449041513,0.564465916891508,-2.36075455137822,0.886446916356353,0.207608479661085,0.119746595136389,0.0341796517702675,-0.133416020517286,0.0551163613698823,0.00236476389297691,-0.0235662434778808,-0.00482186157983269,0.00525621252343606,0.000591611418752445,0.000132811034084309,-0.000419087987021681,0.00751456172694362,0.958258814380838,0.00321753632511646,-0.00154183174667075,0.00341569824164906,-0.00866851604463582,-0.000227747819810001,0.00246747502371853,0.000315819782542152,-0.000542648205396094,0.000178871341603214,-0.231608987130312,0.00136079386714878,0.000435138827607881,0.00301753349116537,0.0706146960928531,0.00000279405081378294,-0.000000539942560871392,0.0000156002876215141,-0.00000767466416895393,0.0000315691676100607,-0.0000704258591839881,0.0239586334836566,0.0000330975070941932,-0.00000569024031580374,0.000006163624705665,-0.0053783096075633,0.0000325202585648562,-0.0000237180831841833,0.108285651869561,-0.00104849274005501,-0.0000012268809166458,0.000000000000000481818617573119,-0.000000000000000275266336641744,-0.000000935185480088088,-0.000000000000000489034916053187
"t73",-1.2451169201574,-2.49978952161533,-0.886592222429553,-4.24592417885054,3.66586731173016,2.91560593506542,0.104760634247425,-0.160335423873993,0.172085908345781,0.635308788316818,-0.478220170813878,-0.728541287183342,0.691326121908214,0.129996262671573,-2.27345071699212,0.321311115034839,0.0821969110358713,-0.430716528697245,0.135654331037782,0.124104199971736,-0.560463265517899,0.149731517713201,0.211215200054942,-0.700619573716344,-0.785389308488062,0.00017693537717237,-0.0724791066837939,0.000224882907540065,-0.000209380260718363,0.0000798170044286289,0.000436026439792879,-0.00356773370156062,-0.00010713126315803,0.00022062136418847,0.0000302456876464564,-0.000213671882107503,0.0000674176127047141,-0.000864451900969246,-0.00131330399811837,-0.000381129736189979,-0.00057566410373753,-0.000145059137942083,-0.000779159847411904,-0.000125520630596172,0.0505355526167237,0.00214176739966878,0.00160935733113837,-0.205207459321063,-0.000455532326294286,0.00590760691705686,0.00000881537712416057,-0.00000577140751547383,0.00000422525056514726,-0.00000210001871036782,-0.000000229421340687236,0.00000234743971046589,0.0000000284083147504181,0.00000147868414292797,0.00000000000000178310934404815,0.00000000000000626187313616279,0.0000303559307958589,-0.000000000000000909029770157891
"t74",1.75163126724048,1.40340760464935,1.77568331034307,-0.732336158530863,-0.0663588571926769,0.700435437671498,-0.291711045788194,-0.0367572657697526,-1.51768974057559,-0.588808304066317,0.210203494327216,0.416668680952109,1.38487793617549,0.74166071303675,0.95696130590664,0.0700896671931656,0.037362330857841,-0.861659924860518,-1.3859111155513,0.448900698097179,0.00752863637303269,0.017537337774373,-0.0912398836392126,0.000772757326336197,0.000121434196378363,-0.0000825949696772302,0.00267452319535143,0.000435149143744014,-0.00873567400921433,-0.110715833558727,0.000668682268821819,-0.00769467417885959,-0.0208652655522327,0.000280541550402096,0.0000476032523054039,-0.0154449934534647,0.00413560019139814,-0.00149069037791871,-0.010464699308941,-0.393775927146558,0.0203582936514351,0.00014761219273437,0.0024174328300249,0.00000820293153771059,0.0000532700629720002,-0.000537101383084368,0.0331988310720829,0.000249552199257771,-0.0000266247920467642,0.000071789657406051,0.000000100778598118832,0.000000171850475450414,-0.000000375260895712661,0.00000216221924830146,-0.0000815937798983598,0.00000331001207140368,0.0000000273310891285945,0.0000189408556222882,-0.00000000000000249965961044448,0.00000000000000194604677798481,0.0000726802752807256,-0.00000000000000133232147092389
"t75",1.27164976136942,0.936981429291467,0.996714557060191,-1.04037351649915,0.254061898530794,0.380631155517523,0.567494942223237,0.0704435252229743,0.229540002673786,0.693065727946989,-1.59488419364193,-0.596275833121364,1.38487793617549,0.74166071303675,0.95696130590664,0.0700896671931654,0.0373623308578409,-0.861659924860518,-1.3859111155513,0.448900698097179,0.00752863637303276,0.0175373377743727,-0.0912398836392129,0.000772757326336638,0.000121434196377967,-0.0000825949696775222,0.00267452319535151,0.000435149143744038,-0.00873567400921452,-0.110715833558727,0.000668682268821445,-0.00769467417885985,-0.0208652655522325,0.000280541550401919,0.0000476032523052132,-0.0154449934534645,0.00413560019139819,-0.00149069037791846,-0.010464699308941,-0.393775927146558,0.020358293651435,0.000147612192734539,0.00241743283002529,0.0000082029315385729,0.0000532700629714894,-0.000537101383084329,0.0331988310720828,0.000249552199257985,-0.0000266247920469553,0.0000717896574054561,0.000000100778597430927,0.00000017185047698046,-0.000000375260896111725,0.00000216221924886561,-0.0000815937798983894,0.00000331001207166598,0.0000000273310892648888,0.0000189408556219046,-0.00000000000000330301406135212,0.00000000000000221183440598872,0.0000726802752799781,-0.00000000000000108646548928938
"t76",1.28517495085578,0.892393730123187,1.33196348715017,-1.04206890299271,0.233524752416735,0.821692297273654,0.81404612739545,0.603833960805885,0.560371285389172,-0.91938598816755,0.725737726856804,0.677089181154197,1.38641009535702,0.742708335368056,0.958965052132013,0.0702987175451064,0.0375217592185323,-0.866707496218604,-1.39429901915973,0.452298613531839,0.00759175306342825,0.0176911932878054,-0.0920663018161309,0.000780562750138912,0.00012299397084236,-0.0000838111580271328,0.00272039425262501,0.000442774388640116,-0.00889626776809468,-0.113041697569891,0.000685156877105152,-0.00789686986229896,-0.0214847832037022,0.000289511889379578,0.000049319645601876,-0.0160310112470742,0.00429532935897887,-0.00156339564675216,-0.0111486061684648,-0.420907166992832,0.0217737013711091,0.000159893102975423,0.00266138571719513,0.00000908082380508847,0.0000598348766678347,-0.000603647695133176,0.0380731974818809,0.000287532353101546,-0.0000308701651377455,0.000083908015393822,0.000000121917603955683,0.000000209751273273535,-0.00000046241947419703,0.00000278204477399401,-0.000107474600007928,0.00000446918367209879,0.0000000375714023157232,0.0000277318939878498,0.00000000000000179626272157066,-0.000000000000000930126761304522,0.000132403786815766,0.00000000000000122086481310471
"t77",1.14777466326693,0.695431622881636,1.86856914375247,-0.99733659498258,0.369789195902824,1.43491018363458,0.473425881748753,0.664992418805204,0.943475894260228,-0.92724647217017,0.680817576086604,0.663859412505558,1.38641009535702,0.742708335368056,0.958965052132013,0.0702987175451061,0.0375217592185323,-0.866707496218605,-1.39429901915973,0.452298613531838,0.00759175306342868,0.0176911932878055,-0.0920663018161309,0.000780562750139014,0.000122993970842445,-0.0000838111580265776,0.00272039425262444,0.000442774388640059,-0.00889626776809516,-0.113041697569891,0.000685156877105883,-0.00789686986229879,-0.0214847832037021,0.000289511889379503,0.000049319645602084,-0.0160310112470741,0.00429532935897895,-0.0015633956467517,-0.0111486061684647,-0.420907166992832,0.0217737013711096,0.000159893102975473,0.00266138571719525,0.0000090808238057482,0.0000598348766668746,-0.000603647695133224,0.0380731974818803,0.000287532353100889,-0.0000308701651378644,0.0000839080153938476,0.000000121917603756061,0.000000209751273148674,-0.000000462419474132179,0.00000278204477419125,-0.000107474600007559,0.00000446918367213505,0.0000000375714026741767,0.0000277318939884926,0.00000000000000280918787792601,-0.00000000000000193194166685773,0.000132403786815641,0.000000000000000707410375356366
"t78",-0.0409789184156369,-0.15793354886342,0.0655230809468544,0.156016351024202,-0.767286159365343,-0.746609812809675,0.892638148473705,0.406587325210969,-0.0754602629491708,-0.757823319015355,0.760804406013789,1.35475131029243,-2.36017182478501,0.886167747658898,0.207511713125889,0.11966725325014,0.0341473475737002,-0.133243544121007,0.055042777862094,0.00236082906605522,-0.0235228936648578,-0.00481258799444129,0.00524578238527653,0.000590305363734709,0.000132440502420322,-0.000417753299154802,0.0074868378472464,0.954649755567655,0.00320484771311639,-0.00153492417547535,0.00339789544714514,-0.00862050225549444,-0.000226333127002379,0.00245105128436399,0.000313470307989944,-0.000538417428726107,0.000177453829425735,-0.229340956411868,0.00134354566424168,0.000429366233347088,0.00297719118742172,0.0695157136536589,0.0000027431101362163,-0.000000529624385912106,0.0000152673561532248,-0.0000075101987314447,0.0000308003321225682,-0.0000686649242467195,0.0233389891694794,0.0000322059425528996,-0.00000551239887224529,0.00000596456953552897,-0.0051987503897009,0.0000312859010412236,-0.000022764294570932,0.103689612233964,-0.00100238836001605,-0.00000116700064481139,-0.0000000000000000901131892765218,-0.000000000000000975466395581263,-0.000000878203017854309,0.000000000000000231858195694821
