"taxon","BM_HC_1","BM_HC_2","BM_HC_predictor","BM_LC_1","BM_LC_2","BM_LC_predictor","nonBM_HC_1","nonBM_HC_2","nonBM_HC_predictor","nonBM_LC_1","nonBM_LC_2","nonBM_LC_predictor","Phylo_axis_1","Phylo_axis_2","Phylo_axis_3","Phylo_axis_4","Phylo_axis_5","Phylo_axis_6","Phylo_axis_7","Phylo_axis_8","Phylo_axis_9","Phylo_axis_10","Phylo_axis_11","Phylo_axis_12","Phylo_axis_13","Phylo_axis_14","Phylo_axis_15","Phylo_axis_16","Phylo_axis_17","Phylo_axis_18","Phylo_axis_19","Phylo_axis_20","Phylo_axis_21","Phylo_axis_22","Phylo_axis_23","Phylo_axis_24","Phylo_axis_25","Phylo_axis_26","Phylo_axis_27","Phylo_axis_28","Phylo_axis_29","Phylo_axis_30","Phylo_axis_31","Phylo_axis_32","Phylo_axis_33","Phylo_axis_34","Phylo_axis_35","Phylo_axis_36","Phylo_axis_37","Phylo_axis_38","Phylo_axis_39","Phylo_axis_40","Phylo_axis_41","Phylo_axis_42","Phylo_axis_43","Phylo_axis_44","Phylo_axis_45","Phylo_axis_46","Phylo_axis_47","Phylo_axis_48","Phylo_axis_49","Phylo_axis_50"
"t1",0.66757664266193,1.84803555395493,2.78340966495651,0.892688189790963,-0.39507408857209,-0.0123799836851207,-0.538305978794722,-0.713961015086339,0.552334111467361,-1.05418222087042,0.977342622598593,-0.620532565706909,-1.67679469155953,-2.76827991175258,0.00695755778412424,-2.03745053585358,-0.0608364016608565,-0.00459466798987378,0.00016770682305206,0.0037265051705775,0.00597788154205524,0.0107005534948522,0.010724347675929,-0.301408569910039,1.80467395249359,-0.00644126341491005,-0.000642521151639649,0.00333986612120336,0.0177856911806158,-0.0685808339194944,2.96619504852794,0.00196327934216515,0.0258707183810235,-0.0155580729513624,-0.000339048953135687,0.13927251540009,0.000452550473060791,-0.0000000000000115585963480615,-0.0617189314982952,-0.0000454991183643329,0.00138136508817344,-0.000463538240409422,-0.000467672273119842,-0.00316534841732811,-0.00020006319877693,-0.0000318438860688104,-0.000598003005927736,-0.0116041502587132,-0.000537438227900946,0.000225267375622408,0.0000591790968648672,0.00170899095803422,0.0000897393679571093,-0.000105781122516394,0.00015237932062818,-0.0000394393405853151,-0.00156178439915454,0.00101105204060246,0.0000201552166518085,0.0000231655016099012,-0.0000136571354080585,0.000424227370982935
"t10",5.54921125143748,4.42850576261754,4.20541962678745,1.01133408728071,0.0919979425008655,-0.842958431379033,-1.11264610841754,-1.78193900272117,-0.632937417887535,0.977146035888687,-1.48978337961385,-1.40281867848437,-2.37099230092988,3.1480318439466,2.31057361622182,0.042346563747709,-0.0032929314088981,-0.0215534683316104,1.35252546504897,-0.0340737504637338,-0.00251102461049973,-0.0190064158218289,-0.00112648434537907,0.00120082113342925,-0.00357415688966348,-0.00619681868903433,0.000880000749427937,-0.00111307359314292,-0.000852869064194671,0.00122774377761249,-0.00124521982088759,-0.000226162795746046,-0.0165232351029432,-0.000541150350465923,-0.0000115226043544707,0.0014918765225799,-0.162182075842449,0.00000000000000387231717542074,0.00000613600663601679,0.000000700931443472869,-0.00149064414807354,0.00011307129866395,0.728877454176531,-0.0000874928241835588,0.000184789221023466,0.0000655915041277043,1.66477815530323,-0.00203504609563758,-0.0826342408305141,0.000154857629202895,0.0000304165368076543,0.0000809539610267644,0.0000472723078673434,-0.185902288920397,0.000197209211283602,-0.0000123328519626889,-0.0000454167185980214,0.0000293345484952778,0.00000676121006386795,0.0195031417097323,-0.00000378685741025781,0.0000116278198088452
"t100",4.48460779210224,6.92927097132389,5.09035381179705,0.510585284145771,-0.241316380530406,0.491689158817785,-1.42141591502194,-0.629109710193681,0.107930924097553,0.728234812541263,-0.815514729478169,-0.91973425257431,-2.06406365284222,-3.59048080219175,0.0570894762150914,1.56215966117827,-1.72083853056914,-0.013519378977307,-0.00024946085711857,-0.00549162231192242,-0.00274967379365083,-0.00329626850325942,-0.00240798433805317,1.04782531421962,0.101633701553342,0.0000457463669738362,0.0000271420872312218,-0.0000771821212692045,-0.000400357419725356,0.000895380752678033,-0.0107726654980879,0.0000626174637628133,0.000847995377021422,-0.00111423750616927,-0.0000419119486152086,0.028759616235534,0.000188605406755986,-0.00000000000000162698563944991,-0.000284143877218952,-0.00000200298985625612,0.00010156873686597,-0.0000390280313708942,-0.0000549215020806444,-0.00188941544958724,-0.0000312538305393034,-0.00000578038075934831,-0.000145340906418807,-0.0908159402670368,0.000122581082376441,0.0000153114790382318,0.000126313475395272,0.439048783703707,-0.00000357722685598959,0.00000197196832331478,-0.0000014440419801206,-0.00000173940232824766,-0.000397791846106662,0.00442683515989335,0.00000152834169303334,0.00000185899380752045,-0.00000120412268200722,0.000232813849902578
"t11",5.53729589107422,5.75487149158546,4.84220594640527,1.47705196751006,-1.14809403815562,-1.85593543756235,0.52660886846256,0.618914379843266,0.109823070189171,-0.541693784789771,0.243677727933702,0.595373628760531,-2.02450500704679,-3.5074025863134,0.0529735275225717,1.38530779802472,-1.37980002874816,-0.00993556696941208,-0.000160056159714006,-0.00351937011184994,-0.00119066052447467,-0.000811459277621183,0.00021484095623888,-1.04334512750948,-0.167704739900616,-0.00106015288836472,0.000157679154102463,-0.000238393039495557,-0.00120384775142993,0.00178591154180966,-0.0150033221823857,0.0000156153034376113,0.000195132571023738,0.000245217389689905,0.0000138164086178739,-0.0106611457490177,-0.000074489927645233,0.00000000000000174232322570439,0.000297094841030367,0.0000022627225621933,-0.00026745169746568,0.000130741754761011,0.00030845991871642,0.0117816779128393,0.000250900461506199,0.0000532753108078143,0.00164926587158077,1.71698683877484,-0.00355456445008246,0.000386441863614761,0.0000962033157572115,0.139896162405215,0.0000610748318505917,-0.0000686597248590865,0.0000964441149421074,-0.0000216134565440596,-0.0040059561229605,0.154173810886837,0.00000398480842244469,0.00000559970782932593,-0.00000395536709192285,0.000662033569488441
"t12",6.26719099057663,3.90076135556002,3.0898091123046,1.52290207909819,1.34869506673942,2.08100069101289,-0.786050694073353,-1.24214327282593,-1.40804704635494,-1.58698211318813,1.38633819080656,1.24372234988092,3.62231488903608,0.166811590745605,0.0259532362696236,0.0389609379493477,-0.00273128814402733,0.000285088196359501,-0.00516160453445628,-0.247079848198426,0.334429099182695,0.000453552241612757,1.9591770831899,0.00544535163370571,-0.0161117968494076,-0.00528130988169392,0.00150043319701077,-0.0335356701591412,-0.987365512959192,-0.162625680410886,0.0014726131253539,0.063223484286357,-0.000593454567876625,-0.0224573548981905,0.0464367864589999,-0.000217200364433528,0.00000711598902611455,0.00000000000000142431689649928,-0.00000823168030693643,-0.00216621966102412,0.0000107519439217648,0.000334389986597234,0.0000168266577660239,0.0000134049968705046,0.00225679517330671,0.00290052472325095,0.000077904735046688,0.000256077233963701,0.000194061993396386,-1.50679847682319,0.00897540002297328,0.0000674510918061947,0.000763470205035802,-0.0000273561232641336,0.0000380900556253208,-0.00488064316697684,-0.0000283446679513446,0.0000179528117692168,0.00219756893342069,0.00000421905651579749,-0.000682176661794704,0.00000729273775494101
"t13",6.3125008625088,5.5916972026988,3.2107899305884,-2.00315037131966,2.22228502129658,2.5694403157258,-0.896928653760207,-0.572201360985488,0.14105327503341,2.15709514613813,-2.51802136862252,-1.32101559745587,-2.38537560532715,3.17110553689332,2.36382051206665,0.0438895834877923,-0.00350558243155986,-0.0234296459877407,1.51292307877152,-0.038123204151586,-0.00298391533370613,-0.023710875972241,-0.00151018155414308,0.00180727035141142,-0.00561762308353338,-0.011079826506795,0.00172714821663194,-0.00238696267156475,-0.00183956775344862,0.00299863984057689,-0.00368715316536036,0.00391908306320086,0.242413145595076,0.00190687890600071,0.0000397915248018748,-0.00538320007195975,0.613923664894132,-0.0000000000000181771678027743,-0.00000165916087380351,-0.000000200418559998644,0.000181265241933336,-0.0000081516649499183,-0.00152440249536017,-0.00000101542513208582,0.00000290886363458513,0.00000136888273278037,0.0417452728225593,-0.0000532230151599079,-0.00192934327098926,-0.00000112510937537419,-0.00000465586476446945,-0.0000133531291334405,-0.0000702461775720014,1.36283693446181,0.00186260875468695,-0.0000100872358367773,-0.0000355728105232763,0.0000266980065983473,0.000013040100606786,0.243885193198819,0.000000874218661425224,0.00000488409113800901
"t14",5.33195863565279,4.6380136960182,5.75513656386508,-0.104226390670539,0.450918685181525,-1.43206305730126,-0.832373622339525,-0.585371620570505,-0.196747216662255,0.977891069439162,-1.15962025051585,-0.244630324312375,-2.25483066706587,2.94386512993077,-2.92905289889977,0.0761894938582474,-0.00523362847239448,-0.0361555699866669,-0.00285552583545563,-0.0115556008672184,-0.00705911743788516,-1.15467106806714,-0.000110351384627982,0.00194977851579368,-0.00838452032711852,-0.721622130424337,-0.682163750455091,0.271032106738928,-0.00835256933303097,-0.0000247918668213751,-0.0000894221816301284,0.0000702411113052684,0.00298984170886336,-0.00027952154826866,-0.00000440245403947651,0.000291791717449068,-0.000115988715005131,-0.000000000000000548370550827231,-0.0000216243615034441,-0.00000179169092177693,0.0514979841384239,0.00000493784647549639,-0.0000125808811559249,-0.000000721407645161634,0.000000285940020964289,0.000000129478976090602,0.0000366180824984905,0.000019179975520436,0.000102368436584911,-0.0000123873659729654,-0.00000854144904927277,-0.0000239379660285944,-0.0000665422137677246,0.00172427186005755,-1.36057709149376,-0.0000128539818328667,-0.0000415121555224821,0.0000239330746615356,0.00000487628839564625,0.000041028235137108,-0.00000322952005199229,0.0000091224254036529
"t15",3.16273364077635,3.24658649634162,1.28582008091525,2.85610483617748,-0.728240282178509,-0.905249633403362,0.260884005855364,0.356954643883412,-0.132634643631035,1.19644302751001,-0.517164681281031,-1.32384540875105,3.84144751392487,0.179198825882798,0.0335115084065997,0.0616779125016419,-0.00910675101635267,-1.43677989309326,0.0106600336239677,0.505886891682102,-0.176019519807456,-0.000123898171384542,-0.232374395097041,-0.000120584046432464,0.0000704226097805362,-0.000116777942402652,0.0000390964015093952,-0.000687674852735054,-0.0195287266274409,0.00358035765304706,0.0000945729364732931,-0.216139507910257,0.00367049617630619,-0.0131487534575063,0.0226566069735085,-0.0000991127671542114,0.00000311809958521678,0.000000000000000979917837266787,0.0000192343913443559,0.976384992910305,0.0000287907803533448,-0.00432553542895791,-0.00000884313935450252,-0.00000561078757137583,-0.000742702267026542,-0.0992071656880741,-0.00000430572333531659,-0.0000117547239232008,-0.00000622867175511075,0.00150655910005192,0.0000282413457212991,0.000000159330122925466,-0.0000421775390350085,0.00000245266136061287,-0.00000442194399346304,1.15954986894229,-0.0000484772808901089,0.000021432859020739,0.150882829586962,-0.00000225541285752359,-0.000193648162837082,0.00000378302441455754
"t16",4.52408173254414,2.04600861345674,2.42899702498469,3.24919071912164,-3.14059958413404,-2.57468811490193,-0.477986314694415,-1.4062331092256,-0.966176613228819,1.81569070237374,-1.95830499812406,-1.54540466237643,3.67839270027017,0.169916669427674,0.0272913527769396,0.0411974246906902,-0.00178263118422331,0.742921521947515,-0.0388037953800187,-1.87019981615165,-0.867680092007751,-0.000366786248795507,-0.402338180597728,0.000458830575922483,-0.00215221483783048,-0.00105757102432712,0.000283386337991834,-0.00365327107592644,-0.0984617424968374,0.0828732259195872,0.00211574459848084,0.0288787912195241,0.0000274527071724465,-0.0501675989454238,0.144548305211061,-0.000811802118621476,0.0000304013438518261,0.00000000000000117889424271624,0.00000442142757647132,0.000253005943871286,0.0000163086357046292,-0.0158822580892879,-0.00000352702827508401,-0.00000215876643790415,-0.000187711705317517,-0.00006875745933844,-0.00000216934453082871,0.00000152307972388321,0.0000030899634845745,-0.0027172148675424,-0.956711838488734,0.000276283569711042,0.000304989083236368,-0.0000104192878631737,0.0000142763965206225,-0.000874136967950334,-0.0000118543505217114,0.00000943181707943661,0.000819936617578428,0.00000447509771520691,-0.204968483785502,0.00000099343627634293
"t17",4.97845155036414,2.49833286983986,2.48375670583283,1.78918425119557,-1.36245057487168,-0.212371838969594,0.70968126355287,1.64338724565962,1.63615745004294,0.898211215067433,-1.57202193045292,-1.0909431344176,3.67839270027017,0.169916669427674,0.0272913527769396,0.0411974246906901,-0.00178263118422344,0.742921521947515,-0.0388037953800196,-1.87019981615165,-0.867680092007751,-0.000366786248794795,-0.402338180597729,0.000458830575921987,-0.00215221483783252,-0.00105757102432793,0.00028338633799231,-0.00365327107592682,-0.0984617424968398,0.0828732259195877,0.00211574459848166,0.0288787912195235,0.0000274527071741816,-0.0501675989454224,0.144548305211063,-0.000811802118620431,0.0000304013438520257,0.00000000000000104049978012491,0.00000442142757598292,0.000253005943870838,0.0000163086357015792,-0.0158822580892862,-0.00000352702827022396,-0.00000215876643486228,-0.000187711705317701,-0.0000687574593378673,-0.00000216934452895292,0.00000152307971743686,0.00000308996347886102,-0.0027172148675414,-0.956711838488734,0.000276283569707255,0.000304989083236061,-0.0000104192878634482,0.0000142763965213159,-0.000874136967950847,-0.0000118543504931204,0.00000943181707170902,0.000819936617605599,0.0000044750977150284,-0.204968483785495,0.000000993436353587821
"t18",2.44819996986692,2.26140971925765,2.60199623610288,-0.852865695163845,2.99011323163895,0.537508755166476,-0.407909968717345,-0.466136477949517,-1.45353677688765,-0.647501444006245,0.397446017369959,-0.0612764638136822,-2.00254071815604,-3.45933322107292,0.0489803939564855,1.10584284980858,2.36893184545493,-0.028828403205585,-0.000351088587270729,-0.0077168108665654,-0.00300720638591912,-0.00310171735556071,-0.00168910113905417,0.0481603569828044,-0.0453943969532049,-0.000793412526144649,0.000150480259236534,-0.000265521067663912,-0.00135251791601318,0.00235693169343773,-0.0240143866082871,0.000114918935113822,0.00155975134044843,-0.00263490108264237,-0.000120629614482436,0.09242557278978,0.000656599314901927,-0.00000000000000583158933995749,0.0000976090414106427,0.000000403915656382571,-0.000000135804779472838,0.00000794117027448715,0.000186229058821412,0.613273209510805,-0.0000530611307189897,-0.00000631253408212163,-0.0000945690316877259,-0.00610701907183008,-0.0000449899402317178,0.0000160111012196529,0.00000264167204713778,0.000336952569278845,-0.00000036445949735362,0.00000242785099852792,-0.00000550687567023786,0.0000309213717550536,1.00425835440323,0.00526962876105991,0.0000197087240199725,0.000022478753632122,-0.0000135524141507764,0.505812061967087
"t19",5.85697220140264,5.54611158551938,5.92782975231881,1.82312571946701,-1.43848075640213,-2.1067244204553,-1.35143133481319,-0.607374599743658,-0.614268750636642,-1.78242108879871,1.35150585349399,1.18031761649428,-1.74197351495411,-2.90001320272623,0.0082071259274139,-2.73882023576495,-0.130004666779279,-0.0303009496299408,-0.000263831797965101,-0.00577691837782733,0.00045634654991152,0.0036452991496005,0.00620492571904389,-0.300510859896763,2.25860736052798,-0.0277879238306049,0.00347939501789965,-0.00552603852676791,-0.0281042939883441,0.0534550932678186,-1.19972225233321,0.0000949924039914534,0.00136568730612093,-0.0020722115119645,-0.0000500532104028119,0.0212616703781033,0.0000703951982433381,-0.000000000000000902387434183537,-0.0757932948983116,-0.00000787865792785996,0.000352487757101337,-0.000123690953452762,-0.000133692703018446,-0.000914128587515368,-0.0000589645001147706,-0.00000946942160304514,-0.000179795101767782,-0.00355140721926988,-0.000165865211579647,0.0000712863921378919,0.0000192746324756551,0.000557247888598101,0.0000300565230368892,-0.0000356630676411381,0.0000515639811171508,-0.0000138249635621213,-0.00055204955276699,0.000360610961421056,0.000007213948504595,0.0000082978256270555,-0.00000489876894841135,0.000152822849594729
"t2",4.91954141543966,4.29843818077222,3.28415442228096,1.2428284455332,0.32243257011509,-0.897090967619827,-0.239504685113183,-0.671113930500374,-0.722172947600893,-0.603314263543064,-0.12443623414803,0.547511080441726,3.36515795939074,0.152396854290293,0.0181046391416971,0.0179095373572463,0.00152722114544986,0.595606963379498,-0.00150895138835146,-0.0661291085216163,0.51921619730697,0.00106281251461169,0.321974941128525,-0.00505560912550275,0.0208619496767746,0.0115827488533129,-0.00354313982356272,0.0434436803300836,1.1235845305944,-2.08568256831043,-0.0699364131005393,0.155748245133762,0.0117851417425836,-0.273226152712,0.193002868629608,0.000182099733156068,-0.0000353244184313363,-1.913110048,-0.000239943378059938,-0.00362749463839087,0.000640664840269867,-0.0271622365210905,-0.000218012952711873,-0.000134681658799646,-0.0106439500050434,-0.0016743673559419,-0.000277903542395861,-0.000506258270123154,-0.000268010660478499,0.0114616592578865,0.00289442116739172,0.0000752979276301413,0.00133822481395455,-0.0000514711098389018,0.0000742464601242797,-0.00180995885355775,-0.0000723947779089965,0.000047114296845417,0.000910676634804796,0.0000114300948275781,-0.000615312731642936,0.0000198330266678508
"t20",6.72279886899875,5.66007286239509,7.40750405724291,-0.462164410554363,1.92157356552635,-0.0327773382686599,0.871876420193072,0.98758730114934,-0.606648431051837,-0.411828123399515,0.928170041739815,1.84776744820396,-1.74197351495411,-2.90001320272623,0.00820712592741408,-2.73882023576495,-0.130004666779278,-0.0303009496299362,-0.000263831797963643,-0.00577691837782858,0.000456346549914134,0.00364529914959851,0.00620492571903974,-0.300510859896765,2.25860736052798,-0.0277879238306071,0.00347939501790383,-0.00552603852676928,-0.0281042939883447,0.0534550932678229,-1.19972225233321,0.0000949924039869916,0.00136568730612843,-0.00207221151196029,-0.00005005321040291,0.021261670378101,0.0000703951982404923,-0.00000000000000197434260215677,-0.0757932948983174,-0.00000787865792109942,0.000352487757101316,-0.000123690953444939,-0.000133692703014946,-0.00091412858751551,-0.0000589645001081662,-0.00000946942158527875,-0.000179795101760487,-0.00355140721928116,-0.000165865211590251,0.0000712863921136855,0.0000192746324811613,0.00055724788858957,0.0000300565230320379,-0.000035663067659584,0.0000515639811342484,-0.0000138249635128087,-0.000552049552767437,0.000360610961482891,0.00000721394836228261,0.00000829782560545486,-0.00000489876888977346,0.000152822849350042
"t21",0.611425735397572,0.199150829325504,1.03293147557968,-1.30632886977694,0.878036502397435,1.11672741336124,1.16447602893342,0.836592108306339,1.01746766217998,-0.742394589425834,1.10363928349893,1.32008694491441,-2.38415022208357,3.16913181526455,2.35904076719885,0.0437456623773107,-0.00348423752567746,-0.0232311325939449,1.49478126918595,-0.0376649590030655,-0.00292336635213345,-0.0230541143150216,-0.0014502937572314,0.00169741592481955,-0.00522909452170374,-0.0100267184133662,0.00152967165487036,-0.00206984387639989,-0.00159294589773846,0.00251885152232637,-0.00295241864237761,0.00160885811349667,0.0952417835819254,-0.000789888783798928,-0.0000342927936491406,0.00586315924489452,-0.764466738905539,0.0000000000000237405329911339,-0.0000109940228630316,-0.00000106569646868748,0.000270082044584762,0.00000368567695402333,0.923191844750816,-0.000400423282999268,-0.000187621932685503,-0.000040208601154747,-0.625871725524044,0.000360896353666854,0.00957914293196109,0.00000242222276258049,0.00000371453940694339,0.0000101876640743642,0.0000106775273072192,-0.0658441550491941,0.00000826965211110051,-0.00000351771323013287,-0.0000137804702379235,0.00000949720777714603,0.00000232878568338292,0.00953780996362635,-0.00000120950176585908,0.00000390974964756827
"t22",2.85340063391107,2.27769573902472,1.9182237600798,-3.37258489581237,1.75693699578937,2.75818650038045,0.355405789597537,0.230723754742156,0.329954204742411,0.267281226605623,-0.471387708284301,-0.00507376734371436,-2.38415022208357,3.16913181526455,2.35904076719885,0.0437456623773106,-0.00348423752567701,-0.0232311325939453,1.49478126918595,-0.0376649590030656,-0.00292336635213252,-0.0230541143150216,-0.00145029375723203,0.00169741592481917,-0.00522909452170418,-0.0100267184133661,0.0015296716548697,-0.00206984387639894,-0.00159294589773881,0.00251885152232783,-0.00295241864237743,0.00160885811349683,0.0952417835819255,-0.000789888783799104,-0.0000342927936489556,0.00586315924489542,-0.764466738905541,0.0000000000000237389809778706,-0.0000109940228658748,-0.00000106569646877037,0.000270082044583618,0.00000368567695411913,0.923191844750817,-0.000400423282997677,-0.000187621932682492,-0.0000402086011545867,-0.625871725524043,0.000360896353664385,0.00957914293195947,0.00000242222276403414,0.0000037145394061445,0.0000101876640740917,0.0000106775273089951,-0.0658441550491899,0.00000826965211011381,-0.00000351771323041357,-0.0000137804702418452,0.00000949720778402232,0.00000232878568356022,0.00953780996358419,-0.00000120950176697864,0.00000390974965816367
"t23",1.35138406820017,1.05802362050842,1.21047171413541,-3.28669550390027,2.27174950353854,0.0919955011104787,-0.29659239579077,0.241108427126459,1.01727584110818,0.0336905973807917,0.852966412708889,1.29015798361723,-2.38970873034538,3.178055624089,2.3798281827373,0.0443527357142526,-0.00356921514684321,-0.0239897901448992,1.56067026910569,-0.0393286192267476,-0.00312389877181926,-0.0250979537473003,-0.00162273394626611,0.00198398544433496,-0.00621184598910898,-0.0124926531536496,0.00197158297140481,-0.00275376873796238,-0.00212364594792106,0.00350740990350027,-0.00438730177151846,0.00512429268568089,0.317800228157822,0.0026856365642073,0.0000571791243858379,-0.00779580276558153,0.893211948655883,-0.0000000000000270522510818249,-0.00000277858610806234,-0.000000342534553953796,0.000488151601834199,-0.0000296175552582114,-0.129805890983572,0.0000206465336797367,-0.0000144440405325079,-0.00000480089550658802,-0.102318926611931,0.0000793424048220879,0.00231155146695237,0.00000070086564580058,0.00000117669949594016,0.00000323172571171964,0.00000338935707948863,-0.0231713055000208,-0.00000422042867420195,0.000000465095361210147,0.00000779255169864451,-0.0000277782597778682,-0.0000382754067896843,-1.05431615617664,-0.0000158667354088612,0.0000135314526213039
"t24",7.53641080720451,4.79050556959116,4.3800102079564,-1.66850498646735,2.73682168982259,4.05440027211366,1.97367147300022,1.44901286276908,0.572531933160447,0.870151502245618,-0.233430924932077,-0.165618923774336,3.6840252247831,0.170230655965351,0.0274475908145415,0.0415657428021992,-0.00181016359633312,0.758082867982958,-0.0398535801868646,-1.92089240421428,-0.902864216453062,-0.000385446515049727,-0.428632354399348,0.000498632680399288,-0.00235497842143443,-0.00117894379703325,0.000319722707869727,-0.0041647873179097,-0.112320626484981,0.0957792184210709,0.00248789257191674,0.0375344404737281,0.0000357856651267546,-0.0709859800651668,0.209480614942499,-0.00118752779092291,0.0000447230960979855,0.00000000000000228273366842467,0.00000779806848037049,0.000458952989255679,0.000067012654048457,-0.183378418063291,0.00000862880373202268,0.00000400945835248831,0.00021077818195712,0.0000623334575176216,0.00000150466556533371,-0.000000664350397996553,-0.00000105470708540938,0.000346634741572229,-0.0247244879927073,0.0000083504083157471,0.0000298075320424552,-0.00000106177764577297,0.00000144837185578306,0.00011809451988181,0.00000480379882686983,-0.0000128124628741867,-0.00222438884794233,-0.0000149078145170842,1.09515203187114,0.0000103376123656476
"t25",2.6122571705939,3.26784229354744,3.74308217707333,1.73997456361742,-2.4038055060477,-1.14454695075478,0.511539456227885,0.809852119852808,-0.257950376704679,0.87519077847005,-0.502983992112644,-1.32534401076804,-2.03564674719354,-3.53071794178523,0.0540766731952393,1.43078135937567,-1.45955572725295,-0.0107057477647935,-0.000176839607920433,-0.00388917546504724,-0.00138588733455476,-0.000984097045166991,0.000276510715928249,-1.47277669206859,-0.244828425628833,-0.00170515141913147,0.000271250714107013,-0.000436227395462388,-0.00221162101954559,0.00356489139184806,-0.0337909906577542,0.000123850995624433,0.00166661033923874,-0.00192322225516977,-0.0000704378329559251,0.0478737988407425,0.000312219518252349,-0.00000000000000394312569666853,-0.000414993886597195,-0.00000288604094805246,0.000122043734535615,-0.0000441887862752186,-0.0000551864134462915,-0.00186213832757678,-0.0000297737434279923,-0.00000545821508848301,-0.000137593499614046,-0.0948412045750434,0.000153452631287339,-0.00000504964906114521,0.000000496860928144142,0.000748171664330981,-0.00000068466547864629,0.00000170247323400453,-0.00000339416212453551,0.00000996558454239596,0.00408991617528947,-1.10321449722983,0.0000385356336096938,0.000036764528783229,-0.0000167667697011117,0.00143115795103346
"t26",6.42579624534937,5.8569871340738,5.55386421408989,-0.283025020141669,2.8607922193315,1.85567060686275,-0.555114052283621,-0.975375367235759,-1.63977767270003,0.237527980839762,0.0583329070654048,-0.626702397453765,3.86458096036639,0.180503269405836,0.0342827994850903,0.0639333116587378,-0.00970299016236183,-1.56462856945516,0.0119675263157361,0.568073821017,-0.211221672789526,-0.000157223732681823,-0.321665632281482,-0.000194263191411417,0.000120614738832122,-0.000244051141523704,0.0000962210643449466,-0.00201731426862131,-0.0579964703389884,0.0142971279757551,0.000735106100556638,0.27633749876977,-0.00450205572674987,0.00674657772063429,-0.00955516007232756,0.0000388629999676616,-0.00000117122999111564,-0.000000000000000664667051190577,-0.00000216739698609335,-0.0922016622024244,0.000000131935152333809,0.000129006297062937,0.00000367249551580373,0.00000355702656864872,0.0015411930127388,0.609652695559559,-0.000031533184450871,-0.0000260113867387927,-0.0000114815013749844,0.00245179937646879,0.000176960261606585,0.00000135003023085082,0.0000112221819325868,-0.000000231178012357281,0.000000135506551637648,0.0640673196053617,0.00000589835532285738,-0.0000250434607616148,-0.855289706735811,0.0000329118266354969,-0.00200227240265842,0.00000899685009805708
"t27",-0.32179499207941,0.358104006046151,0.888452958068539,-1.19006263889336,2.95047496387843,1.46803903078951,0.7838235442628,0.53978681212727,0.838235060863964,-0.432596358037199,0.784874126934874,-0.725610079708783,-1.79391988241162,-3.00528657413003,0.00924038631388795,-3.33635878147011,-0.192907741455798,-0.0549968348764806,-0.000713704420748673,-0.0156908227809057,-0.006610925667637,-0.00750845204522996,-0.00503682526938615,0.104480445346291,-0.612449511329931,0.0039125296378643,-0.000312581834029631,0.000317817478544688,0.00156757309265283,-0.00139939295470477,-0.00123282687054499,0.00000317544349772994,0.0000443174889978329,0.0000690961210982431,0.00000351600493052947,-0.00186747595014997,-0.000006999377201049,0.0000000000000076741948154494,1.09363684273703,-0.0000315896693486864,0.000174858747867031,-0.000056143408822179,-0.0000551399667954689,-0.000372885230562823,-0.000023570022091547,-0.00000375421667221182,-0.0000705933575106279,-0.00137387416069563,-0.000063733457750452,0.0000268482952837583,0.00000707743226100711,0.000204385491815374,0.0000106672331066418,-0.0000125184731353867,0.0000179730595185111,-0.00000418375228541168,-0.000152492163048505,0.000081108667493528,0.00000138088949983598,0.00000151196405843368,-0.000000801093290260268,0.0000122013798209812
"t28",3.08423113450115,3.77181977445574,3.65764484216158,-0.676571985540135,2.19928533806125,0.566699198765818,-0.434895573733866,0.314105402100195,0.503455518144532,-3.17918594515351,2.20142515012193,2.38561632723507,-2.00655814929018,-3.46771160373114,0.0493496834521718,1.118915508458,2.41770318110091,-0.0296174950605499,-0.000363934143241215,-0.00799971056456075,-0.00317492820294491,-0.00332159343472169,-0.00184575259065431,0.0542528198163017,-0.0516912176202645,-0.000931101109695927,0.000180176096113589,-0.000323639378989045,-0.00165041537038096,0.00294293359834933,-0.0309455055642785,0.000182667914426982,0.0024966002516205,-0.00525258954200113,-0.000259142564685778,0.204785299227501,0.00148284370842327,-0.0000000000000149104786998881,0.000581686342895192,0.00000321919161247984,0.0000001421075047908,-0.00000452633771676405,-0.0000282825337925345,-0.0679079154350634,0.00000219342842117439,0.000000102660829669812,-0.000000945446284387783,-0.000245992650823306,-0.00000217564905595207,0.000000575016203106528,-0.000000444749643345816,-0.0000636276278757805,-0.00000298819495779508,0.00000471501188200939,-0.00000799875941077867,0.0000175388803149918,0.445772140914084,0.000949933701961469,-0.00000100574633596086,-0.00000287444361344822,0.00000417367930679907,-1.01639205221837
"t29",5.67412374249904,5.22514240260378,4.31023611807985,0.961999276713286,1.40765701210849,1.05159512886481,0.546669586552254,0.486390102567097,1.33261473683077,-1.50456525351795,1.45781264188883,1.2623264329627,3.87008262875289,0.180813472074972,0.0344660360494276,0.064468672706049,-0.00984426017689032,-1.59487554869446,0.0122762105903027,0.582755206597259,-0.219494192298175,-0.000165025286388551,-0.342448672237844,-0.000211254587664551,0.000132150333415299,-0.000273016586472898,0.000109134572120559,-0.00231606946963608,-0.0666364138854883,0.0166850870465639,0.000876265113855551,0.377113875017816,-0.00617039009682018,0.0105236743782552,-0.0155318827225494,0.000064229578141653,-0.00000195542169753914,-0.00000000000000134949897359977,-0.00000536194514318904,-0.246148039783873,-0.000000378515574796918,-0.000153281174932507,-0.00000113472744616384,-0.000000853587226894793,-0.000198318555292215,-0.0547115443591155,0.00000155507603891631,0.0000000391009397795531,-0.00000015104372320695,0.0000455713400363696,-0.0000202664558677386,-0.000000170601742347492,-0.0000132242094080657,0.00000068376476956552,-0.00000116409105918396,0.0691716459533326,0.00000551556243192345,-0.0000196946409394509,-0.606566017061058,0.0000226539671561916,-0.00129254617595488,0.00000386633152469141
"t3",8.38794082060738,5.30125518410484,5.94102556613549,2.5992116410623,-1.34243484174545,0.409084739198621,-0.245193283970173,0.548756143555589,-0.0431034295099338,2.45588932296683,-2.55750933153573,-1.58067169192087,3.36515795939074,0.152396854290292,0.0181046391416965,0.0179095373572475,0.00152722114544901,0.595606963379498,-0.00150895138835273,-0.0661291085216155,0.51921619730697,0.00106281251461152,0.321974941128523,-0.00505560912550435,0.0208619496767732,0.0115827488533122,-0.00354313982356159,0.0434436803300836,1.1235845305944,-2.08568256831043,-0.0699364131005375,0.155748245133764,0.0117851417425779,-0.27322615271199,0.193002868629575,0.000182099733446209,-0.0000353244183103575,1.913110048,-0.000239943378088039,-0.00362749463839254,0.000640664840271963,-0.0271622365210932,-0.000218012952710634,-0.000134681658802379,-0.0106439500050423,-0.00167436735594304,-0.000277903542394865,-0.000506258270124584,-0.000268010660476988,0.0114616592578872,0.00289442116739126,0.0000752979276325037,0.00133822481395493,-0.0000514711098391533,0.000074246460123841,-0.00180995885355782,-0.0000723947779093673,0.0000471142968455819,0.000910676634804156,0.0000114300948273822,-0.000615312731643087,0.0000198330266679025
"t30",5.10169385475216,4.41304054273702,4.81517040341605,0.910872190473583,0.826929695404157,1.05862736387308,1.82889122762223,1.06529983875374,1.32267038309825,1.19458413263887,-1.03045122057263,-0.509756582931701,3.48472359136491,0.159020406247205,0.021106138556428,0.0242144464270181,0.00138240913823076,0.839734531676703,-0.00520059383110878,-0.23932406190621,2.43569438704441,-0.0118529432339696,-0.724026621819283,0.00322239217020172,-0.0107566453033303,-0.00358331866353567,0.000814047420752601,-0.00794358589932223,-0.20372929210657,0.254627895402548,0.00531966325775571,0.0121272109706727,0.000515431662957476,-0.0257661958733051,0.0268366147564917,-0.000038815924543007,-0.0000011614092168745,-0.0000000000000000427086105514769,-0.0000266954309843,-0.000570566734983873,0.0000668347747276544,-0.00278853559997083,0.0000344409076559305,0.0000453651625684945,0.998383433943251,-0.00321024614695693,-0.000218148892287601,-0.00026479605675905,-0.000126303465775111,0.0057012705594751,0.00129748602894104,0.0000265455753255074,0.000453695402596915,-0.0000173418523877511,0.0000249411943929793,-0.000747882195266068,-0.0000239914103927601,0.0000156321250640595,0.000375435344899946,0.00000379261077628245,-0.000253683654109397,0.00000659199974488987
"t31",4.82723000082655,2.89131197072149,3.19952985683763,1.6835088516852,0.717998461088155,0.823909864035182,0.159141701680063,0.165871102460589,-0.57135623449638,-1.3590255450188,1.02251986956096,0.414975987673457,3.48472359136491,0.159020406247205,0.021106138556428,0.0242144464270169,0.00138240913823083,0.839734531676703,-0.00520059383110803,-0.23932406190621,2.43569438704441,-0.0118529432339699,-0.724026621819282,0.00322239217020461,-0.0107566453033308,-0.00358331866353588,0.000814047420752807,-0.00794358589932215,-0.203729292106569,0.254627895402548,0.00531966325775552,0.0121272109706726,0.00051543166295986,-0.0257661958733023,0.026836614756492,-0.0000388159245401432,-0.0000011614092154274,-0.000000000000000247290199982771,-0.0000266954309844832,-0.000570566734983288,0.0000668347747255491,-0.00278853559997073,0.000034440907655037,0.0000453651625727451,0.99838343394325,-0.00321024614695686,-0.000218148892286975,-0.000264796056751892,-0.00012630346577965,0.00570127055947215,0.0012974860289382,0.000026545575329765,0.000453695402597211,-0.000017341852388294,0.0000249411943907336,-0.000747882195266293,-0.0000239914103934702,0.0000156321250502232,0.000375435344898129,0.00000379261078222626,-0.000253683654111858,0.00000659199972954852
"t32",4.18659564405502,3.73182541334586,3.63532050722451,-0.674952065384425,1.72277372943205,-1.5616250188242,1.34883056325762,1.12459851623752,1.07875355468462,-0.950375219015645,0.512770449105099,0.605086952235732,-2.24773538253331,2.93264004513744,-2.89266841620447,0.0746486788322755,-0.00503471967590105,-0.0342190336154671,-0.0026343648855514,-0.0106582942057373,-0.00607774561671813,-0.922207595618531,-0.0000750123605377118,0.000762211922556316,-0.0019747113582296,0.376673553072023,1.16117981322973,-1.26037154832384,0.0418605260070093,-0.00125590476641476,-0.000530178476964948,0.000184804404363285,0.00783332419497213,-0.00069685952447248,-0.0000109633180085376,0.000726947722436608,-0.000289094851250418,-0.00000000000000045515345843437,-0.0000568665451614422,-0.00000476531573247963,0.183656391704973,0.0000206751904582757,-0.000150236550315341,-0.000013683191347213,-0.000011293375207254,-0.00000190078832765693,-0.000280637778863414,-0.0000732565523130238,-0.000299119883648895,0.0000175257960940293,0.00000495196626317015,0.0000133222242971319,0.00000854925196543933,-0.0000881392758464056,0.0151675542641652,-0.00000336308855953185,-0.0000124370962212379,0.00000780092641622619,0.00000161239522799999,0.0000135870824201835,-0.0000010706065666167,0.0000029846922183211
"t33",-2.65260349292309,-1.45435978206817,0.507559716531644,-0.264184111639005,1.27921661566698,-0.20122564453044,-0.780187594484809,-0.0902700187875903,0.0911787490632956,-0.396555063218202,0.0553572710043674,-0.189712985132765,-1.79445867386699,-3.006374717338,0.00925062268752856,-3.34207202310439,-0.193466971040058,-0.0552043400533869,-0.000717204276153529,-0.015767902785182,-0.00665767230410818,-0.00757320092284095,-0.0050905315249714,0.105882408060017,-0.621217194925474,0.00397761643553749,-0.000318222562363486,0.000323925325827065,0.00159781097137983,-0.00142835543145194,-0.00126052371614301,0.0000032738852310223,0.0000457008534685462,0.0000716232403816974,0.00000364939615744726,-0.00193928292086245,-0.0000072706364718015,0.0000000000000118866511351904,1.14478700487151,-0.0000330986642199753,0.000185933333949356,-0.0000600312118710303,-0.0000597172934528415,-0.0004048739180384,-0.0000257428077098258,-0.00000411243825458332,-0.0000776418725843695,-0.00152260413939591,-0.000070928488322836,0.0000303467393639976,0.00000821597255238152,0.000237582386254057,0.000012940263878952,-0.0000154175310183772,0.000022352625660033,-0.00000632180221289567,-0.000259930773400538,0.000179134214420248,0.00000370407915612049,0.00000429856410084526,-0.00000258311511179691,0.0000868976282887374
"t34",-1.34321399275171,-0.183144734042442,0.122605722549355,0.0057923368518283,0.804860548059152,0.0954679080811305,0.323443992721988,0.0636214136162792,0.67989753501943,-0.402975761393786,0.688522673080977,0.779627425631168,-1.79445867386699,-3.006374717338,0.00925062268753403,-3.34207202310439,-0.193466971040057,-0.0552043400533895,-0.000717204276155447,-0.0157679027851836,-0.00665767230411269,-0.0075732009228391,-0.00509053152496896,0.105882408060017,-0.621217194925475,0.0039776164355368,-0.000318222562360399,0.000323925325833275,0.00159781097137628,-0.00142835543144289,-0.00126052371614214,0.00000327388523039178,0.0000457008534748954,0.0000716232403854837,0.00000364939615153291,-0.00193928292086211,-0.00000727063646871348,0.0000000000000094854696346796,1.14478700487155,-0.0000330986642187329,0.000185933333940493,-0.0000600312118730024,-0.0000597172934456229,-0.000404873918042073,-0.0000257428077053476,-0.00000411243825315311,-0.0000776418725824807,-0.00152260413936688,-0.0000709284883142679,0.000030346739361704,0.00000821597255252477,0.000237582386259109,0.000012940263876559,-0.0000154175310367615,0.0000223526256598093,-0.0000063218022152272,-0.000259930773396408,0.000179134214416898,0.00000370407915343389,0.00000429856409763882,-0.00000258311511302491,0.0000868976283255131
"t35",2.32412186869938,-0.945352816378542,2.07211351424419,-0.0797164109349043,0.762867919244277,1.26896330883099,0.464687565821128,0.824624056012814,0.427371768902901,-0.508968019254067,0.538275512650473,1.10690670974415,3.22130915990163,0.144098688415336,0.0117695448685003,-0.00435977730339065,0.00939405764641254,2.33763645191615,0.0410319273734659,2.04867000462108,-0.803377556048497,-0.0088175493004319,-0.165364586304473,0.00478799022162462,-0.015055543520183,-0.00433450605688746,0.000842580403984676,-0.00543323359936143,-0.12718238110513,0.181433379934554,-0.000790406761176019,0.0110835224851974,0.00576896789609343,-0.428166887102303,-0.117558278801538,-0.00813461940986016,0.00028569933460987,0.000000000000000606410209164094,0.0000436904633139382,0.000110322701990616,0.0000568631496211178,-0.000875790385002946,-0.0000350500115674254,-0.0000222485665052092,-0.000529402155942831,-0.000085217222672369,-0.0000501300431755143,-0.0000920396624217908,-0.0000484870931042619,0.000579102145698718,0.0000767298609456134,0.00000602271379951114,-0.785864636461165,-0.0000599854718560443,0.000063817527954737,-0.000267505010833342,-0.0000324277494633848,0.0000206832511706818,0.000129357762884353,0.0000049971412514647,-0.0000872986916093616,0.00000861125951651765
"t36",1.98678957694578,0.718999600738769,1.49987393585972,-0.64265373276984,0.362678133108883,1.23641627129482,-0.900496611471179,-0.248684316829096,-0.175903828849946,0.315739728014303,-0.633513492116302,-0.14415324558357,3.22130915990163,0.144098688415336,0.0117695448685002,-0.00435977730339073,0.00939405764641294,2.33763645191615,0.041031927373466,2.04867000462108,-0.803377556048498,-0.00881754930043187,-0.165364586304473,0.00478799022162634,-0.0150555435201842,-0.00433450605688772,0.000842580403985298,-0.00543323359936123,-0.12718238110513,0.181433379934555,-0.000790406761176197,0.0110835224851984,0.00576896789609352,-0.428166887102305,-0.117558278801538,-0.00813461940985668,0.00028569933460961,0.00000000000000131517137290632,0.0000436904633071704,0.000110322701991417,0.0000568631496238537,-0.000875790385002076,-0.0000350500115681831,-0.0000222485665066773,-0.000529402155943905,-0.0000852172226715534,-0.0000501300431785543,-0.0000920396624232823,-0.0000484870931030075,0.000579102145698336,0.0000767298609449998,0.00000602271380301381,-0.785864636461168,-0.0000599854718554335,0.0000638175279531128,-0.000267505010835181,-0.0000324277494667003,0.0000206832511765402,0.000129357762882199,0.00000499714124953052,-0.0000872986916077551,0.00000861125952423427
"t37",3.29551565459091,2.48947134212978,2.97611932060608,-0.556475893622392,1.20824248006867,-2.36316243431397,1.81793815736585,2.51944927921097,2.46617685263515,1.44709848968039,-0.802875775274387,-0.702352804157438,-2.24829948688715,2.93352725666101,-2.89534376511478,0.0747553335861534,-0.00504688209518851,-0.0343265223185427,-0.0026451071074203,-0.0107018319821267,-0.00611340116870382,-0.928794774073944,-0.0000756734526720533,0.000770641145469354,-0.00199798809337441,0.381820565081496,1.17836638431337,-1.28021415786725,0.0425219589039013,-0.00127716544149094,-0.000539903250513662,0.000189441024609917,0.00803116996084076,-0.000717369166964807,-0.0000112975571828552,0.00074939820533719,-0.000298090707489162,0.0000000000000000918357109005034,-0.0000589848219830092,-0.00000494642869283454,0.192768183413985,0.0000217901851095776,-0.000159819152696629,-0.0000145826901184095,-0.0000120862145401217,-0.0000020384833985706,-0.000301820773483196,-0.0000792039045379285,-0.000324333094545156,0.0000192032977048457,0.00000552095450037803,0.0000148655840931998,0.00000979174838259695,-0.00010184196619502,0.0176234760169422,-0.00000429539942373481,-0.0000166327881616295,0.0000112586296833135,0.00000242784388148987,0.0000206809542530214,-0.00000166406454834113,0.00000502673767264026
"t38",3.28779090104429,2.74072856259138,2.91130639516893,-1.62379288427508,2.20058279697616,0.0471236883389416,0.0667097984451185,-0.715694153956444,-0.458154168818075,0.720762360753201,-0.793290690536113,-0.897964089643597,-2.24829948688715,2.93352725666101,-2.89534376511478,0.0747553335861537,-0.005046882095189,-0.0343265223185424,-0.00264510710742017,-0.0107018319821262,-0.00611340116870346,-0.928794774073943,-0.0000756734526713469,0.000770641145469209,-0.00199798809337488,0.381820565081495,1.17836638431337,-1.28021415786725,0.0425219589039019,-0.00127716544149116,-0.000539903250514241,0.000189441024611053,0.00803116996084051,-0.000717369166965002,-0.0000112975571828764,0.000749398205336255,-0.00029809070748947,-0.000000000000000415103416260439,-0.0000589848219847403,-0.00000494642869252261,0.192768183413986,0.0000217901851092237,-0.000159819152694801,-0.0000145826901126086,-0.0000120862145400439,-0.00000203848339744571,-0.00030182077348261,-0.0000792039045390783,-0.000324333094544531,0.0000192032977019695,0.00000552095450003435,0.0000148655840922429,0.0000097917483825984,-0.000101841966193841,0.0176234760169409,-0.00000429539942670933,-0.0000166327881684166,0.0000112586296885606,0.00000242784387684596,0.0000206809542561705,-0.00000166406454582576,0.0000050267376707053
"t39",4.97295511792745,1.27678412125245,2.80865943308486,0.784649028271171,1.05550423173216,0.155441992771835,1.14090912490635,1.77618570488543,1.38563683035244,0.163188496805551,-0.114629838103822,0.310271761663493,3.69070940514978,0.170603164068143,0.027632329070713,0.0420000658554502,-0.0018424571465551,0.775796174555503,-0.0410738284968169,-1.97981413209795,-0.943363176563084,-0.000406775216800652,-0.458410051079803,0.00054314684585568,-0.00258082185165611,-0.00131270897766178,0.000359511798979724,-0.00472191026168312,-0.127410222327009,0.109740967518522,0.002887225007883,0.046463326839175,0.0000443731432237636,-0.0919113543775818,0.274331567327628,-0.00156188244661162,0.0000589723230149414,0.00000000000000196408218390471,0.0000110331873910883,0.000655338288531926,0.000111890826311854,-0.327430578454216,0.0000183971372088046,0.00000889797507354088,0.000516585408082736,0.00016129664565991,0.00000421618962148554,-0.00000221004353263649,-0.00000391319362424402,0.00227156340782559,0.46773427440763,-0.000131931361450089,-0.0000742231877125251,0.00000202715043704392,-0.0000024013395817708,-0.000053240777233105,-0.00000149982600893883,0.00000247936243132235,0.000344046057635181,0.00000218512519485389,-0.145125303297787,-0.000000961068280867194
"t4",0.366972491571989,-0.312234233006556,1.12925749435341,-2.85065078284105,2.59417842441821,3.71485235812333,-1.54985438743391,-0.99596173592143,-1.22111058660482,0.545289684412733,-0.9308322856295,-0.48252244246795,-2.28431238353351,3.00888374336094,1.98673568432024,0.0328962627470241,-0.0019720085429126,-0.00977326352763033,0.330849659078257,-0.00827728759425303,0.000589891416670052,0.0125326897971895,0.00152660856407704,-0.00318747097389886,0.0114478926548339,0.0312891093227915,-0.00580957637671768,0.00919717151269361,0.00714528506882157,-0.0135805504802225,0.0200391314515057,-0.045554791726259,-2.8628591605927,-0.0247777696448999,-0.000302496343334531,0.0172492441784696,0.286198733121123,-0.0000000000000134545569899844,-0.000735262348198984,-0.0000577125010839283,0.0103545816394541,-0.00043975373223945,-0.0952902617419788,-0.000228176734112335,-0.000180065628328428,-0.0000309184746771094,-0.103796927843086,-0.000850997030226195,-0.0498692983552107,0.000163634876508282,0.0000433588315989925,0.000116277167372074,0.0000664864360666133,-0.0146426376135206,0.000806388471824907,-0.0000281038584814683,-0.000104608816815041,0.0000676268474766863,0.0000143684419288208,0.00281776164927435,-0.00000960629736556834,0.0000282311636048964
"t40",5.3518872492478,4.62502965235331,4.7760968609261,-1.46124610507216,1.52638966394107,-0.342320456342962,0.0148310008782098,-0.250694894084702,-0.776871345466204,-0.841582494753753,0.320435353632132,0.492158345565277,-2.26254903493588,2.95602397083194,-2.96646178364883,0.0777068030624125,-0.00541314972319902,-0.0377906719071033,-0.00302623225260639,-0.0122477141878201,-0.00768818872726451,-1.28326494460736,-0.000126057099239578,0.00231554518377076,-0.0100888447443132,-0.899249090563488,-0.869086255743755,0.351884467814812,-0.0108569183783859,-0.0000329862258338113,-0.00012265148448061,0.000113715798429277,0.00486281741752763,-0.00051534343404882,-0.00000840716107384782,0.000564858422626246,-0.000226372694261371,0.000000000000000599488373183488,-0.0000541527757141711,-0.0000046544085182371,0.339087729082801,0.0000838423543704813,0.0000751790054522303,0.00000336099161716791,-0.000000877265717377483,-0.000000337696224994812,-0.0000790123930918278,-0.0000309474938207077,-0.000144499738177918,0.0000117092209209648,0.00000490975960797379,0.000013472038483106,0.0000211669477583995,-0.000462441819429682,0.328619357108652,0.000000429531331387349,-0.000000207830621613845,0.00000100216380639528,0.000000267368555088449,0.0000023627928437537,-0.000000201624119029591,0.000000696923556618641
"t41",2.30015343269686,3.61091357712724,2.43981861490485,5.14775961555486,-6.18715210393134,-5.34930464004673,0.754265059500813,0.592123680019967,-0.229347035898798,-1.48366621977708,1.98863056374253,1.37163814501115,-2.03975733930891,-3.53931686065037,0.054481831009512,1.44742609816316,-1.48855414640097,-0.0109843937988686,-0.000182872723000224,-0.00402210214453869,-0.00145519553653996,-0.00104483529764055,0.000297949455994002,-1.61963545445758,-0.271061600730257,-0.00192147798068333,0.00030901363469297,-0.000501533252448826,-0.00254414326294148,0.00414675985103569,-0.0398681010074912,0.000156977796256522,0.00211633300572977,-0.00256235426476927,-0.0000950381780683497,0.0649038523706628,0.00042449045482389,-0.00000000000000188049156595792,-0.000610201569380361,-0.00000428714588090623,0.00021590098338486,-0.0000842891704518004,-0.000128696040348852,-0.00454623883033494,-0.0000814968371974909,-0.000015913870315023,-0.000440420584498074,-0.372686854852396,0.000689329735753826,-0.0000487882499379945,-0.00000482489042869703,-0.00659912804295628,0.00000153451941379891,-0.00000301596489524374,0.00000529634504679078,-0.00000468535163857222,-0.00137005490773354,0.238664014109396,-0.00000680672763347905,-0.00000618691905463773,0.00000257716856826106,-0.000160389029030066
"t42",-0.398444275583471,-2.27977137961203,-1.26689675033362,0.806524807017768,-0.199109224993318,-0.363841020064169,-1.50377768796238,-1.63407022996405,-1.31666905091676,-0.482050959127931,0.566308440564564,0.514918144193549,3.22333041310745,0.144207728250619,0.0117969107434533,-0.00437550223776058,0.00945181521217888,2.35643858499647,0.0414637309395573,2.07026846492758,-0.815726824561531,-0.00898439677758797,-0.169281891990609,0.00493317435504954,-0.0155453318655744,-0.00450078056275974,0.00087795908568128,-0.0056780294607196,-0.132936600593253,0.190321609057857,-0.000832929567889966,0.0119554184291366,0.00622660539947308,-0.469514943699966,-0.129452409034589,-0.00897193797116324,0.000315405683616868,0.000000000000000555666892079928,0.0000495182120976028,0.000125471090025067,0.0000686707737576523,-0.00108584671593085,-0.0000466516206874123,-0.0000300981775869376,-0.000745796446264307,-0.000122755048207058,-0.0000746159450563939,-0.000147012703249293,-0.000080977399060155,0.00120528224514903,0.000416748567985949,0.0000365717035577764,0.77112759262142,0.0000276531808096486,-0.0000172509348080641,-0.000120256269234442,-0.0000167953759608815,0.0000119125315650899,0.0000769851711575988,0.0000029941135404535,-0.0000529210962839024,0.00000539406258331111
"t43",0.894204064220793,-1.22414836979856,0.0518526123360353,0.771442591324073,-0.534228961493576,0.52198106347717,1.03616182297481,1.27814264568163,1.96279215981025,-1.21067754145445,1.33200012835291,2.2726162186245,3.22333041310745,0.144207728250619,0.0117969107434527,-0.00437550223776033,0.00945181521217868,2.35643858499647,0.0414637309395571,2.07026846492758,-0.815726824561532,-0.00898439677759025,-0.16928189199061,0.00493317435504912,-0.0155453318655746,-0.00450078056276075,0.000877959085682517,-0.00567802946072034,-0.132936600593253,0.190321609057856,-0.000832929567889425,0.0119554184291372,0.00622660539947241,-0.469514943699966,-0.129452409034589,-0.00897193797115727,0.000315405683616581,0.000000000000000583798614269394,0.0000495182121032542,0.000125471090025014,0.0000686707737586315,-0.00108584671593098,-0.0000466516206883876,-0.0000300981775886203,-0.000745796446263875,-0.000122755048205248,-0.0000746159450581206,-0.000147012703241142,-0.0000809773990593688,0.00120528224514902,0.00041674856798495,0.0000365717035562568,0.771127592621418,0.000027653180807512,-0.0000172509348086243,-0.000120256269237161,-0.0000167953759600491,0.000011912531564395,0.0000769851711578188,0.00000299411354144863,-0.0000529210962855789,0.00000539406258202068
"t44",2.0288159142991,1.91831640210084,0.480033794276757,2.69960396378401,-3.69316987620718,-4.06338072500161,-0.0787747825298189,-0.0878380801573306,0.293861494605362,-0.0921241085941231,0.110795480293196,-0.0765221712714739,-2.21259369560811,2.87717805114543,-2.71809422214074,0.0674320215530756,-0.00414715112198214,-0.0258903891388058,-0.00172916409804644,-0.00698708702072597,-0.00245532094550946,-0.133478614667093,0.0000299537312342274,-0.00194176076345544,0.0107944515317035,1.41604902909443,0.797053702209528,1.86066472674064,-0.0689021498339153,0.0115531607718977,-0.00894474358101042,0.000617895390878061,0.0259196384904479,-0.00189812819419619,-0.0000287685556758075,0.00188233159339309,-0.000742814168406564,0.000000000000000101557099656941,-0.000121200603596192,-0.00000991461152746598,0.117478024162684,-0.0000577640832852115,-0.000645032599725903,-0.0000534377575539859,-0.0000386731845416912,-0.00000623789515017505,-0.000881110991417846,-0.000217116280110641,-0.000866525656987275,0.0000479773653275461,0.0000128691601674535,0.0000345538945838084,0.0000205818540320791,-0.0001903259923884,0.0111018854197644,-0.000009025926030369,-0.0000340180105597518,0.0000222644260594618,0.00000472692105623134,0.0000401150675220335,-0.0000032053105035721,0.00000944865558665358
"t45",0.749874149385212,0.789068884395687,-0.35622057859738,0.870881790819005,-2.16037723332236,-2.74744542454332,-0.415856416120869,0.0786256559677169,0.676563125658996,-1.5944671636306,1.21261567945346,0.464014702338533,-2.21259369560811,2.87717805114543,-2.71809422214074,0.0674320215530765,-0.00414715112198113,-0.0258903891388061,-0.00172916409804658,-0.00698708702072583,-0.0024553209455098,-0.133478614667093,0.0000299537312353171,-0.00194176076345555,0.010794451531704,1.41604902909444,0.797053702209528,1.86066472674064,-0.0689021498339151,0.0115531607718979,-0.00894474358101014,0.000617895390878815,0.0259196384904489,-0.00189812819419575,-0.0000287685556758888,0.00188233159339399,-0.000742814168406641,-0.000000000000000305201673323756,-0.000121200603594953,-0.00000991461152712087,0.117478024162684,-0.0000577640832850778,-0.00064503259972622,-0.0000534377575560135,-0.0000386731845416129,-0.00000623789515129845,-0.000881110991418767,-0.000217116280112111,-0.000866525656987822,0.0000479773653277382,0.0000128691601684897,0.0000345538945868855,0.000020581854034026,-0.000190325992388984,0.0111018854197628,-0.00000902592603079049,-0.0000340180105571426,0.0000222644260582239,0.00000472692105397059,0.0000401150675237998,-0.00000320531050099471,0.00000944865558441244
"t46",1.58518594803694,2.68336868954695,1.12177662368715,-1.27776401238174,2.7790477929838,1.21300144795784,-0.376018364484056,-0.185004993354447,0.15135080737584,-0.135578139057761,0.451225058276389,0.225419667754385,-2.01239207071434,-3.47987408121362,0.0498835200737651,1.13774862630379,2.4874932917402,-0.0307410208026425,-0.000382105018601009,-0.00839987058856705,-0.00340919858729186,-0.00362590276665086,-0.00205992224990247,0.0624431621583133,-0.0601093248687258,-0.00111251255875365,0.000218951662758193,-0.000398956669636878,-0.00203629099307889,0.00369507244783274,-0.0397382852170881,0.000263689740344946,0.00361526651638703,-0.00825694616428196,-0.000416467850649564,0.331901464527623,0.00241540702434371,-0.0000000000000262089929411307,0.00109373034065129,0.00000617195484894272,0.00000039382771502949,-0.0000151151305134173,-0.000181095489755587,-0.533630293810231,0.0000362283775290563,0.00000382864268701285,0.0000488218198893915,0.00229878750338674,0.0000140103531766165,-0.00000171082353206721,0.000000683571904784705,0.0000954669672502015,0.00000254296254226455,-0.00000347698850287708,0.00000543074439458655,-0.00000470520632514105,-0.089152919711659,-0.000129329025349006,0.000000114656127119025,0.000000314174103379968,-0.000000421773758424865,0.0785725449417574
"t47",6.53858051335268,5.35325100783531,6.10274476517422,2.67253459110555,-3.3062720296948,-2.39671773308129,-0.589576419154543,-0.581860968177932,-0.452022914767588,-0.405330096281102,0.56720130108721,-0.456265982315546,-2.18964938116082,2.84087149587996,-2.59989859867605,0.0623948610104226,-0.00348272425377513,-0.019251993377178,-0.000931055391455098,-0.00374736442190926,0.0018739688058331,1.32324813928143,-0.00249331959227127,-0.000521479783312494,0.00727976540720335,1.51209951431002,-1.62254357086205,-0.767002896105242,0.0158912523839992,0.00873925268717473,-0.00849853747009156,0.000677116904322582,0.028425591649937,-0.00210021769906006,-0.0000318317910011022,0.0020823856605578,-0.000821635870910141,0.000000000000000249380219779456,-0.000131858384834238,-0.0000107419351981364,0.0471524942624524,-0.0000965573690475543,-0.000834099594826822,-0.0000683664153382575,-0.0000486744457821073,-0.00000780671271896399,-0.00109603134183816,-0.000267873987016271,-0.00106554810632268,0.0000584916699845194,0.0000155496049268446,0.0000417349779853956,0.0000244191024926693,-0.000218868187245927,0.00515174690091311,-0.0000108913086730358,-0.0000409651543286733,0.000026763725775103,0.00000567868200639622,0.0000481858874447046,-0.00000384930364150117,0.0000113393200578166
"t48",4.31058601249605,4.31438611011138,4.35269713604541,0.392506890413324,-0.902698573677902,-0.24071952776095,-0.326763743229314,0.472346782964548,-0.407527576924082,0.686864696951204,-0.740796519046993,-0.107819670517277,-2.18964938116082,2.84087149587996,-2.59989859867605,0.0623948610104221,-0.00348272425377539,-0.0192519933771781,-0.000931055391454874,-0.0037473644219093,0.00187396880583365,1.32324813928143,-0.00249331959227072,-0.000521479783311961,0.00727976540720171,1.51209951431002,-1.62254357086205,-0.767002896105241,0.0158912523839981,0.00873925268717676,-0.00849853747009069,0.000677116904322814,0.028425591649939,-0.00210021769906033,-0.0000318317910009208,0.00208238566055789,-0.000821635870909139,0.000000000000000337013362430997,-0.000131858384833798,-0.0000107419351981315,0.0471524942624511,-0.0000965573690471791,-0.000834099594827397,-0.0000683664153396739,-0.000048674445782911,-0.00000780671271975533,-0.00109603134183923,-0.000267873987017142,-0.0010655481063227,0.0000584916699848734,0.0000155496049284288,0.000041734977985973,0.0000244191024925966,-0.000218868187247072,0.00515174690091696,-0.0000108913086718766,-0.000040965154335098,0.000026763725782286,0.00000567868200781719,0.0000481858874475061,-0.0000038493036398574,0.0000113393200668393
"t49",1.78500942297928,1.8177784054338,1.87035172401361,-3.58189049497058,5.45278006081343,5.00094483511186,-0.843766828518213,-1.57980888581833,-0.691227739092552,0.0819575938504203,-0.276701074644031,-0.708710305383425,-2.0054502881879,-3.46539431338422,0.0492439010194327,1.11506607135505,2.40257265757768,-0.0293634992805945,-0.000359605236780208,-0.00790434166554778,-0.00311352517146248,-0.00323648810533997,-0.00178078217767307,0.0514963559024907,-0.0487645495359165,-0.000862687282505313,0.000164838073214112,-0.000292668121434901,-0.00149136719516997,0.002618481302044,-0.0269345919745906,0.000135127215049596,0.00183625588797932,-0.0031992139673879,-0.000147642255323357,0.113465499793187,0.000807516903897782,-0.00000000000000686411504462108,0.00012602313981838,0.00000052474832368874,-0.000000195428906510876,0.0000119145933214324,0.000310145109670941,1.04448004492237,-0.0000953488918196733,-0.0000116682737242659,-0.000181936431954849,-0.0127351525443402,-0.0000983688994546247,0.0000427937999034492,0.0000115672290854858,0.00152484151606196,0.0000184520163970601,-0.0000226105554504588,0.0000334599661389254,-0.0000218649303227674,-0.436477116417313,-0.00116004328482525,-0.00000300189750556844,-0.00000310759115437383,0.00000154262675915251,-0.0226987557220454
"t5",1.64208202815497,0.106072360349913,-0.477589249421579,-0.178762980052542,1.66990676377152,2.07241470734524,-1.55564205847646,-1.85981625580578,-1.80874621326623,2.23016109875104,-1.60250152928472,-1.71697054304047,3.56430416570448,0.163554279674325,0.0241101817723542,0.0336679431594055,-0.00121517857965007,0.428477037594659,-0.0168468162276614,-0.809859118587397,-0.118926253124102,0.0000356786522158474,0.175647269060535,-0.000441355829975654,0.00247993187416792,0.00179388938127809,-0.000586274205570542,0.00879196197115133,0.239074612890677,-0.238156666364639,-0.00741168154072289,-0.238622845531921,-0.000231667696340208,0.734432861962719,-2.46636674816137,0.0147044938143022,-0.000570850092495505,-0.0000000000000239967240328958,-0.000312958653479355,-0.0239709626876436,0.00068843478014329,-0.516032422287937,-0.000118396337588999,-0.0000753589745212371,-0.00791321684144997,-0.0034429570173795,-0.000162876314954852,-0.000300079668051025,-0.000159738637949689,0.0223314951765086,0.0253367350764834,0.0000365665403320394,0.0007642294870969,-0.0000294034507181249,0.0000424114544261669,-0.00312793178489548,-0.0000410242504307085,0.0000267341760385214,0.00154507039315636,0.00000647539610116641,-0.00410404682727717,0.000011158976638102
"t50",1.52082834826626,1.63633636962557,1.1017711195092,-3.02858283264295,5.20754387167975,2.498170406862,0.472874586364439,0.804358714805732,-0.0212026828957018,-0.181604969965602,0.825641205432772,1.04136729061969,-2.0054502881879,-3.46539431338422,0.0492439010194328,1.11506607135505,2.40257265757768,-0.0293634992805951,-0.00035960523677969,-0.00790434166554995,-0.00311352517146136,-0.00323648810533854,-0.00178078217767432,0.0514963559024918,-0.0487645495359155,-0.000862687282507101,0.00016483807321315,-0.000292668121434277,-0.0014913671951667,0.00261848130204734,-0.0269345919745922,0.000135127215050702,0.00183625588798234,-0.00319921396738951,-0.000147642255322314,0.113465499793189,0.000807516903898967,-0.00000000000000757080813170334,0.000126023139817508,0.000000524748319339657,-0.000000195428904225668,0.0000119145933199573,0.000310145109668416,1.04448004492236,-0.0000953488918183209,-0.0000116682737202738,-0.000181936431959699,-0.0127351525443383,-0.000098368899460923,0.0000427937999116272,0.0000115672290884849,0.00152484151606125,0.000018452016390852,-0.0000226105554450291,0.0000334599661398857,-0.0000218649303270226,-0.436477116417325,-0.0011600432848264,-0.00000300189750104475,-0.00000310759115717868,0.00000154262675244629,-0.0226987557220304
"t51",2.23554344756556,0.22746297027358,1.49287603120761,1.03357123655611,-0.708615386429238,-0.292161699792838,-0.917813432831134,-1.31674207409969,-0.589795330789529,-0.905509538446193,0.826203514798171,-0.31208030833709,-2.20815220511742,2.86995323062484,-2.68644781425002,0.0657779451942279,-0.00383998368967283,-0.0220656800554685,-0.0011325564331848,-0.00456067091884786,0.00267133261474983,2.25078688876527,-0.00649435599860869,0.00662190976943173,-0.0228652382166271,-1.04151217286736,0.510112360150302,0.102636626999331,-0.00198647622308988,0.00012847165421683,-0.00111297565432669,0.000249683205331138,0.0105690827070404,-0.000903775864166338,-0.0000140423102522133,0.000926458456506016,-0.000367316340828417,-0.000000000000000330721791809839,-0.0000645604032695123,-0.0000053012360934163,0.0251598186349471,-0.000052405982122496,-0.000465179891003925,-0.0000382836117613868,-0.0000274792962859971,-0.0000044230208035642,-0.000623697693804894,-0.000153506077735001,-0.000612617205722717,0.0000339521062548716,0.00000911987859887019,0.0000244870959161587,0.0000144487683207977,-0.000129736937284416,0.00305666581424456,-0.00000649787394341015,-0.000024435757063437,0.0000159438285302293,0.00000337988061183377,0.0000286728843800279,-0.00000228947161299529,0.00000673288173821083
"t52",3.69456089058044,3.22863681057317,3.1192690471799,2.16872965666624,-1.20449711551968,-1.51411734455704,1.35252900425429,1.80055771362932,1.02831878877397,1.22034408934331,-0.40655323083845,-0.507710542406687,3.6152235835995,0.166415532590658,0.0257504319994276,0.0384613390339795,-0.00266449864943085,0.000275164685123855,-0.00489867385049925,-0.234459895875776,0.303242262812722,0.00039161851588413,1.52951967610471,0.00317770923608683,-0.00774784563257719,-0.0000946058582603375,-0.000887189390068376,0.0568194687411839,1.77745253546101,1.26413318697965,0.0139812890980377,0.171629447858227,-0.00160491036268326,-0.0592926377269093,0.123736592642648,-0.000581463905032911,0.000019108378215029,0.00000000000000284720216405492,-0.0000257872258384705,-0.00698870105141741,0.000108802681297559,-0.0179264456826912,-0.0000406190885812925,-0.0000255845518436241,-0.00269777627539821,-0.00279765475730434,-0.0000565864169099977,-0.000107962271671258,-0.0000589166300294458,0.0313533801702772,0.00192101988354071,0.000014960955580473,0.000291692210928503,-0.0000113606176599955,0.0000164980073923987,-0.002811211131078,-0.0000171149151439375,0.0000113402831090579,0.00141065977269307,0.00000271768298718875,-0.000442116647513221,0.00000481244399913952
"t53",3.23678629833515,2.44661696295393,3.65162034466239,0.0637023840556694,1.60706284468321,0.914129553850132,-0.618998982655266,-0.900460161942163,-0.710549549760475,0.0476771410071039,-0.228800203329912,0.0651181387843104,3.6152235835995,0.166415532590658,0.0257504319994275,0.0384613390339793,-0.00266449864942988,0.000275164685123832,-0.00489867385049961,-0.234459895875775,0.303242262812722,0.000391618515883369,1.52951967610471,0.00317770923608637,-0.00774784563257958,-0.0000946058582592935,-0.000887189390069328,0.056819468741184,1.77745253546101,1.26413318697965,0.0139812890980387,0.171629447858228,-0.00160491036268442,-0.0592926377269108,0.123736592642649,-0.000581463905032352,0.0000191083782148206,0.00000000000000239674720498486,-0.0000257872258430928,-0.00698870105141665,0.000108802681297654,-0.0179264456826909,-0.0000406190885821677,-0.0000255845518419328,-0.00269777627539774,-0.00279765475730562,-0.0000565864169111614,-0.000107962271671874,-0.0000589166300270086,0.0313533801702773,0.00192101988353973,0.0000149609555806298,0.000291692210927279,-0.00001136061765964,0.0000164980073918487,-0.00281121113107887,-0.0000171149151453766,0.0000113402831054944,0.00141065977269342,0.00000271768299012207,-0.000442116647513339,0.00000481244399490766
"t54",8.78460472058332,9.23109518866855,6.12133637752451,-0.0353750036956567,2.17939251899159,2.7655024607097,-0.130600086122151,-0.040784199915669,-0.453401334890744,0.187976546982326,-0.764669127518435,-0.247317842269455,3.88204192272297,0.181487453778213,0.0348618486291912,0.0656196553779843,-0.0101451567239883,-1.65885549698349,0.0129233013232401,0.61352947517784,-0.236536020468341,-0.000180895142923766,-0.384021647734176,-0.000244468922430171,0.0001545292297374,-0.000328104981189382,0.000133396032524763,-0.00287163467298888,-0.0826931638295259,0.0210681536975062,0.00113129656429262,0.545302173647045,-0.0089489915343516,0.0164909339540267,-0.0248444861201129,0.000103547562363632,-0.00000316713263891168,-0.000000000000000881769342933843,-0.00000989327351094165,-0.462097810169241,-0.000000970522119620694,-0.000454825088370049,-0.00000525039402048581,-0.00000444172570018874,-0.00144262345128622,-0.496972473970486,0.0000213330411005897,0.000012245518961891,0.00000434966886107543,-0.00026199934499828,0.0000498338738469497,0.000000408008579490099,0.0000171119320270495,-0.000000765021463977023,0.00000119937839898451,-0.0299990985239162,-0.00000185550773228765,0.00000480830084434952,0.128258624338041,-0.00000463126142560997,0.000248244383960061,-0.000000602004027800138
"t55",8.22358915908929,7.85400751837791,6.02759370370085,0.209889879858251,1.75937892648552,2.85888424720478,0.785411027691841,0.352368995370556,0.611678193595933,-1.14888298751075,1.15245211171461,1.58725330850278,3.88204192272297,0.181487453778213,0.0348618486291911,0.0656196553779829,-0.0101451567239885,-1.65885549698349,0.0129233013232406,0.61352947517784,-0.23653602046834,-0.000180895142924869,-0.384021647734175,-0.0002444689224308,0.000154529229738084,-0.000328104981189421,0.000133396032524528,-0.0028716346729896,-0.0826931638295267,0.0210681536975064,0.0011312965642915,0.545302173647046,-0.00894899153435402,0.016490933954026,-0.0248444861201132,0.000103547562363691,-0.00000316713263982322,-0.00000000000000093392971813248,-0.00000989327351231963,-0.462097810169243,-0.000000970522117901236,-0.000454825088369848,-0.00000525039402053645,-0.00000444172570088451,-0.00144262345128561,-0.496972473970484,0.0000213330411002081,0.0000122455189606228,0.00000434966886065698,-0.000261999344996392,0.0000498338738457323,0.000000408008581385353,0.0000171119320270235,-0.000000765021464418707,0.00000119937839982025,-0.0299990985239135,-0.00000185550772948253,0.00000480830083970667,0.128258624338042,-0.00000463126142554392,0.000248244383960295,-0.000000602004030422133
"t56",-0.280309571887406,0.0998425138968504,1.69724440380447,-0.244049013191326,0.713767901201712,-1.06790093532507,-0.611009403885991,-0.448228507072126,-0.149977771261088,-0.256642262835382,0.516121903890104,-0.798476957117197,-1.80103155590372,-3.0196745141219,0.00937866929537482,-3.41492033590108,-0.200877875041429,-0.0580359097263938,-0.000766865193563469,-0.0168619556415092,-0.00737549501750179,-0.00862924275437371,-0.00604383026327363,0.134109949741686,-0.805771898749029,0.00552897745152075,-0.000464356364736799,0.000494431185301755,0.00244593100488768,-0.0023240704893077,-0.00224331838569751,0.0000148787931395392,0.000218710203576844,-0.000545793486357413,-0.0000150380295603509,0.00673337926118653,0.0000230240821216513,-0.0000000000000140481040424383,-0.782706510636856,0.0000194880563730706,0.0000058906200367496,-0.00000718802112213929,-0.0000143210696489707,-0.000103632470848309,-0.00000738873120624781,-0.0000012342005080306,-0.0000245203946321615,-0.000517832194455107,-0.000024901642098317,0.0000115911074458652,0.00000339443394308339,0.0000984209097879263,0.00000565586493939697,-0.00000680409990291614,0.0000099110281286384,-0.00000278303793647027,-0.000110467318905205,0.000069445700983371,0.00000133429719667925,0.00000151445169452197,-0.000000867316471880285,0.0000217842501620122
"t57",-1.61143270839462,-1.28204753757514,0.0409466937275818,1.58501199400949,-1.16488646315051,-2.82884070736053,0.010554763615124,0.0438853576919072,0.0435023436219969,-0.250811067699499,-0.199189193976195,0.363191748475082,-1.80103155590374,-3.01967451412191,0.00937866929537531,-3.41492033590109,-0.200877875041425,-0.0580359097263966,-0.000766865193568554,-0.0168619556415035,-0.00737549501751018,-0.00862924275435938,-0.00604383026328237,0.134109949741686,-0.805771898749036,0.00552897745152546,-0.000464356364740142,0.000494431185306345,0.00244593100490132,-0.00232407048931156,-0.00224331838569342,0.0000148787931386578,0.0002187102035621,-0.000545793486351063,-0.0000150380295604453,0.00673337926116761,0.0000230240821255542,-0.00000000000000436053095335462,-0.782706510636822,0.0000194880563775197,0.00000589062003370109,-0.00000718802112608229,-0.0000143210696421301,-0.000103632470804865,-0.0000073887312056578,-0.00000123420051108724,-0.0000245203946220552,-0.000517832194468847,-0.0000249016420842837,0.0000115911074404636,0.00000339443393684033,0.0000984209097553929,0.00000565586494239177,-0.00000680409989535039,0.00000991102812653141,-0.00000278303793816286,-0.000110467318910326,0.0000694457010032791,0.00000133429720560456,0.00000151445167291682,-0.0000008673164579362,0.0000217842501531609
"t58",2.59694372917526,4.44248034827093,1.86176375786365,-0.584078706645883,-0.137079203728169,-0.0704559312671609,-0.393402950470634,-0.495259445674718,-1.29454479575092,-0.19434046267855,0.233729942066056,-0.924838975572677,-2.06241766023711,-3.58702939429754,0.0569217776668361,1.5550732452627,-1.70764871875457,-0.0133847018101637,-0.000246236888605116,-0.00542052595935633,-0.00269860913316762,-0.003221798188513,-0.00234093430752729,1.01126694609712,0.097855897151653,0.0000437775248192307,0.0000258776846583944,-0.0000733599336295536,-0.000380459464156622,0.000847737495941041,-0.0101521216320817,0.0000577039484926843,0.000781016451879111,-0.00101193660013186,-0.000037928369816759,0.0259912386338982,0.000170315279534353,-0.0000000000000038339170909785,-0.000251274412985196,-0.00000176668162664347,0.0000860264537720182,-0.0000325513373650231,-0.0000441971398508649,-0.00150955121534942,-0.0000245584910180209,-0.00000450404858252325,-0.000111952336587526,-0.0684391199894813,0.0000912687310270061,0.0000108940185315592,0.0000829444046044819,0.287124584512775,-0.00000204368931332766,0.00000107138246902072,-0.000000758956537612246,-0.000000384696175683369,-0.0000281261191028073,-0.000806201156533861,-0.000000496204742237278,-0.000000671531356079244,0.000000520550725860761,-0.000164670482976385
"t59",3.51903996947261,5.27199272141905,3.27349944033285,0.307090575873302,-0.717214718727127,-0.441940324812173,-0.966722191101088,-0.782403675614928,-1.30780399092524,-0.581822572464215,-0.373887428732521,-0.331239601772148,-2.06241766023711,-3.58702939429754,0.0569217776668366,1.55507324526269,-1.70764871875458,-0.0133847018101636,-0.000246236888605355,-0.00542052595935614,-0.00269860913316741,-0.00322179818851429,-0.00234093430752721,1.01126694609712,0.0978558971516513,0.0000437775248236367,0.0000258776846628075,-0.000073359933629136,-0.000380459464156713,0.000847737495937439,-0.0101521216320819,0.000057703948491712,0.000781016451876295,-0.00101193660013037,-0.0000379283698158548,0.025991238633899,0.000170315279530957,-0.00000000000000317258484173092,-0.000251274412984464,-0.00000176668162761718,0.0000860264537772983,-0.0000325513373647219,-0.0000441971398516783,-0.00150955121534928,-0.0000245584910218409,-0.00000450404858580143,-0.000111952336586711,-0.0684391199894791,0.000091268731027924,0.0000108940185316845,0.0000829444046053552,0.287124584512775,-0.00000204368931080062,0.00000107138247406084,-0.000000758956541508764,-0.000000384696173589959,-0.0000281261190935599,-0.000806201156539316,-0.000000496204743403251,-0.000000671531355937987,0.000000520550727045028,-0.000164670482984615
"t6",1.83848429413763,0.237456363105693,0.891866841276301,-1.53874476831882,2.1428356896949,3.00344522098669,0.428538855180096,0.928016354031325,0.55470070738261,0.2388491848372,-1.15710593650425,-0.772437910352907,3.16653735615017,0.141141339934619,0.0110193532626448,-0.00392488849815804,0.0077682524303688,1.80127347393253,0.0284942593003755,1.42146022084228,-0.431917161675381,-0.00366386028466131,-0.0398555670134524,-0.000116176442073288,0.00179195105603644,0.00167371018063071,-0.000477035322639219,0.00395243284340181,0.0938174246087478,-0.171944814456659,0.000979791977795836,-0.0366130929248559,-0.0194735099908566,2.47311772068051,0.78153450772916,0.0570738986043968,-0.00207009168206616,-0.00000000000000384922618279236,-0.0008914405538585,-0.00269606186478663,0.00137762204261192,-0.01475579336688,-0.000402913853156997,-0.000245033730193871,-0.00540945429074668,-0.000846827082123043,-0.000483741745754269,-0.000859850582752138,-0.000450092010510524,0.0056329856958188,0.00140963825385853,0.000121240592694556,0.0207771507801459,-0.0000781497482449276,0.000112861154106455,-0.000859770008772552,-0.000106578850901309,0.0000688086568566443,0.000431356004714888,0.0000166696903333921,-0.000291375065747573,0.0000287646666771429
"t60",3.01518400248024,1.50501532479438,2.69853624772881,-0.0303693021242082,1.31463835805281,-1.68431823890587,1.94300523808389,1.7582787224017,1.4633560118773,-0.0121571815250056,0.613118060292177,1.43013041353791,-2.38960802763967,3.17794352353053,2.38128571001384,0.0444545691472075,-0.00361525108761292,-0.025013038947119,-2.03565301683242,0.0344609316573703,-0.00283954143429338,-0.0229417029051658,-0.00147025957926027,0.00175580673483766,-0.00544356154513056,-0.0106176014516434,0.00163805108479885,-0.00223887108156876,-0.00172413058868219,0.00276290385124325,-0.00330220742496541,0.00238903714613052,0.144682591725917,0.000255971777972625,0.000000434944879483293,0.0000544513957235895,-0.00473588222534069,0.00000000000000101497435497025,-0.0000303620095099896,-0.00000262323993283496,0.00105929358822287,-0.0000543359633585683,-0.00959232716817641,-0.0000504677082393484,-0.0000480618765714836,-0.00000930103048562547,-0.0236754649069168,-0.000928552485890266,-0.418354280505081,-0.0000440976512035766,-0.00000240614957571576,-0.00000600074687326626,0.000000743476004017806,-0.000179905641939167,0.0000217875338945186,-0.00000181843649090798,-0.00000748698245200628,0.00000529901078540937,0.00000115884187545547,0.00013617994505086,-0.000000792855032173271,0.00000240786959979356
"t61",3.5603305000881,2.98491581844205,2.23226520695132,2.45819426634293,-1.10305687566786,-0.742446605402087,-0.58703219393862,0.163575775890595,0.184261174531949,0.250806033375076,0.30773235772276,-0.0491368179645866,3.84796147479909,0.179565288183536,0.0337221277667314,0.0622793338701813,-0.00925817080436911,-1.46803978442875,0.010963580345636,0.520318273526999,-0.183345237649368,-0.000130248537269929,-0.247293965057885,-0.000130502461650108,0.0000766389071155131,-0.000128941880676559,0.0000435559769092715,-0.000771877093057698,-0.0219299831796043,0.00405726645627733,0.000108415399058604,-0.262544579776761,0.00446524370034433,-0.0166221914308242,0.0289308592561079,-0.000127042569418456,0.00000400581266610417,0.00000000000000104007910908975,0.0000262856294961906,1.34503418175277,0.0000453790709952829,-0.0072162223523855,-0.0000170963837392933,-0.0000112083975918622,-0.00160750195040775,-0.224220548610203,-0.0000103607573137146,-0.0000322671648250182,-0.0000185447620419564,0.00660125789199647,0.000791887645682761,0.00000618765891992363,0.000138602740754306,-0.00000572779513130962,0.00000866691742765511,-0.453600625767222,0.0000110640542514005,-0.00000188378219674213,-0.0061955556073969,0.0000000703527324701246,0.00000269777327544554,0.000000135127570038168
"t62",3.9829679406535,3.19036987332111,3.08450296239023,1.27529376333576,0.122797762693238,0.0786809595390059,0.846538975415359,1.07742469262692,0.0476798580127097,-0.980236954800818,1.18879469135927,1.20863027475167,3.84796147479909,0.179565288183536,0.0337221277667314,0.0622793338701825,-0.00925817080436909,-1.46803978442875,0.0109635803456355,0.520318273526999,-0.183345237649369,-0.000130248537270651,-0.247293965057884,-0.000130502461651012,0.0000766389071168533,-0.000128941880677221,0.0000435559769078041,-0.000771877093057711,-0.0219299831796024,0.00405726645627697,0.000108415399059293,-0.26254457977676,0.00446524370034081,-0.0166221914308229,0.0289308592561087,-0.000127042569420733,0.00000400581266784265,0.000000000000000748793220756151,0.000026285629499557,1.34503418175277,0.0000453790709958439,-0.00721622235238535,-0.0000170963837373627,-0.0000112083975917891,-0.00160750195040945,-0.224220548610204,-0.0000103607573161282,-0.0000322671648302243,-0.0000185447620413954,0.00660125789199822,0.000791887645682425,0.00000618765891866988,0.000138602740753419,-0.00000572779513131262,0.00000866691742878261,-0.453600625767224,0.0000110640542449438,-0.00000188378220122577,-0.00619555560739873,0.0000000703527348546976,0.00000269777327616147,0.000000135127566092406
"t63",3.39268637299941,5.44562341420316,3.49157142620518,0.204673395585449,-0.066082287446808,0.19982034764052,-0.449607866160261,-0.964910224900745,0.141524989446041,0.280403531847898,0.0433297984308015,-0.836937942848576,-2.06380069409168,-3.58992953959993,0.0570627635896126,1.56103333229176,-1.71875103400391,-0.0134981305939504,-0.000248954239517854,-0.00548045050198168,-0.00274171030048815,-0.00328471736494291,-0.00239765678055026,1.0422466293791,0.101058951883227,0.0000454491275958143,0.0000269520799293503,-0.0000766099347220093,-0.000397379361027373,0.000888282508950036,-0.0106807349720417,0.0000619086287593976,0.000838339117815978,-0.00109972339443497,-0.0000413490310761608,0.0283690040205645,0.000186026989874132,-0.00000000000000227942143543031,-0.000279614856578195,-0.00000197051972035671,0.0000995200222980973,-0.000038186968994268,-0.0000535742949644595,-0.00184200231098284,-0.0000304301898510981,-0.00000562449344097657,-0.000141302140911072,-0.0881570263244443,0.000118895794037974,0.0000148090724964968,0.000121642841268379,0.422729819586244,-0.00000342473658247684,0.00000188462201517484,-0.00000137861807779848,-0.00000163719535313591,-0.000372540601871367,0.00411856210228039,0.00000141768538111898,0.00000172319832486029,-0.00000111473413670179,0.000214621031156339
"t64",5.57835066951625,3.75067209525673,3.65222947833288,2.20979120474699,0.0373212442275025,1.18025411152585,-0.940633546562259,-1.44128511616109,-0.951731738155382,0.348105433887046,-0.546761851170783,-1.03544151532265,3.63318568846451,0.167415647802175,0.0262439638745675,0.0396417050672395,-0.00281354375758364,0.000296413861599671,-0.00543285916320432,-0.260089124830898,0.36066758477916,0.000498076065616817,2.20538539916866,0.00634969303822803,-0.0190138930175775,-0.00643628675118903,0.00186635000223258,-0.0424532362572324,-1.25127959764846,-0.210640170910824,0.0019627600534926,0.0988902270293566,-0.000932494912538602,-0.0400222082952923,0.085799964016688,-0.00040700314480371,0.0000134476167531434,0.00000000000000136753273239367,-0.0000203488131840883,-0.0055805802910357,0.000102444336028299,-0.0179695936371616,-0.0000481479061430154,-0.0000315586319579598,-0.00369081734365738,-0.00406510459629786,-0.0000903098329359155,-0.00021697484093761,-0.000140835840536148,0.650562863330033,-0.00164617680663852,-0.0000118104893203758,-0.00000142564929647964,-0.000000945883056315558,0.0000020661101487438,-0.00104719972783066,-0.00000698794002513494,0.00000500639045361374,0.000639147539586187,0.00000123809251148086,-0.000203350534856308,0.00000227521544754615
"t65",6.00873102423599,3.87037274074801,3.27097741026286,3.0001138357792,-0.428897959777202,0.301474321500374,-0.959122774518054,-1.73202951948996,-1.13742191594374,1.0140879022904,-1.44555912974774,-0.617941003513145,3.63318568846451,0.167415647802175,0.0262439638745679,0.0396417050672381,-0.00281354375758362,0.000296413861599297,-0.00543285916320458,-0.260089124830898,0.36066758477916,0.000498076065616497,2.20538539916866,0.00634969303822899,-0.019013893017578,-0.00643628675118823,0.00186635000223095,-0.0424532362572322,-1.25127959764846,-0.210640170910825,0.0019627600534922,0.0988902270293563,-0.000932494912540099,-0.0400222082952921,0.0857999640166882,-0.000407003144802922,0.0000134476167545619,0.000000000000000358637409561556,-0.0000203488131872628,-0.00558058029103508,0.000102444336027556,-0.0179695936371611,-0.0000481479061418611,-0.000031558631958915,-0.00369081734365703,-0.0040651045962983,-0.0000903098329387649,-0.000216974840939544,-0.00014083584053217,0.650562863330032,-0.00164617680663794,-0.00001181048931914,-0.00000142564929619738,-0.000000945883057025877,0.00000206611014903071,-0.00104719972783143,-0.00000698794002288484,0.00000500639045052636,0.00063914753958662,0.0000012380925102127,-0.000203350534857556,0.00000227521544602014
"t66",3.99958139421895,2.46145576986001,3.304219509247,-2.09955238131206,3.74414927773169,0.680465064064632,0.481439623541377,0.186250079989288,0.826080609786536,1.49220415642915,-0.930795305267075,-1.27488689509238,-2.38971999253578,3.17812297664361,2.38169560256188,0.0444663624103842,-0.00361686528655982,-0.0250275127173848,-2.03717557034857,0.0344867508076628,-0.00284257207703693,-0.0229713433038219,-0.00147258575267249,0.00175925778362457,-0.00545492892325289,-0.0106430919923349,0.00164228962743828,-0.00224500789492795,-0.00172887253191184,0.0027710053383141,-0.00331263513309175,0.00239906492921466,0.14529351316899,0.000257209660758536,0.000000437114309154666,0.0000547260732673594,-0.00475993027201353,0.000000000000000387983490388249,-0.0000305420619101776,-0.00000263906452122558,0.00106726786422719,-0.0000547734187931755,-0.0096804250904505,-0.0000509420765227068,-0.0000485367418489948,-0.00000939511501933665,-0.0239223845724021,-0.000938767158007144,-0.423082756125621,-0.0000446427418920107,-0.00000243977054949089,-0.00000608504324821945,0.00000075550301476117,-0.000182933438417904,0.0000221628797513148,-0.00000185948064060707,-0.00000767019800123622,0.00000544193466822915,0.00000119140803431552,0.000140042917828805,-0.000000815732164297925,0.00000248122364511831
"t67",4.00449657464212,3.01150514741796,4.07964202375797,-2.30700143088253,3.59515174829621,1.35608448523385,0.38972070113273,0.846407513390846,0.1665170403223,1.24255093365458,-1.90050063497929,-1.22747744879058,-2.38971999253578,3.17812297664361,2.38169560256188,0.0444663624103836,-0.00361686528656165,-0.0250275127173849,-2.03717557034857,0.0344867508076633,-0.0028425720770368,-0.0229713433038219,-0.00147258575267243,0.0017592577836252,-0.00545492892325177,-0.0106430919923339,0.00164228962743711,-0.00224500789492774,-0.00172887253191108,0.00277100533831426,-0.00331263513309217,0.0023990649292164,0.14529351316899,0.000257209660758124,0.000000437114311025273,0.0000547260732664107,-0.00475993027201307,0.000000000000000270924347737188,-0.0000305420619082502,-0.0000026390645204482,0.00106726786422811,-0.000054773418793236,-0.00968042509045058,-0.0000509420765241463,-0.0000485367418496835,-0.00000939511501994855,-0.0239223845724015,-0.000938767158007347,-0.423082756125626,-0.0000446427418925715,-0.00000243977054883761,-0.00000608504324451473,0.000000755503013706393,-0.000182933438419085,0.000022162879752448,-0.00000185948064217832,-0.00000767019799839041,0.0000054419346721953,0.00000119140803181397,0.000140042917827155,-0.000000815732161085479,0.00000248122364501696
"t68",-0.998696449624488,-0.912840674232995,0.748916780870684,-0.165387392833613,0.87528062685548,0.148267063755717,0.775596928056347,-0.0798982522193882,0.345149414039519,-0.199524032797606,0.15658312707298,0.576260620246472,-1.80120029258023,-3.02001557226845,0.00938190997862547,-3.41674425851722,-0.201059486299763,-0.0581041945951011,-0.000768037776423952,-0.0168877839770282,-0.00739175381502742,-0.00865243825634933,-0.00606391429177942,0.134670644807784,-0.809365719182636,0.00555762716690248,-0.000466966173671476,0.000497390266676178,0.00246062384071797,-0.00233904763249171,-0.00225900880955393,0.0000150222857518105,0.000220833982576108,-0.000552000353663919,-0.0000152154028913378,0.0068138697514243,0.0000233014753185856,-0.00000000000000538132788661473,-0.794078926272469,0.000019777226058837,0.00000600634970825372,-0.0000073423443728882,-0.000014689206566842,-0.000106384793168463,-0.00000759947938090985,-0.0000012706281875242,-0.0000252774105463691,-0.00053515278243103,-0.0000257698782707516,0.0000120568680735697,0.00000356237408578893,0.000103336663468174,0.00000602482879891142,-0.00000728572276702329,0.0000106484252491334,-0.00000320741876131236,-0.000133314999301736,0.0000930871501698179,0.00000194344302364519,0.00000226256749254664,-0.0000013697901316307,0.0000487233641349885
"t69",-1.18677590046823,-1.2146275907205,1.17459562790312,0.605436020346787,0.445686607658572,-0.541607590049542,-0.608641476093616,-0.223423515552122,-1.44144575400353,-0.183206371266123,0.0906311936234732,-0.255470721150624,-1.80120029258024,-3.02001557226846,0.00938190997862583,-3.41674425851717,-0.201059486299766,-0.0581041945951042,-0.00076803777642469,-0.0168877839770237,-0.00739175381503241,-0.00865243825634603,-0.00606391429177024,0.134670644807791,-0.80936571918262,0.00555762716690217,-0.000466966173665668,0.000497390266674452,0.00246062384073374,-0.00233904763250395,-0.0022590088095251,0.0000150222857642275,0.000220833982569595,-0.000552000353649148,-0.0000152154028981381,0.00681386975139644,0.0000233014753121694,-0.00000000000000464477498561497,-0.794078926272388,0.0000197772260584659,0.00000600634967523565,-0.00000734234435993254,-0.0000146892065652352,-0.000106384793057063,-0.00000759947939500972,-0.00000127062818599753,-0.000025277410540276,-0.000535152782486135,-0.0000257698782953276,0.0000120568680876508,0.00000356237407695537,0.000103336663461282,0.00000602482879725022,-0.00000728572275872141,0.0000106484252406948,-0.00000320741874562381,-0.000133314999310324,0.0000930871501884507,0.00000194344303521235,0.00000226256750081652,-0.00000136979012476378,0.0000487233639783959
"t7",3.74706287730404,5.08191735555653,4.83628032684679,1.68177566564822,1.07663185053807,0.839393818770571,0.339648368970484,0.629661003746938,1.3471851391565,0.912987499892063,0.0309066799150522,-1.11536800144159,-1.938308715563,-3.32533247111918,0.0430501591742129,0.895213267396781,1.57782657190883,-0.0159635932740206,-0.000140244900869249,-0.00307312404808373,-0.000216741201424717,0.000594014245203445,0.0009813964219334,-0.0578512872957245,0.0649490927912167,0.00166616569511432,-0.000386603683764191,0.000796990842781502,0.00409725990301949,-0.00850953385274353,0.106847723685456,-0.00130795650684854,-0.0181790232476064,0.0578096136430521,0.00316736709325186,-2.60410326256454,-0.0193042961807498,0.000000000000195519783972548,-0.014638432229438,-0.0000887549876464693,0.00156441190093262,-0.000489758127072283,-0.000509932594480642,-0.217493881813479,-0.00016612888296559,-0.0000271131081286523,-0.000523255333835624,-0.0442823193580639,-0.000360486875534441,0.000169283035647894,0.0000452795230221651,0.00595574975884331,0.0000652125266920206,-0.0000765246139673894,0.000109964574148467,-0.0000287615238083974,-0.03879140134501,0.00295399815506666,0.0000131928303081256,0.0000152135436524665,-0.0000090176792995614,0.00991884001690637
"t70",3.88471342262343,2.40558107316346,3.96199089801209,0.35555909046097,-0.999443335685481,-2.4802863838563,-0.253803936887807,-0.0313794411302202,-0.251610015621161,1.96401493815217,-1.51565207091363,-1.46443923469961,-2.26341676720795,2.95739044194198,-2.97064826309045,0.0778760278101121,-0.00543303810866821,-0.0379709294385067,-0.00304493234130224,-0.012323528293267,-0.00775627131048612,-1.29706270240219,-0.000127723366472904,0.00235376662979164,-0.0102660680647841,-0.917487260685565,-0.88813242745609,0.360070651300408,-0.0111103820306366,-0.0000338092978547503,-0.000125957544283455,0.000117849315595285,0.00504069703178367,-0.000537120219694708,-0.00000877435879644137,0.000589829758647053,-0.000236451193220123,-0.000000000000000363287372284509,-0.000057002814580574,-0.00000490395821286679,0.362272377394315,0.0000900205993552661,0.0000816062322548911,0.00000365601819398221,-0.00000095880196111669,-0.000000369945238645374,-0.0000868293329005745,-0.0000342054267482981,-0.00016020235757184,0.0000131240359546363,0.00000559785805351801,0.0000153725260764802,0.0000247283785358061,-0.000544288559601823,0.388559718874158,0.000000542491296571539,-0.000000269283057855233,0.00000134550773243782,0.000000365073074218246,0.00000323921161790738,-0.000000278487082293316,0.000000987401251474491
"t71",3.2977422819677,1.50565120532855,2.82595125653871,-0.0502262747668338,-0.724410123185912,-2.59054146786414,0.00585009028833729,0.165860799933089,0.286888487180404,0.944397050365933,-1.82643976758602,-1.34705097912299,-2.26341676720795,2.95739044194197,-2.97064826309046,0.0778760278101125,-0.00543303810866907,-0.0379709294385063,-0.00304493234130233,-0.0123235282932667,-0.00775627131048545,-1.29706270240219,-0.000127723366472321,0.00235376662979299,-0.0102660680647849,-0.917487260685566,-0.888132427456088,0.360070651300408,-0.0111103820306373,-0.0000338092978540736,-0.000125957544282888,0.000117849315595336,0.00504069703178479,-0.000537120219694822,-0.000008774358796764,0.000589829758646463,-0.00023645119322033,-0.00000000000000022106397266507,-0.0000570028145782541,-0.0000049039582138233,0.362272377394315,0.000090020599355174,0.0000816062322553249,0.00000365601818972731,-0.000000958801961006808,-0.000000369945238027332,-0.0000868293329013054,-0.000034205426748573,-0.000160202357571603,0.0000131240359560114,0.00000559785805432495,0.0000153725260776863,0.0000247283785349735,-0.000544288559602486,0.388559718874157,0.000000542491296826274,-0.000000269283059947568,0.00000134550773365577,0.000000365073071013404,0.00000323921161902864,-0.00000027848708267204,0.000000987401256285273
"t72",2.14677171905978,-0.240266275809622,0.950965797736492,1.29845509148405,-0.441480057474048,-0.567017611336255,-0.515080313491312,-0.916881597300899,-1.36499674048812,-0.714374169665903,0.346919267527516,0.855142606258703,-2.20847848000598,2.8704643144976,-2.68790665252053,0.0658330126701149,-0.00384539736868356,-0.0221060127707773,-0.00113523365771289,-0.00457147036671827,0.00268035262721264,2.25999335066218,-0.00652691577561571,0.0066632031373493,-0.0230167840088898,-1.0494561312565,0.514308321721279,0.1035313810646,-0.00200385302496896,0.000129670481758024,-0.00112416825452044,0.000253031823304021,0.0107116878757147,-0.000917769328305852,-0.0000142666655152354,0.000941431357148057,-0.000373292622522906,-0.000000000000000256263803089485,-0.0000657904698927565,-0.00000540401584948377,0.0257714657766701,-0.0000537708057439898,-0.000479050620239656,-0.0000394527175543691,-0.0000283627624777758,-0.00000456871817163121,-0.000644901746524634,-0.000159020967463083,-0.000635252483273659,0.0000353288017087839,0.0000095401076808035,0.0000256217324892043,0.000015225165474184,-0.000137005467570693,0.00323219330302435,-0.00000699557221662977,-0.000026478054662907,0.0000174251444436849,0.00000370833514970252,0.0000314880683514446,-0.00000251850545087991,0.00000744798476699703
"t73",2.04409639576501,0.557214144136165,1.32186864673486,1.99391742720941,-0.930314416797218,-1.0602571906381,-0.0620113694716388,-0.777397885054132,0.484027603236853,0.41708611639811,-0.465142975156716,-1.55407957764996,-2.20847848000598,2.8704643144976,-2.68790665252053,0.0658330126701143,-0.00384539736868345,-0.0221060127707776,-0.0011352336577129,-0.00457147036671832,0.00268035262721213,2.25999335066218,-0.00652691577561488,0.0066632031373498,-0.0230167840088901,-1.0494561312565,0.514308321721281,0.1035313810646,-0.00200385302497009,0.000129670481757381,-0.00112416825452033,0.000253031823304259,0.0107116878757147,-0.000917769328305731,-0.0000142666655155737,0.000941431357148182,-0.000373292622523049,0.000000000000000252232575609423,-0.0000657904698964587,-0.00000540401584888418,0.0257714657766706,-0.0000537708057440908,-0.00047905062024071,-0.0000394527175555691,-0.000028362762475972,-0.00000456871817230414,-0.000644901746525099,-0.00015902096745976,-0.000635252483272922,0.000035328801707964,0.00000954010768172189,0.000025621732489206,0.0000152251654746103,-0.000137005467570775,0.00323219330302159,-0.00000699557221632617,-0.0000264780546593022,0.0000174251444502141,0.00000370833514993596,0.0000314880683530256,-0.00000251850544941224,0.00000744798475938504
"t74",2.2683762726067,2.42080728602178,2.1114822100167,-0.342007451031708,2.24497445008927,0.59611405960276,0.278103768263296,0.459656845087476,1.11103419848706,0.303389373741979,-0.765311330559433,-0.755878947521825,-2.01365641053867,-3.48250944937044,0.0499989225706498,1.1418122288503,2.50249655576085,-0.0309819030959884,-0.000385987347506395,-0.00848536519414244,-0.00345892349506475,-0.00369019281989649,-0.00210489480718893,0.0641491289265524,-0.0618581537736624,-0.00114994828975184,0.000226921090138686,-0.000414384896935275,-0.00211531893433205,0.0038485011031762,-0.0415230561099779,0.000279757098591545,0.00383698146729505,-0.00884405342181634,-0.000447103686543737,0.356621976403445,0.00259662275526216,-0.0000000000000271451302758585,0.00119123887409173,0.00000673286575691588,0.000000439907839442516,-0.0000170277730769728,-0.000207886533986439,-0.614808025262386,0.0000420834944852396,0.00000446547831373785,0.0000572537033551769,0.00272300655896785,0.0000166851933943009,-0.00000207692464204175,0.000000855427478509834,0.000119640500658599,0.00000332508581239677,-0.00000460855489381783,0.00000725889538735419,-0.00000712009198944439,-0.141816522488286,-0.000220942218189611,0.000000202780526770639,0.000000560298454073591,-0.00000076402793956169,0.15022251936892
"t75",3.98136252886933,7.11081509878132,4.25313837455097,0.549039874352953,-0.371832199126919,0.0509610555876166,0.912910038258388,1.02078704200221,0.75149318821107,-1.64235152033564,1.32521123522812,1.38783834442748,-2.05820911932769,-3.57820171583699,0.0564911012082232,1.53681383050745,-1.67344080381939,-0.0130337321942076,-0.000237782690198379,-0.00523408142303853,-0.00256308805173115,-0.00302244999404037,-0.00215939779850973,0.910745791521305,0.0874158424694308,0.000038264835379985,0.0000223089714472592,-0.0000624997920189617,-0.000323899526689102,0.000711219575522049,-0.0083558784805627,0.0000427585342086168,0.000577030835791826,-0.000690336015538029,-0.0000253027962967876,0.0171901180122666,0.000112062078427542,0.000000000000000753048224826099,-0.000141364635042257,-0.000000971638579692092,0.0000283247681515226,-0.00000755436171087664,0.00000126657339173148,0.000132612437805115,0.00000574861028048293,0.00000141237256372442,0.0000480343616784059,0.0459767128255134,-0.0000748749030678859,-0.0000162847007495841,-0.000279299731973976,-1.00438388864989,0.0000265743202523679,-0.0000270537043845272,0.0000364751323407158,-0.00000679013483939391,-0.00117481510907819,0.00956168890874909,0.00000284781425559575,0.00000333876242059504,-0.00000201403000206578,0.000293063051499508
"t76",3.14475204995814,6.02551116751075,3.78735631485682,-0.743714425219344,0.692837239859328,0.814376082380495,-1.42538870275319,-1.36054758342826,-0.81943749190101,-0.66728927736542,0.983031944344456,0.732004321443506,-2.05820911932769,-3.57820171583699,0.0564911012082232,1.53681383050745,-1.67344080381939,-0.0130337321942077,-0.000237782690198058,-0.00523408142303933,-0.0025630880517332,-0.00302244999404159,-0.00215939779850886,0.910745791521306,0.0874158424694324,0.0000382648353845348,0.0000223089714455257,-0.0000624997920177103,-0.000323899526688251,0.000711219575521942,-0.00835587848056151,0.0000427585342089477,0.000577030835786813,-0.000690336015537695,-0.000025302796295913,0.0171901180122645,0.000112062078429071,0.000000000000000757785085795256,-0.000141364635037146,-0.000000971638579678066,0.0000283247681537796,-0.00000755436171258801,0.00000126657339340413,0.000132612437800087,0.00000574861028136521,0.00000141237256359417,0.0000480343616780932,0.0459767128255161,-0.000074874903066691,-0.0000162847007493315,-0.000279299731975682,-1.00438388864989,0.0000265743202523425,-0.0000270537043849864,0.0000364751323411016,-0.00000679013483879942,-0.00117481510906864,0.00956168890874285,0.00000284781425204304,0.0000033387624205151,-0.00000201403000193074,0.000293063051483499
"t77",3.02108812012535,2.92024665913787,2.3944670115365,-3.20244033006381,3.22908960828623,1.31606330412342,-1.45756513906226,-1.23128484536742,-1.17216638972018,-0.62818561434246,0.379052155546558,-0.407655484895614,-2.39314827184564,3.18357142760273,2.39250382638265,0.0447188130974876,-0.00361933060764101,-0.0244297788742558,1.59804689711262,-0.040272196618922,-0.00323275831818762,-0.0261715334836893,-0.00170930624330045,0.00211876447096721,-0.00666380346745562,-0.0135595572935316,0.00215536456849412,-0.00302855463990338,-0.00233641050898579,0.00388679600330701,-0.00490652210299955,0.00599436148111123,0.372186986359747,0.0032379399911517,0.00006945675015192,-0.00949656894657457,1.08990444175904,-0.0000000000000327417558147562,-0.00000354674295550238,-0.000000439738022890379,0.000687482175795172,-0.0000432834311243586,-0.207675144566049,0.0000336679155468085,-0.0000246404830588587,-0.0000083843014243403,-0.18465831271471,0.000152800225718948,0.00462115373704587,0.00000163094712156545,0.00000379791745126182,0.0000106356393614798,0.0000293295198902332,-0.46581898239635,-0.00056101818313621,-0.000000589560577225455,-0.00000629165132942377,0.0000132561478155515,0.0000144719479339456,0.377281975342129,0.00000512378934786793,-0.00000305743953793636
"t78",2.76811244215516,3.21431153830727,1.46960320157318,-3.75299826532171,3.8462824815173,1.93128622495048,-0.350799466100421,-0.175008767231098,-0.378121034457109,-0.21608358905009,0.224965481649563,0.606654701453048,-2.39314827184564,3.18357142760273,2.39250382638265,0.044718813097488,-0.00361933060764205,-0.0244297788742556,1.59804689711262,-0.0402721966189215,-0.00323275831818711,-0.0261715334836888,-0.00170930624329918,0.00211876447096682,-0.00666380346745626,-0.0135595572935328,0.00215536456849398,-0.00302855463990257,-0.00233641050898572,0.00388679600330585,-0.00490652210299875,0.00599436148111085,0.372186986359751,0.00323793999115229,0.000069456750150998,-0.00949656894657565,1.08990444175904,-0.0000000000000326846378855117,-0.0000035467429529819,-0.000000439738022937602,0.000687482175793128,-0.000043283431123528,-0.207675144566051,0.0000336679155469089,-0.0000246404830585007,-0.0000083843014245756,-0.18465831271471,0.00015280022571951,0.00462115373704504,0.00000163094712171364,0.00000379791745099413,0.0000106356393590164,0.0000293295198909577,-0.46581898239635,-0.000561018183133937,-0.000000589560577753162,-0.00000629165132831841,0.0000132561478154844,0.0000144719479342038,0.37728197534213,0.00000512378934514706,-0.00000305743954185957
