"taxon","BM_HC_1","BM_HC_2","BM_HC_predictor","BM_LC_1","BM_LC_2","BM_LC_predictor","nonBM_HC_1","nonBM_HC_2","nonBM_HC_predictor","nonBM_LC_1","nonBM_LC_2","nonBM_LC_predictor","Phylo_axis_1","Phylo_axis_2","Phylo_axis_3","Phylo_axis_4","Phylo_axis_5","Phylo_axis_6","Phylo_axis_7","Phylo_axis_8","Phylo_axis_9","Phylo_axis_10","Phylo_axis_11","Phylo_axis_12","Phylo_axis_13","Phylo_axis_14","Phylo_axis_15","Phylo_axis_16","Phylo_axis_17","Phylo_axis_18","Phylo_axis_19","Phylo_axis_20","Phylo_axis_21","Phylo_axis_22","Phylo_axis_23","Phylo_axis_24","Phylo_axis_25","Phylo_axis_26","Phylo_axis_27","Phylo_axis_28","Phylo_axis_29","Phylo_axis_30","Phylo_axis_31","Phylo_axis_32","Phylo_axis_33","Phylo_axis_34","Phylo_axis_35","Phylo_axis_36","Phylo_axis_37","Phylo_axis_38","Phylo_axis_39","Phylo_axis_40","Phylo_axis_41","Phylo_axis_42","Phylo_axis_43","Phylo_axis_44","Phylo_axis_45","Phylo_axis_46","Phylo_axis_47","Phylo_axis_48","Phylo_axis_49","Phylo_axis_50"
"t1",-2.70323983580209,-1.56315436492755,-1.05179471728157,0.14791801613428,-0.307175069570738,1.2340513320772,-0.0885341189136073,-0.552001081857965,-0.243839785913686,-0.57076044517463,0.521728211928398,0.099559621831915,1.78754904099172,-0.25073549990855,0.666841964927147,-0.0456360530194677,0.000433296276095875,-0.012346842758022,0.00397844704564262,0.0431786202139201,0.000990901977181038,-0.0800263810977896,0.00202967925219536,-0.00727772769139138,0.00520906048713602,-0.889734030933371,-0.044659867012554,0.195174867477244,-0.150599323491954,0.129160241914265,-0.208519253115403,-0.000306221089284884,0.25216928523082,-2.90816991084749,-0.0336740653431642,0.212312603553954,-0.0209177930251966,0.0091377855644397,0.0413996442094998,0.00402565776625027,0.0135888260515744,0.0151400416333765,-0.0343022815221947,0.000161647410601916,-0.000286901551835334,0.000180831916613192,0.000000000000000425236223787614,-0.000794193376176277,0.00320964334859585,0.000954914151311714,0.000108444047661809,0.000109776343230253,-0.0000757608713621809,-0.00273676783367975,0.000163522723251994,0.0000221199502911558,-0.000432659179083274,-0.0000000000000000190513312886087,-0.00064354496393957,0.0000141674883264253,-0.000102901041843208,-0.000362461747281002
"t10",-4.57609393027994,-4.32235874593931,-4.68833806684348,-2.75689560086568,2.22165933819723,1.85519939506108,0.0961668619623588,-0.212939130527641,0.667394033810681,1.59248379939588,-0.432406618186718,-0.605762847208905,-3.42775919652747,-0.0412784345310642,-0.00774280782609499,0.108601801470711,-1.84462427722036,0.812681516446751,0.261444674892024,0.0100871772558168,-0.413463318683389,0.000189996874400796,-0.254027040895404,0.0000193028513342814,-0.681217149764512,-0.00184729662571074,0.000152791664515023,-0.00013221696411611,0.00063243622112173,-0.000019852875483893,0.000173958688839614,0.000871434653943318,0.000236310387362785,-0.00814973231926039,1.11566793238661,0.0557493585726449,-0.0000607463690555505,0.0000308136542431738,0.000166669208455069,0.00000285571448741711,0.0000154583530040518,0.0000115469413985561,0.00000233584957225397,-0.0015630695463396,0.0059425152831474,-0.2504256212322,0.0000000000000298818654974526,0.00000804818019522942,-0.0000775750876639349,-0.000172265108629657,-1.285435951262,0.00000138373063130257,-0.00345318136424199,-0.0000231976563842206,0.00467837623127488,0.0208715690402669,-0.00000478892509551683,-0.00000000000000445641981132616,-0.00000668786973167743,0.000248201635065952,-0.00170122506633514,-0.00000907193265553303
"t100",-0.478938749128255,-2.57735630055134,-2.66195629593902,-1.39956107211004,1.20777659031955,-0.285262037234163,-0.921512281175366,-0.535772871406706,-0.110159084774314,-1.98338058372818,2.3126529138765,1.77269951672083,-3.45036655986493,-0.0483328620778696,-0.0160238889576866,-0.0616831787085769,0.257110923865132,-0.161404442075106,-0.529480108960221,-0.000564070789546745,2.193287988424,0.00508096910583669,-1.39978939283931,0.0000355633459655408,-0.0735649450874741,0.00302574331695383,0.000572918398966167,-0.00049053991720163,0.00194984458878012,-0.0000615227644154137,0.000597916566024852,0.010769447738752,-0.000234405363503169,0.00254702790482362,-0.00480789076846261,0.0146527594788668,-0.0000960686273260223,0.000053362702036927,0.000341552263768417,0.00000588240708240206,0.000065847680051054,0.0000817754567877755,-0.0000879827279831393,0.00689340356970783,-0.0133814436027361,0.00350837241552732,0.00000000000000193173274784438,-0.0000319973967002138,0.0000370684311996622,0.00000567029588845091,0.0027092091347403,0.000000944485677450468,-0.00833817692265759,-0.0000426937580158224,0.624332007973756,-0.00068418374823497,0.0000012885504192957,0.00000000000000675722155104599,-0.0000122243266405758,0.215721477866699,0.000171748038419208,-0.000000348038391154307
"t11",0.176554109629746,0.0897836742290719,-2.5096780263127,-0.0647608759870453,-0.316435803802875,0.741948001671176,-1.01328047878676,-0.719828948149477,-1.62602667784055,-1.22074154630049,1.29860291601662,1.47054098159625,2.0733174667739,-1.44204099282132,-1.05578517697984,-0.142905355397459,-0.0079506191048052,0.0147493126950396,-0.00400501214273934,-0.0369249491821217,-0.000788623982323073,0.55535788334242,0.00029249606617678,-1.12675572622439,-0.000565140932547569,0.0720919983666353,0.00479462830688354,-0.0129231358238853,0.0262893657267102,-0.00858895180163189,0.301985689540097,-0.000116588862793858,-0.463398299425842,-0.0446209546461676,-0.000254983566739734,0.000797204832296326,-0.0000138547714152719,0.0000179944241530513,0.000323557411379732,0.00858959859336303,-0.0062587402122491,-0.0126092354320935,0.000545990107917776,-0.0000270975318918575,0.0000905809856082445,-0.000182888137127036,0.0000000000000167136823073135,0.00185416036390304,-1.38248077474281,0.000559281231602395,0.000137474181868696,0.0000231529233657445,-0.0000334439262121277,-0.000427657938917205,0.000050311695839917,0.00000596397766115702,-0.325282649958103,-0.00000000000000157269838274855,-0.00243284238161559,0.00000187044261048138,-0.0000153236708962043,-0.0000539762303290106
"t12",-1.66696818725148,-0.038258785803073,-1.46164273138016,-0.935846673814847,0.711359723879131,2.49743606473206,-0.21413543435833,-0.168067963721144,0.0212348188725784,-0.436896298427691,0.887542937878769,1.57682835780455,1.96809756368932,-0.491049582802643,2.21534855177961,-0.590462943411906,-0.0238763577469562,0.0299263320722241,-0.00778444231495746,-0.0684524700958535,-0.000895905202702133,0.0648857277943223,-0.00151176457334095,0.00467384638660139,-0.00340544399861278,0.655614058314205,-0.113001897191341,0.528886830432251,0.00104760057999664,-0.0204788448485038,-0.00032265951058878,0.000000188871675289971,-0.000891717754235194,0.00948040299335549,0.000102782906126769,-0.000593757039848368,-0.0000408566543152445,0.0000230013702605146,0.0000232250173739764,0.00000166499285890782,-0.000856603779672185,-0.00222366244736671,0.412548625954599,0.0000234279083153116,-0.0000275098176972871,0.00000678484138319984,-0.0000000000000000422889454149442,-0.00000635972928481987,-0.000102276096745609,-0.575203254380137,0.0000786751997579502,-0.000625708434677004,0.0000261633516464214,1.1821414103901,0.0000892173639819207,0.00000683907707863533,-0.0000983850631899071,0.00000000000000209090677004916,-0.00013090156077119,0.00000286809920373427,-0.0000195693688259256,-0.0000663953095804777
"t13",-5.57589314248881,-4.22366752865386,-4.66531934561713,0.62917968505569,0.385793727577513,-1.12773560724374,-1.37318614612013,-0.853050341976144,-0.0602656404169785,-1.04922456387099,0.870381564592694,0.258283812337844,-3.43996605243462,-0.0420792653283506,-0.00796028424255479,0.112696317608572,-1.92197560209988,0.8618566598411,0.278569091284134,0.0108115476845189,-0.455222772105376,0.000211037792658679,-0.284608139835702,0.0000221569351562783,-0.818946085285187,-0.00225944003918133,0.000206947923194208,-0.000179537944705562,0.00102550097282876,-0.0000333840645420681,0.000367536277689996,0.0020378587113907,-0.000410149574269766,0.00908283585139442,-0.9281443468622,-0.0326955983827356,-0.00003687888377892,0.0000221987378507503,0.000152432945410516,0.00000262784017306916,0.0000284717317198853,0.000034078481036271,-0.0000342055685724587,0.000867368588432592,-0.00167436096898919,0.0296901496530557,-0.0000000000000111570158420111,-0.000000221245886287387,0.00000366815728970382,0.0000021920810389012,0.0125527314753684,0.0000000286648533422697,-0.00005759970489718,0.000000401739032029437,-0.000848911816241336,-1.15170201965063,-0.00000362785058145663,-0.00000000000000951043447747688,-0.00000435474152237452,0.000160959009175499,-0.00106152909248176,-0.00000559990029903314
"t14",-4.10736844197466,-5.17707578902701,-3.67759455932455,-2.36692739285835,1.94887871582797,0.783347735162591,-1.22460478302439,-1.5364624227565,-1.27397577013309,0.415280356284292,-0.528807062331387,-0.878505995270668,-3.44138462685209,-0.0476781506941386,-0.0157172696199514,-0.0601406200559964,0.250042098544293,-0.155312774697796,-0.508130658326098,-0.000539540822469051,2.06864454674456,0.00477177185224888,-1.30929851121434,0.000032913410436361,-0.0668974391942669,0.00273566400313758,0.000504006615993955,-0.000431294452135278,0.00166480844148157,-0.0000523060482076066,0.000498788622148096,0.00893380045209488,-0.000185321818603684,0.00200327129607268,-0.00376802909339286,0.0114360284786264,-0.0000685743270933442,0.0000368012695747937,0.000215286070966925,0.00000369628582677664,0.0000274742081283593,0.0000281114901709407,-0.0000199030315899885,-0.000295647723934448,0.00229183555109881,-0.00119230389937676,-0.00000000000000305374893919932,0.0000128529326626231,-0.000016927031818587,-0.00000324088594959509,-0.00158233123811995,-0.000000847700754768087,0.00825389160902038,0.000052322630475967,-1.0227816002782,0.00177311637762776,-0.000010584858384331,0.000000000000024624039134898,-0.0000438362888704157,0.540291156091828,-0.0021884176114533,-0.0000119978601724451
"t15",0.430087622551377,-0.111238613844999,-0.742280786171619,-3.39016609206515,3.52533785069468,2.61318885851202,-0.668370122331164,-1.08210339191771,-1.27136384045476,-2.07596345908258,1.78532952136251,1.92437306071937,-3.61983155130252,-0.0689657127204716,-0.030548962612915,-0.213268485853141,1.5097862423624,0.370094285540641,1.00263801023711,-0.00175638331440921,-0.277641543017384,-0.000331778138429667,0.0257900755292648,0.00000240787690260471,-0.0106326753500584,0.000482979940460115,0.000109981965971723,-0.0000942163248758276,0.000297491099793354,-0.00000815163957274381,-0.000222601415612357,-0.930320647380054,-0.000088872566346997,0.000946350693508225,-0.00176495899670166,0.00531168848783739,-0.000030323369531691,0.0000162506604058509,0.0000950608870511905,0.00000163208536504215,0.0000114695734725128,0.0000108325837966393,-0.00000492195315426904,-0.00249773351723504,0.0764555514290038,0.000220956662096813,-0.00000000000000230491350797145,0.00000188026990348735,-0.00000547637558445534,-0.00000187859340189576,-0.000957184965062184,-0.00000201184914945911,0.823639424774672,-0.0000303706280492834,0.0100767822872432,0.000335448530681198,-0.00000289625331467066,-0.837086276600001,-0.00000396372765870174,0.000384717954954586,-0.00103053208988482,-0.00000535678113700604
"t16",-1.56448689584115,-2.95864515818066,-3.15005863327493,-3.48404722893878,2.96461616912226,3.01133099884491,0.69947570536425,0.298665355700554,0.440480760913927,0.136408573088521,0.0844283669769088,0.136766903621256,-3.61983155130252,-0.0689657127204713,-0.0305489626129153,-0.21326848585314,1.5097862423624,0.370094285540644,1.00263801023711,-0.00175638331441053,-0.277641543017387,-0.000331778138424373,0.0257900755292631,0.00000240787690416872,-0.010632675350059,0.000482979940457419,0.000109981965972061,-0.0000942163248764469,0.000297491099796806,-0.00000815163957323943,-0.00022260141561041,-0.930320647380058,-0.0000888725663464792,0.000946350693507455,-0.00176495899670679,0.00531168848784093,-0.0000303233695308336,0.0000162506604025643,0.0000950608870554194,0.00000163208536414224,0.0000114695734801946,0.0000108325837955432,-0.00000492195315279638,-0.0024977335172126,0.0764555514289758,0.000220956662092289,-0.00000000000000218892286618226,0.000001880269908135,-0.0000054763755856782,-0.0000018785934023205,-0.000957184965072684,-0.00000201184915120787,0.82363942477468,-0.0000303706280534258,0.0100767822872559,0.000335448530664538,-0.00000289625332163738,0.837086276599999,-0.00000396372766026969,0.000384717954899678,-0.00103053208989368,-0.0000053567811338395
"t17",-0.814575412044085,0.0078040848422356,-0.656859989570319,2.83488018283275,-2.15755347869871,-0.135837542223876,-1.25574848934191,-1.0954898711303,-1.18674852214785,1.49096038569081,-1.47867648625705,-1.68395693595559,2.0792351473577,-1.46402879927487,-1.07883881267779,-0.147043166502451,-0.00820528596949506,0.0154149235423306,-0.0041993918436096,-0.0388736873831987,-0.000844963343962449,0.598305701203865,0.000316774601188238,-1.23754091832831,-0.000635918396151771,0.0817905261343134,0.00566673039557644,-0.0152871001465646,0.0326186996111614,-0.0107347361139382,0.39036252560154,-0.000152275154321958,-0.666894082725211,-0.0649547446540364,-0.000374152037898298,0.00118086976046354,-0.0000261818354742448,0.0000384083779353487,0.00108559337950052,0.0294317131108016,0.00866184878340327,0.00936498849396692,-0.000180917145646214,0.000000642985896926347,0.0000030727943800873,-0.0000141470118683976,0.00000000000000135070456118127,0.000162184643408693,-0.130715890259595,0.0000585420087152732,0.0000144965273723713,0.00000254055524375878,-0.00000356922525459793,-0.0000396885645929005,0.00000261160542651911,-0.000000600559425057328,1.09917104196732,0.00000000000000504593340277814,-0.00368105367855443,0.00000270816457534507,-0.0000150981860956529,-0.0000467785349807751
"t18",-0.410485517363682,-1.76842396120592,-1.08291779387826,-2.54674972266146,2.80845711670195,2.05520172707603,0.240822579705231,0.505830149385509,-0.679482417463606,-1.20417139775931,0.636454262660456,0.00843696278175436,-3.44440044867556,-0.0478982484578896,-0.0158204117081197,-0.0606598532199653,0.252422160909468,-0.157366174392634,-0.515329273105144,-0.000547814764722947,2.11074928253637,0.00487626600651504,-1.33989311156866,0.0000338103289488223,-0.0691582361391692,0.00283408061202462,0.000527450352377901,-0.000451450824278251,0.00176205785174527,-0.0000554519034367199,0.00053268333154963,0.00956178735284695,-0.000202186636353742,0.00219018802506514,-0.00412559362369587,0.0125425267545491,-0.0000781023416018032,0.0000425560070695203,0.000259451348909258,0.00000446111154805331,0.0000412177326873492,0.0000474883100676842,-0.0000448062937038914,0.00241295574537723,-0.00369659701260391,0.000636828853875133,-0.00000000000000325730819251302,-0.00000471594947233748,0.00000434943107615012,0.000000313897654996297,0.000131900112892825,-0.000000107765426255749,0.00133745810867435,0.0000117448609559966,-0.289775468596188,0.000578251273020774,-0.0000025708129685834,-0.0000000000000316644436662033,0.000052596953724334,-0.977334006019486,-0.00264137663410055,-0.0000113790629241397
"t19",-2.96440773689997,-1.84768478256352,-3.42769351677277,-3.03429077959806,3.25037168726502,1.96623773692844,1.3060741961445,1.08148405898651,0.504757055803361,-1.43659873613116,2.06917484923905,1.6122411767355,2.0778424911128,-1.46043078316216,-1.076249013832,-0.146867396329911,-0.00820365268835664,0.0155516762374119,-0.00425430859062886,-0.0396480528249241,-0.000925147296097728,0.692849116437435,0.00040536535917098,1.34729767788349,-0.000408892312717196,0.0550734936590428,0.00386074706804314,-0.0104022890438414,0.0198158064507156,-0.00636015479324712,0.199256248079913,-0.0000732149186129777,-0.0355804976199139,0.00155239194876437,0.0000310244839645761,-0.000187746251822621,-0.00021564595983011,0.000128232632473468,0.000942259645050229,0.00450521754305508,-0.464251400973022,0.43255449395984,0.000837671566107164,0.000000773172748041118,-0.00000262207649218163,0.00000200332628900285,0.000000000000000037362280982419,-0.00000945616828418882,0.000981960813506791,0.00000328405904501949,0.000000877383711749513,0.000000188690309385217,-0.000000180900722986225,0.00000268407251740393,-0.00000189427802203427,-0.000000787375188709307,0.00195796713585896,0.00000000000000184687675640538,1.01105186646911,0.0000611524082365038,-0.0000333770285087763,-0.0000786794578896796
"t2",-1.71550771127771,-2.1855131026522,-2.55513959489495,5.62575741857218,-5.53038726251535,-6.23329090657522,1.17331667398701,1.33980624772958,2.12801968460941,-0.724530793601126,1.22355804056346,0.95672452436834,-2.35609258190648,0.059648340512925,0.0457729446245918,0.301689022195533,-0.769066270350106,-3.09512359988596,0.860045633359582,-0.102512609138049,-0.357020779324064,0.0105443509163466,-0.18235892124357,0.000464322830966548,-0.0225538435895958,0.0154950730662778,0.00104883934600724,-0.000869951357334375,-0.00314917033727752,0.000136916458417237,-0.00337427778773482,-0.00243441195134106,0.0116279254649759,-0.181199728432347,0.110418144059396,-2.57834794687219,-0.00214116679598,0.000969648524920743,0.00467856666853616,0.0000800485652000143,0.000602091396310368,0.000688386601280907,-0.000659242548050286,0.00210695772944677,-0.00373305102403933,0.00234684683272047,0.000000000000000382458738085065,-0.0001524987496403,0.000164751140153881,0.0000210567147811829,0.00141916342341189,0.00000245288681673985,-0.000988364413303513,-0.0000619813491565253,0.0021394883384991,0.000289513588957047,-0.0000236423210825979,0.00000000000000123084545531257,-0.0000355780267653338,0.00018640260118414,-0.00135135842033466,-0.0000536562673549716
"t20",-1.55608278578968,-1.26474841995135,-0.872827085829694,-2.24172146295581,1.55986213934845,1.17749816079602,0.874869570190981,-0.0120749550930544,0.119977008154663,0.0329693280201147,-0.0592281090914543,0.378407640897881,-3.28252616139913,-0.0306387187735955,-0.00482156045120868,0.0378178351331319,-0.489362502611559,-0.225217650549681,-0.136084701443499,-0.00749353376776166,1.3900737038045,-0.000905639234737263,2.49188425797687,0.00026830816669349,-0.216830782362122,0.00813711029060855,0.00123787917296604,-0.00105696387878526,0.00377667254906444,-0.000117804216785697,0.00109197506123114,0.0059943485917285,-0.00039508268514097,0.00426407696835709,-0.00801286378762036,0.0242950880043642,-0.000145475589446073,0.0000785255847702154,0.000470640069152383,0.00000808871514873802,0.0000729058909178542,0.000083953297031902,-0.0000797351456964153,0.00180599977358937,-0.00302350108834126,0.00169306426575474,0.00000000000000184461211621711,-0.0000140469078627463,0.0000149581455986411,0.00000190583852583875,0.000891980598903387,0.000000171098287471101,-0.000482503774806448,-0.00000327779461284654,0.000512428582521121,-0.0000259007612443196,0.00000388332456181363,0.0000000000000059791230470966,0.0000203317468217574,-0.000849006653076559,0.904660775400355,-0.0000675301790749884
"t21",0.809315640954435,0.903817119242738,0.887284194018927,-1.65354070278755,0.570915718651311,3.13573666741795,-0.298833249698972,-0.215183240443368,-0.0502058233798144,-1.09943474175907,0.363544579409017,0.233180351112677,1.87906659488896,2.33592085543006,-0.639045966221462,-0.67693674138611,-0.0303024616152796,0.0597641088909571,-0.0216156047685865,-1.13221048758241,-0.000246468881925034,0.00860327338663133,-0.000663381945188711,0.000792070485809041,-0.000685712680118318,0.0546234603568748,0.01023458431515,-0.012334577326196,0.337156866644224,0.0360676082185168,-0.0124617229754367,-0.0000408878300541262,0.0000506672777462276,0.000528145204508347,0.00000532592247686342,0.0000382625206010994,-0.498074131351977,-0.00474764393008566,0.0165439800502058,-0.0003990510200179,0.000028469061568956,0.000049865481973825,-0.0000601309209590647,0.0000019965254243111,-0.00000313253360192663,0.00000150589726055765,-0.00000000000000116135614623858,-0.00000574198867024777,0.00000736358329373402,0.000000598342184370311,0.000000410666650996319,-0.0000000475966977689011,0.000000358566589932639,0.00000426795623310693,-0.0000030414231546766,-0.000000818927668823131,0.0000152088849692334,-0.00000000000000246177535092945,0.0000486854280051312,-0.00000299403972369165,0.0000596224910184012,0.968403558722173
"t22",-0.00636383257867107,0.997771889594273,0.371174883752081,-1.2416706869772,2.03395381666199,2.45514155581449,0.547609966201059,0.757648257740766,1.69037131765006,-0.0200547861373217,-0.150123357986015,0.552091775228731,1.87878696702087,-0.365772074087093,1.3837858963057,-0.287878277244234,-0.0101702693492949,0.00440846277220939,-0.000548086558261517,0.00191420068903424,0.000443425886039182,-0.0424048378714696,0.00122559951135517,-0.00585720862984542,0.00690260297376221,-1.4723201096732,-0.0186247996201795,0.227564412016057,-0.110344587551411,2.02854824767538,0.145986361932359,0.000172756855599263,-0.037115793395938,0.369700282760077,0.00385507154291959,-0.0213908815868432,-0.00124513439888389,0.000821344348330349,0.00580250215062356,0.000569340399523664,0.00300332123829487,0.0036394208144137,-0.0435875683430357,0.0000397968978805308,-0.0000730356109663008,0.0000473649551567482,0.000000000000000319796232908093,-0.000209709513269661,0.000853052241466452,0.00125319389722404,0.0000290376855911001,0.000144583239258265,-0.0000209904315289527,-0.00361453173936023,0.0000460010813910447,0.0000063424712771945,-0.000127120513955368,0.00000000000000163857444710166,-0.00019210656361243,0.00000423268217480232,-0.0000311298124999028,-0.000110685973736209
"t23",1.09086176934394,1.63785819892652,1.07764019031778,-1.23124869873713,1.50301224722408,3.6198893879264,0.0125431585790787,0.0734855115108867,0.00590203401803567,-1.62990113920896,1.75520095522966,1.44286824030667,1.87878696702087,-0.365772074087093,1.3837858963057,-0.287878277244234,-0.0101702693492951,0.00440846277220898,-0.000548086558261506,0.00191420068903403,0.000443425886039638,-0.0424048378714691,0.00122559951135539,-0.00585720862984489,0.00690260297376199,-1.4723201096732,-0.0186247996201798,0.227564412016057,-0.11034458755141,2.02854824767538,0.145986361932358,0.000172756855599416,-0.0371157933959381,0.369700282760077,0.00385507154291867,-0.0213908815868427,-0.001245134398884,0.000821344348330486,0.0058025021506246,0.000569340399523697,0.00300332123829382,0.00363942081441248,-0.043587568343035,0.0000397968978811165,-0.0000730356109677721,0.0000473649551567703,0.0000000000000000578922315723977,-0.000209709513269999,0.00085305224146681,0.00125319389722448,0.0000290376855949803,0.000144583239257449,-0.000020990431526749,-0.00361453173935983,0.0000460010813906953,0.00000634247127869993,-0.000127120513956485,-0.00000000000000138432210824536,-0.000192106563612223,0.00000423268217564033,-0.0000311298125000816,-0.000110685973741028
"t24",0.00924774997721534,-0.0795767139976576,-1.12551586653146,-0.852682797820963,0.133851613350573,-0.323862489082729,-1.9805779655695,-1.69530535315906,-1.31710580514419,0.115843771771579,-0.0427942347684149,-0.280818390275381,1.8077954831038,1.77467618219739,-0.392836491372203,-0.275885679857882,-0.00889335867626858,-0.0332501276489067,0.0214466672417221,2.12614363169145,-0.00169220893899514,0.0369283121676009,-0.00222218666635278,0.00185614979392791,-0.00117960177535075,0.0870361989040703,0.0116323168053089,-0.0139159596223104,0.228206684772844,0.0217613039393627,-0.002665687821863,-0.00000277078403561142,-0.000997786574085307,0.00897912749308325,0.0000414424049816404,0.0001853076247949,0.00241821972501093,-1.00544398225719,0.0507781704367538,-0.000928022994642794,0.000613297110242751,0.00071319400018654,-0.000689867921917717,0.0000230440662280235,-0.0000406179211387268,0.0000252258426985711,0.000000000000000354190305754779,-0.000109893958277111,0.000162760057081122,0.0000202514808650831,0.0000147930567436193,0.00000225944440408438,-0.00000976382799246731,-0.000054171368679974,0.0000191959054962712,0.00000226016996267726,-0.00000965088028058257,-0.00000000000000153855125374453,0.00000165085634308445,-0.000000172829995235684,0.0000155454071796312,0.00131400804123281
"t25",-3.51925760335751,-2.95441203125687,-3.41853000025536,-2.13738224469333,1.6712493440724,0.361044790176043,1.20446411262177,0.900950068907992,0.947508975169339,0.966975360881581,-1.39707918972086,-0.922837641273224,-3.62759733111862,-0.0697466321131409,-0.0310412002266682,-0.217794453292214,1.54512748623369,0.382150459866,1.03765370698844,-0.00182282139398979,-0.291617255783557,-0.000349760775600197,0.0272828134592474,0.00000257073718837386,-0.0115275651675649,0.000526301135561164,0.000122806690468315,-0.000105255841440145,0.000341324768442593,-0.00000938938571869734,-0.000260945656971099,-1.09629095497756,-0.000109620623657571,0.0011731469724769,-0.00219549518739,0.00663409290431923,-0.0000414073397329363,0.0000229979944167791,0.000148222173841849,0.00000255357104227918,0.0000301208206892723,0.0000385410912489419,-0.0000445427445859112,0.00748464363948042,-0.133328650265942,-0.00024094721641156,0.00000000000000138633977421583,-0.00000178807609504918,0.0000046606424254945,0.00000129975804962928,0.000648606741002546,0.000000872726550571145,-0.31986538798629,0.00000915458028452774,-0.00209274655032872,-0.0000360391105557211,0.0000000428630718220811,-0.00000000000000613603412813029,-0.0000000230023073395939,0.00000211079758223861,0.000030476281605237,0.000000707305993192831
"t26",-2.87805844099459,-3.06504960269888,-2.03746921063674,-3.81967585801122,3.5709412992068,1.57759317596571,-0.894776783345285,-1.13735086486294,-1.46679858846454,-2.25095858871173,1.72266751559864,0.489773918599689,-3.54637724451974,-0.0588959170862409,-0.0227793668573268,-0.120158104791201,0.67678836831354,-0.324152840667015,-2.12946688701773,0.0163746472390975,-0.796390895360559,-0.000834409170681517,0.0597890347510656,0.00000495168649790651,-0.0202814958105739,0.000913516867975628,0.000214911813286966,-0.000184483375841873,0.000802157576523502,-0.0000255191639268777,0.000255581136806423,0.00653007944796425,-0.000103479228170428,0.00112623516896821,-0.00212805236770189,0.00649231314908972,-0.0000427074824094495,0.0000236320443188933,0.000149135268499478,0.00000256713143315155,0.0000274460144663106,0.0000342376999634921,-0.0000393204750247272,0.236469717761725,0.00418862344232679,-0.000121705933137445,-0.00000000000000352951558742023,0.000000468294890456909,-0.000000139005883152817,0.0000000432107630104146,0.0000224142847993421,0.0000000090710829776197,-0.0000846562900305947,-0.000000131962679523148,-0.0000398549888515141,-0.0000173646618341955,0.000000724564907899727,-0.0000000000000121619972203065,0.00000231704646084236,-0.000235195837542987,0.00130694511784688,0.0000137978040262244
"t27",-0.732299451762081,0.159840923260269,0.800946780195803,1.48693426093487,-0.989063750393748,1.88411016784096,0.253179231819864,0.647466510070212,0.280821264556579,0.685027789603078,-0.660745481772485,-0.602922718583302,2.034381824121,-1.27348547292635,-0.861900526026619,-0.103987012555258,-0.00542520332950652,0.00612367596388202,-0.00126353399300412,-0.00600926792996383,0.0012590041749046,-2.10102133633526,-0.0040644180047294,0.0993207732490273,-0.00117952449963371,0.138761105165611,0.00691243819651627,-0.0185301364279312,0.0268426020858298,-0.00818624994582302,0.176248048785115,-0.0000513694506237659,-0.0116578570740617,0.0191971209020398,0.000183407902853206,-0.000844307225473674,-0.000476612197128863,0.000270684490915624,0.0017957896460522,0.0027583038262922,0.00932433447390359,0.0104588623566383,-0.000810065308492136,0.00000997961387735798,-0.0000175465680934738,0.0000109328710939437,-0.000000000000000455519381581971,-0.0000488306419510146,0.00198050955351096,0.0000220345048650056,0.00000592378496457909,0.00000240888422088427,-0.00000381283170055009,-0.0000555360871561007,0.00000694129840802825,0.000000722412694278532,-0.000034141266666938,-0.00000000000000462556449274483,0.000159207481881195,-0.000000374552411963695,0.00000807957026840867,0.000056355283561127
"t28",-4.88202066710209,-4.17473103557182,-3.35375631132861,4.98340244335766,-3.75437070893997,-2.80367933017557,-0.39140841797206,-1.27621903336333,-1.26462953232368,-0.236560026468712,-0.600905304768178,0.0700260375097263,2.06374733217852,-1.40448308154575,-1.01527141314939,-0.13541039906894,-0.00748333191975635,0.0134600715156284,-0.00362326394716347,-0.0330316923249012,-0.000667447309226029,0.460851623196537,0.000237895885675411,-0.86276293388742,-0.000378944828860984,0.0457101221212612,0.00199354892597849,-0.00530330795116485,0.00145887687117731,0.0000899676051750572,-0.110776139911101,0.0000578059628865901,1.12672217005449,0.124646555176541,0.000783252543548634,-0.00273636499139004,-0.000532317202602014,0.000242958181556055,-0.0266803347926686,-1.27265576285732,0.0412445642247897,0.0449074537103173,-0.000976465347304003,0.0000152156475261008,-0.0000297191210931589,0.0000246490317784559,-0.000000000000000349594528417533,-0.000154030806493633,0.0596488151608231,0.0000145890972701756,0.00000448919148487268,0.00000360146182713819,-0.00000604749313425654,-0.0000989154144573294,0.0000144985702396043,0.00000205797666092229,-0.00688575181444789,0.00000000000000035054955447238,-0.00170668864192511,0.0000013017398251495,-0.0000103702950963978,-0.0000371923560875924
"t29",-5.55590687588276,-5.54101517650238,-4.1847951312906,3.36263202518964,-1.610098488115,-1.69807814915197,0.314410677769612,0.504022544312451,1.03667470039047,-0.513877919351637,1.22017783402735,0.696010256267703,2.06374733217852,-1.40448308154575,-1.01527141314939,-0.13541039906894,-0.00748333191975615,0.013460071515628,-0.00362326394716336,-0.0330316923249013,-0.000667447309226625,0.460851623196537,0.000237895885674891,-0.862762933887419,-0.000378944828860642,0.045710122121261,0.00199354892597863,-0.00530330795116483,0.00145887687117724,0.0000899676051751063,-0.110776139911101,0.0000578059628856732,1.12672217005449,0.12464655517654,0.000783252543550186,-0.00273636499139054,-0.000532317202601136,0.000242958181556032,-0.0266803347926691,-1.27265576285733,0.0412445642247906,0.0449074537103173,-0.000976465347303663,0.0000152156475296061,-0.0000297191210958973,0.0000246490317765662,-0.000000000000000371401285823116,-0.000154030806494268,0.0596488151608224,0.0000145890972694014,0.00000448919148377492,0.0000036014618263728,-0.00000604749313518327,-0.0000989154144590002,0.0000144985702378598,0.00000205797666307945,-0.00688575181444925,-0.000000000000000298387477889796,-0.00170668864192506,0.00000130173982191147,-0.0000103702951007597,-0.0000371923560861008
"t3",0.221822465710488,0.527465263372137,-1.5994491310534,1.98258110596937,-2.49819894256424,-0.513183066935113,-0.743218045861962,-0.510845356159788,-1.73885821942916,-1.14579880231774,1.27210490767482,0.813067641263446,1.80429962614369,1.8407212234795,-0.445347815883846,-0.405353440858328,-0.0168648734567111,0.0225665457200658,-0.00716176942851957,-0.310073273261943,-0.0000057536269723908,-0.000472487543324289,0.0000861218736047673,-0.000261410807886297,0.000462017254951952,-0.043144276004496,-0.0139041789588108,0.0169045526658817,-0.675932538979231,-0.0756622682183349,0.031284741102286,0.000107559624432551,-0.000179647138800254,-0.00191221283377796,-0.0000195337648193875,-0.000142239041715386,0.438046591281161,-0.0386555235463624,-2.28049204557774,0.0519908539990122,0.00417375093462614,0.00430671751699021,-0.00374629600759926,0.000114052138132117,-0.000198316549771046,0.00012267994778893,0.00000000000000195460391402935,-0.000535096225254557,0.000794087157954333,0.0000994363753029091,0.0000726966797800898,0.0000114212811846859,-0.000049859372950499,-0.000284549397003248,0.000106430917305926,0.0000142649332089858,-0.000103529812060887,0.00000000000000170642196626223,-0.000153729552309819,0.00000900553276109317,-0.0000654129433587889,-0.0113640448667077
"t30",-5.5981481925871,-4.64183534159048,-5.36868866436408,0.8589775693664,-0.799545372309699,-0.170001416154952,-0.271743826435971,-0.893799138726488,-0.669922242763467,-0.302822348113954,0.0376951960335241,-0.332080425775317,2.08311134404001,-1.47838996446573,-1.0938739263462,-0.149737567489357,-0.00837100681941029,0.0158468770648974,-0.00432544887702097,-0.0401363874951425,-0.000881337471623246,0.626003578933774,0.000332416115849676,-1.30872191441162,-0.000681191666976937,0.087985213736246,0.00621995109707107,-0.0167864781857017,0.0366040836705069,-0.0120844545185025,0.445694595143965,-0.000174587594371045,-0.792663642401982,-0.0775064621442369,-0.000447650719027786,0.00141726755143196,-0.0000336221536744142,0.0000506352974335816,0.00153324761102602,0.0416673429109496,0.0167877351136177,0.0209970832257697,-0.000547640738794987,0.0000130124974138097,-0.00003344348127181,0.0000498486831131429,-0.00000000000000340289170105663,-0.000455718241259634,0.310739684732392,-0.000104887976656484,-0.0000252881556419593,-0.00000264295385778213,0.00000330951948698395,0.0000287140938141844,-0.00000135637142129377,0.000000188272758353001,-0.128221159525862,-0.00000000000000442901084262713,0.000125711122955813,-0.0000000837708060650862,-0.0000000136332107664785,0.000000254819131404301
"t31",-0.532102286895797,0.808554956676755,0.916937072405319,2.14031152749971,-3.6243662266514,0.233890982775002,0.220730178010771,0.124266337642007,-0.190772539795364,-0.567059571463383,0.461764126993059,0.9885879890512,1.88265778808384,2.35930151741896,-0.648111454870458,-0.689530758010953,-0.0309231705491603,0.0614549445388031,-0.0222699634841744,-1.16924673008803,-0.000257089867375852,0.00900123421653508,-0.000696055239615175,0.00083730757982314,-0.0007338221113695,0.0586903623071274,0.0112052586877418,-0.0135095891924958,0.376661097944395,0.0404084422164014,-0.0141385900860872,-0.0000465614563683281,0.0000595270800371795,0.000622557598714036,0.00000629225488424062,0.0000453243596227911,-0.623471253199787,-0.00606594966731875,0.022254755403696,-0.000537725462478661,0.0000468196555892394,0.0000885052355175571,-0.000121700434044126,0.00000579270688734698,-0.0000112796740872686,0.00000776880746631424,-0.000000000000000204606401205223,-0.0000349744321487011,0.0000532427610111867,0.00000698681313560959,0.00000513174062913605,0.000000886900178462557,-0.00000395886926395905,-0.0000237192789118846,0.00000947221680635955,0.00000140180224027415,-0.0000123004328009062,-0.000000000000000785352364489822,-0.0000229430729360624,0.00000136781333831027,-0.0000159661958305281,-0.150454000588106
"t32",0.175626723256953,1.32185154469616,1.10494796953109,0.236045072143846,-2.07868433073167,0.868776599166619,0.513188163936542,0.93762483680715,0.129345890396803,2.43004460333706,-2.1927840735822,-2.05037549649078,1.88271854374128,2.35969633733873,-0.648264395856264,-0.68974301791821,-0.0309336276320052,0.061483381282706,-0.0222809638644366,-1.16986901608918,-0.000257267928368857,0.00900790161214287,-0.000696602303659967,0.000838063782339183,-0.000734624224065641,0.0587581110628046,0.0112213655802859,-0.0135290852274549,0.377313933033161,0.0404801367644677,-0.0141662168006248,-0.0000466548629264195,0.0000596720734322574,0.000624101730560186,0.00000630805270733917,0.0000454397523146605,-0.625500136041453,-0.00608720501537519,0.0223460620874099,-0.00053994205473942,0.0000471049238544398,0.0000891005212813589,-0.000122636024710567,0.00000584876082290239,-0.0000113984835556981,0.0000078587527954315,0.00000000000000138769110693238,-0.000035392025386463,0.0000538951404742431,0.00000707681363933882,0.00000519818556029137,0.000000899753193200903,-0.00000401788287583325,-0.0000240961948501363,0.00000963694360467146,0.00000142987125515305,-0.0000126176181347691,0.00000000000000431233068144826,-0.0000236836694604801,0.000001412569144822,-0.0000166280795274624,-0.158317451476559
"t33",0.703683677246242,1.22868324224984,1.96671894743189,1.90016432507224,-3.21281249074918,-0.27244515984215,-1.75311366288,-2.08279536857962,-1.4579386212875,-0.189234016959221,-0.139496694035576,0.631229667044983,1.88276981026491,2.36002955234426,-0.648393484798832,-0.689922191764813,-0.0309424550733029,0.0615073903748656,-0.0222902518518392,-1.17039445964247,-0.000257418310596266,0.00901353295790571,-0.000697064386460618,0.000838702615360987,-0.000735302011304958,0.0588153635716328,0.0112349821199701,-0.0135455670235561,0.37786604484902,0.0405407731111744,-0.0141895878540239,-0.0000467338864103173,0.0000597948091042822,0.000625408896825116,0.00000632142682960822,0.0000455374433209154,-0.627219387462989,-0.00610522234832085,0.0224235187052685,-0.000541822464700694,0.0000473475313043918,0.0000896071853541794,-0.000123433282407581,0.00000589664305061479,-0.0000115000775061375,0.00000793576108575383,0.000000000000000780990707276941,-0.0000357497096151088,0.0000544541347771799,0.00000715398806899286,0.00000525516569167444,0.000000910795202359991,-0.00000406860555253179,-0.0000244205229820713,0.00000977892811770367,0.00000145413584733886,-0.0000128935033224984,-0.00000000000000296475298808687,-0.0000243320605568277,0.00000145176961156553,-0.0000172125646186401,-0.165326084739623
"t34",0.90727348909294,1.28178273779111,-1.7031824313912,-3.09181965414091,3.40157148049912,5.75795395755028,-1.28645696963067,0.0582992623814185,-0.764130296132511,-0.902732576243479,0.610220388529724,0.423802834617589,1.58831145159564,0.540060797888074,0.376530781593125,2.95307753565123,0.318710939503484,0.191389719088912,-0.0399424765137981,-0.187556236180961,-0.0024489756472019,0.0387906646537221,-0.0036056864361582,0.0022147490178449,-0.00192779351361541,0.116040731238943,1.21704984317007,0.228954299943492,0.0238736083171006,-0.000793070956123043,0.00836213087954895,0.000058031912934783,-0.00252294464434224,0.0223205429912281,0.0000359991478683522,0.001331811713073,-0.00156906326297549,0.000838209766736919,0.00500852240125216,0.0000860879973247725,0.000789430375251898,0.0009100837724003,-0.000853700147020424,0.0000298908059678349,-0.0000254652271588982,-0.000123539841969728,0.0000000000000465268758632752,0.790465113796356,0.00135173868461852,0.0000834901962829656,0.000081694208700374,0.00000661614056255229,-0.0000385719584171709,-0.000151192106909265,0.0000750047681629432,0.00000976357236527873,-0.0000506703716046018,-0.000000000000000690187888423911,-0.0000751810482084719,0.00000606349447949724,-0.0000438963126402526,-0.000112562863168844
"t35",-0.632260388471765,0.527457024921703,-2.39561638421419,-3.38594051278829,3.07716025754886,5.30453391563158,-2.243068079753,-1.35520752159262,-1.66203789690414,2.35119079122586,-1.8102935607464,-2.32578075123431,1.58831145159564,0.540060797888074,0.376530781593124,2.95307753565123,0.318710939503485,0.191389719088912,-0.0399424765137984,-0.187556236180961,-0.00244897564720306,0.038790664653722,-0.00360568643615634,0.00221474901784415,-0.00192779351361663,0.116040731238943,1.21704984317007,0.228954299943491,0.0238736083171001,-0.000793070956122866,0.00836213087954917,0.0000580319129372603,-0.00252294464434233,0.0223205429912285,0.0000359991478697571,0.00133181171307333,-0.00156906326297615,0.000838209766737373,0.00500852240125448,0.0000860879973245973,0.000789430375250705,0.000910083772400016,-0.000853700147020133,0.000029890805965393,-0.0000254652271563108,-0.000123539841973799,0.000000000000045805677636048,0.790465113796353,0.00135173868461896,0.00008349019628407,0.0000816942087012845,0.00000661614056220875,-0.0000385719584137492,-0.000151192106908843,0.0000750047681675487,0.00000976357236272226,-0.0000506703716043811,-0.00000000000000140484006332721,-0.0000751810482093057,0.00000606349448852387,-0.0000438963126387462,-0.000112562863167575
"t36",-3.23900715269481,-2.53608228469304,-2.48806890990201,1.42365750234302,-1.93950503190118,-0.315906602358241,0.152372693820991,-0.203555455673195,-0.176806498174618,-0.423024203265384,0.530828202841892,0.576899577948204,2.01557064871467,-1.21864933138835,-0.816456130223629,-0.0989280174448228,-0.00521616722940543,0.00727911432348127,-0.00179763956100228,-0.0144631604137463,-0.0000910643625240684,0.00867202707408719,-0.000027312433576664,-0.040874447522568,0.00042751997377868,-0.069040622409924,-0.0103385267879736,0.028257306075112,-0.112962736544584,0.0405937505702201,-2.23144036198924,0.000999037827377634,-0.508105990163298,0.140762752372828,0.00138365141107586,-0.0062131494154007,-0.00209046294425219,0.00109363892177138,0.00669421034566624,0.0206546002678336,0.0564955270437592,0.0622585761065296,-0.00229489285309776,0.0000314241964993444,-0.0000574824103836093,0.0000381347154332036,0.000000000000000277171392652591,-0.000177987056089087,0.0132063831726778,0.0000779255216712946,0.0000210870166725783,0.00000957987615962946,-0.000015604731733014,-0.000244241146028139,0.0000345476575088221,0.00000474635094648352,-0.00175029830371634,0.00000000000000129622527700984,-0.00259535457241021,0.00000298860837317802,-0.0000229483041543113,-0.0000815924060570077
"t37",-0.867711231335277,-0.443514399827004,0.247438876141625,1.35442804426273,-1.21326059190122,0.496059448891204,0.13635965175224,0.398101134743982,0.401308873828137,0.0401353216947761,-0.0121283606690338,0.744098996082738,2.01557064871467,-1.21864933138835,-0.816456130223629,-0.0989280174448224,-0.0052161672294048,0.00727911432347902,-0.00179763956100228,-0.0144631604137468,-0.0000910643625235249,0.00867202707408779,-0.0000273124335759387,-0.0408744475225667,0.00042751997378081,-0.0690406224099229,-0.0103385267879738,0.0282573060751123,-0.112962736544584,0.0405937505702202,-2.23144036198924,0.00099903782737592,-0.508105990163298,0.140762752372828,0.00138365141107323,-0.00621314941540148,-0.00209046294425287,0.00109363892177141,0.00669421034566667,0.0206546002678337,0.0564955270437575,0.0622585761065285,-0.00229489285309774,0.0000314241964942053,-0.0000574824103899779,0.0000381347154323717,-0.00000000000000044617115984659,-0.000177987056088601,0.013206383172677,0.000077925521671017,0.0000210870166852029,0.00000957987615831396,-0.0000156047317347013,-0.000244241146028577,0.0000345476575132138,0.00000474635093039658,-0.00175029830371457,-0.000000000000000191606621727346,-0.00259535457240944,0.00000298860837659784,-0.0000229483041502767,-0.0000815924060588779
"t38",-5.97414064376862,-6.15328023413015,-5.08583809290209,-1.67055973570182,2.33396547691837,1.25306693984228,-0.728048502989761,-0.115494778227067,-0.858709726224184,-1.05655106225603,0.764852979360943,1.15183054635622,-3.44505439811708,-0.0424057427926974,-0.00804788653877389,0.114324171352942,-1.95255306516517,0.880822862696151,0.285130977251916,0.0110868662755056,-0.470524152052627,0.000218656867755124,-0.295555005895718,0.0000231466386670713,-0.8639958730008,-0.00239144574243958,0.000222410376898234,-0.000193012778016946,0.0011205707971607,-0.000036565032905535,0.000406799861578492,0.00226254003271215,-0.000467541759311257,0.0103831450825889,-1.06308016903199,-0.0375337861869774,-0.0000444240501994291,0.0000272342960920187,0.000196018257852357,0.00000338464241189623,0.0000446863027608954,0.0000581105052160318,-0.0000680298970597047,0.00290087839797121,-0.00857053616327972,0.564864170775568,-0.0000000000000156065830046358,0.000121847055826694,-0.0000718324861310306,-0.0000139675764910337,-0.0744084769139687,-0.000000059736552836838,0.0000996861416551918,-0.000000477324054359551,0.00062587290672487,0.402918126143082,0.0000000568969233547095,-0.00000000000001004597152371,-0.000000583572279883654,0.000022660019558586,-0.000247554849054557,-0.00000163565494942029
"t39",-5.13791543159715,-4.68623083145335,-4.29017063730963,-2.63099164317351,3.04052971263104,1.38955564512336,1.92922977497548,1.77093449459268,1.62175111163511,-0.0626791902453361,0.587204323908755,1.99236303197696,-3.44505439811708,-0.0424057427926946,-0.00804788653877704,0.114324171352942,-1.95255306516517,0.880822862696154,0.28513097725192,0.011086866275506,-0.470524152052625,0.000218656867743598,-0.295555005895723,0.0000231466386709269,-0.86399587300082,-0.00239144574243451,0.000222410376898244,-0.000193012778019995,0.00112057079715307,-0.0000365650329044165,0.000406799861574781,0.00226254003272733,-0.000467541759325318,0.0103831450825923,-1.06308016903199,-0.0375337861869613,-0.0000444240501973017,0.0000272342960857412,0.000196018257845676,0.00000338464241318221,0.0000446863027871657,0.0000581105052152995,-0.0000680298970514874,0.00290087839797504,-0.00857053616330292,0.564864170775599,-0.00000000000000892205059991905,0.000121847055834731,-0.0000718324861348165,-0.0000139675765046306,-0.0744084769140012,-0.0000000597365294702744,0.0000996861416310837,-0.000000477324048907027,0.000625872906734395,0.402918126143278,0.0000000568969197086998,0.0000000000000165806843853323,-0.000000583572310843355,0.0000226600195739737,-0.000247554849086268,-0.00000163565493565299
"t4",-1.9261519968688,-1.21896167144454,-1.70746965514379,-1.52372488366265,0.586672928725293,0.276283626454165,-0.514421855976153,0.18295004421736,-0.387727522646625,1.24926286520902,-1.50286165468913,-0.955833777761479,2.05263845255052,-1.36631997108332,-0.977224472324765,-0.129005807772575,-0.00710148250371018,0.0126253147193771,-0.00339468133808042,-0.0309532941432123,-0.000652817913024312,0.472661144722116,0.000267446014140031,0.808040388188633,-0.000202931492111694,0.0253980899999766,0.0011064596369796,-0.00294243624226149,0.00157659578996837,-0.000308963923927209,-0.0188206911776441,0.0000101240348214556,0.0194818767835725,-0.000924565460129955,-0.0000195150599158921,0.000125515576283197,0.000361328175630621,-0.00027817007573083,-0.0037143198489774,-0.0181185247554434,-1.01799872322415,-1.60762513535525,-0.0125958219668001,0.000078392009962365,-0.000126090929677017,0.0000761594414774076,-0.00000000000000103421899950418,-0.000354507299968322,0.0371321805149713,0.000133635244470059,0.0000361457475606437,0.0000155858506396585,-0.0000250334914015628,-0.000380404399418597,0.000051903159676259,0.00000682192790923597,-0.00355800153383303,0.00000000000000132059759887094,-0.043191038706357,0.00000145125346191137,-0.0000275069949700058,-0.0000973180311132279
"t40",2.57034239197541,0.625699707208765,1.74049987177071,-1.60046057670244,1.08578184627282,3.76327014922337,1.22162998020162,1.25519346847993,1.60877114319184,-1.68916928698111,1.95050188978658,1.9779229070408,1.58201022799589,0.527933867963993,0.364020713912129,2.81807374675809,0.302324019517381,0.176453229821376,-0.0365204382210838,-0.169617322347831,-0.00208911667536002,0.0323420348546013,-0.00293293929400063,0.00165565474564153,-0.00109666462252466,0.055032231474943,-1.67254077234172,-0.347517939582241,0.0618513099280556,-0.00185333390999132,0.015243883505388,0.000101476572861586,-0.0036994858783787,0.0324066043671403,0.0000519386636339527,0.00190837109477449,-0.0020735400590309,0.00109132460236691,0.00637319682139532,0.000109486854977878,0.000992176586555694,0.00115714638064112,-0.00112718714634179,0.0000534119519359172,-0.0000952171659225069,0.0000606576844442007,0.000000000000000669449180999014,-0.00401459775751675,0.00027655717675065,0.0000352368816125166,0.0000356924549924863,0.00000408509564613492,-0.0000246560374126212,-0.000101660282075477,0.000052154709603171,0.00000684192854960281,-0.0000335822731472201,-0.000000000000000953816547308379,-0.0000449655572471828,0.00000359831928412218,-0.0000219276994313318,-0.0000433316876749406
"t41",-1.22753534662358,-0.267333256459693,0.579109282283703,1.83126474735549,-2.79214979224709,0.4199190670533,-0.088188655500932,0.111557574296839,-0.646067982918129,-1.1479867543933,1.07218403333722,1.70639489180296,1.88307357080583,2.36200377956924,-0.649158286910441,-0.690983695502826,-0.0309947519916711,0.0616496214472022,-0.0223452736310227,-1.1735071222212,-0.000258309097475112,0.0090468894415294,-0.000699801418758842,0.000842486395894607,-0.000739316198828662,0.0591544321976925,0.0113156143604056,-0.0136431660489717,0.381135051321341,0.0408997896005363,-0.014327953223256,-0.0000472017247418175,0.0000605213051844757,0.000633146143255746,0.00000640058795056071,0.0000461156783869773,-0.637392579634606,-0.00621182408955929,0.0228816893758762,-0.000552945361415492,0.0000487814646051708,0.0000926010830261513,-0.000128142547035143,0.0000061792604925582,-0.0000120995266514339,0.00000838996703519225,-0.0000000000000000491091617599006,-0.000037859096939178,0.0000577503367984369,0.00000760895493898969,0.00000559107334034542,0.000000975853267580933,-0.00000436741290403554,-0.0000263304700438425,0.0000106146268438795,0.0000015968244842456,-0.0000145127878648796,0.00000000000000312922507410156,-0.0000281301369572416,0.00000168136403390137,-0.0000206273783949402,-0.206159562848669
"t42",0.0083463472812102,0.143350429572556,0.517462836768046,1.19546535172838,-2.12634343727005,0.499156443154487,-0.79128842782209,-0.0518820804876026,-0.464356883769101,-0.0763152533030484,0.836608360228057,0.0986175922605308,1.88307357080583,2.36200377956924,-0.649158286910442,-0.690983695502826,-0.0309947519916726,0.061649621447202,-0.022345273631023,-1.1735071222212,-0.000258309097474544,0.00904688944152942,-0.000699801418758705,0.000842486395893813,-0.000739316198829455,0.0591544321976937,0.0113156143604055,-0.0136431660489712,0.381135051321342,0.0408997896005363,-0.0143279532232566,-0.0000472017247415398,0.0000605213051844546,0.000633146143256391,0.00000640058794836941,0.0000461156783873273,-0.637392579634606,-0.00621182408955902,0.0228816893758755,-0.000552945361415918,0.0000487814646047925,0.000092601083025844,-0.000128142547035086,0.00000617926048518489,-0.0000120995266557087,0.00000838996704478399,-0.0000000000000000604625636332506,-0.0000378590969387042,0.0000577503367989981,0.00000760895493911448,0.00000559107334668847,0.000000975853266518949,-0.00000436741290209616,-0.0000263304700438068,0.0000106146268463588,0.00000159682447477244,-0.0000145127878654088,-0.000000000000000411178228343983,-0.0000281301369567753,0.00000168136403359256,-0.000020627378392237,-0.206159562848669
"t43",-5.8850037276559,-6.73488829810438,-7.00322516955447,-1.73227876339625,1.39528386548043,-0.671029093754368,-0.652088781965818,-0.129837320808338,-1.50032004412466,-0.845113977854084,0.59396695899118,-0.105258858213301,-3.39126706762642,-0.0386180969937832,-0.00697657524509275,0.0931889621270622,-1.54473280924543,0.594908632051409,0.182763643926307,0.00659745292683399,-0.15944929178514,0.0000507438300382461,-0.0331086114112824,-0.00000795139338271436,2.26677575070919,0.0134886823973175,0.000872028095607765,-0.000742199355189725,0.00247467289451366,-0.0000770002006608455,0.000711561163261127,0.00375452224396221,-0.000269809572225701,0.00308412360284931,-0.0386441428874646,0.0145652370982671,-0.0000983474628274965,0.0000537282091281296,0.000330996633220464,0.00000569371222239904,0.0000562635428246181,0.0000669150103665585,-0.0000670353599220074,0.00168699253012737,-0.00307253819415711,0.0108167629163289,0.00000000000000248268299008563,-0.0000142679546436327,0.0000168707339555636,0.00000304542831039486,0.00645752486241522,0.000000260141421473188,-0.00076809720371166,-0.00000669376683047051,0.0016873333599569,0.0013040527590602,-0.00000259083535844037,-0.0000000000000110049099064799,-0.00000392068674986377,0.000146017230021854,-0.00104671556354882,-0.00000570980089047158
"t44",-1.84707088169081,-1.92798598430255,-1.50825036113781,1.37595255370855,-0.943603278748538,1.56129033980715,-1.01906685565983,-1.43501709142824,-0.722297751796333,-0.178917645992046,-0.0934389488465842,-1.06143899219919,1.85895858129008,-0.337362753762148,1.19290849614539,-0.217454398695505,-0.00696037315879799,-0.00173901654194584,0.00120893400618346,0.0191722798808889,0.0007882091338275,-0.0704922913400854,0.00195440448561586,-0.00880222989462749,0.0100773166539634,-2.14955211619879,-0.113632424005717,0.798591280775114,0.334617570858414,-1.41423298819605,0.0929890819954885,0.000125739860532388,-0.0361754369308082,0.363759122400364,0.00381500679577296,-0.0212973772204241,-0.00131228496778375,0.000872419134138134,0.0062275967623753,0.000611180066734907,0.00322492100020816,0.00385636432952703,-0.0266128456781447,0.0000450045402093676,-0.0000820938624002883,0.0000530469981091416,-0.000000000000000164922342539121,-0.000234665067247485,0.000953910079656535,0.000798004893263918,0.0000325254523028679,0.0000926338634635424,-0.0000233783436897261,-0.00232535300978339,0.0000513988882190456,0.00000707524523356883,-0.000141677460074461,-0.000000000000000670470397526882,-0.000214024901336391,0.00000471553019875854,-0.0000346732184542938,-0.000123267902477449
"t45",-3.3255354227695,-3.24285385983816,-3.42315638987308,1.59626691954231,0.0648328355134222,1.25304053612922,-0.700468382081382,-0.591064176201191,-0.25098050923495,0.0970455524190404,-0.308836908024945,0.0599628802994862,1.85895858129008,-0.337362753762148,1.19290849614539,-0.217454398695505,-0.0069603731587978,-0.00173901654194534,0.00120893400618326,0.0191722798808887,0.000788209133827743,-0.0704922913400856,0.00195440448561595,-0.00880222989462784,0.010077316653963,-2.14955211619879,-0.113632424005717,0.798591280775114,0.334617570858414,-1.41423298819605,0.0929890819954887,0.000125739860531528,-0.0361754369308082,0.363759122400364,0.00381500679577247,-0.0212973772204241,-0.00131228496778426,0.000872419134138381,0.0062275967623739,0.000611180066735035,0.00322492100020779,0.00385636432952677,-0.0266128456781445,0.0000450045402114996,-0.0000820938624036117,0.0000530469981059352,0.000000000000000533472883082619,-0.000234665067247545,0.000953910079656146,0.000798004893262841,0.0000325254523041595,0.0000926338634637234,-0.0000233783436887143,-0.0023253530097837,0.0000513988882202347,0.00000707524523542307,-0.000141677460074149,0.00000000000000061097488139422,-0.000214024901336261,0.00000471553020056936,-0.0000346732184520553,-0.000123267902478148
"t46",-0.731713588070444,-1.9943092933955,-1.01520994104859,-0.84209126275509,-0.0821882238681942,0.254826342525921,0.638931906312404,0.658136493286004,1.17673604144892,1.00787964333544,-2.10099915198171,-1.35161509137515,-3.63636495254126,-0.0706833065319549,-0.0316514062121888,-0.223612549447226,1.59128725391173,0.399029335426062,1.0875929216696,-0.00191981449629006,-0.314323931130642,-0.00038002852885064,0.029884290485551,0.00000288385989823051,-0.0136100217608646,0.000634704870225696,0.000173256619439808,-0.000149207505425422,0.000828263524361546,-0.0000280977425039236,0.000658089072855958,1.14474699857923,-0.0000521759625570982,0.000596400298965698,-0.00115895833707921,0.00363749890921194,-0.0000307160612017784,0.0000177604716469577,0.000121875138459768,0.00000210298296282698,0.0000279314515034298,0.0000370934072512171,-0.0000459412750907021,0.0102616249145935,-0.249747755010219,-0.00225094493736802,0.00000000000000347042368445117,0.000013523563826856,-0.0000115403482371223,-0.00000103649389108715,-0.000470085685754234,-0.0000000645183694125881,0.0078089441705979,0.000000211129024824499,0.0000473663967461687,0.0000145095298931119,-0.000000311286986483321,0.00000000000000622824291096626,-0.00000058371302164091,0.0000573983823380858,-0.000181186342234751,-0.00000102423652173027
"t47",0.08790151976754,0.217825202656395,-0.577418934415028,0.03499024098093,-1.30186672079898,-0.363370705439664,0.203187482366671,-0.094976936468524,0.112551163583069,-0.165621426793477,0.00243839245920256,-0.229783607312193,1.8093246685824,1.78249413885871,-0.395282140617961,-0.278131360688291,-0.00897295962138056,-0.0336589894465573,0.0217284692743872,2.15628112763583,-0.00172358632564948,0.0376617604582876,-0.00226908613358528,0.00190133686128711,-0.00121457403888369,0.0897667578067442,0.0120910187238194,-0.0144669875870291,0.239164782210296,0.0228324532420686,-0.00281106909205378,-0.00000292619923913997,-0.00106674091742673,0.00961196572471577,0.0000444020794962842,0.000198743667175675,0.00264793168354154,-1.10920112205535,0.0570471516959953,-0.00104321701648607,0.000734505308886918,0.000872745304922546,-0.000873349313595881,0.0000314571035251437,-0.0000574138112590192,0.000037288020677582,0.000000000000000409730278009626,-0.000165080886592293,0.000247990245774795,0.000031773344013417,0.0000232827431562482,0.00000384124573230289,-0.0000169687429575876,-0.0000994404286199289,0.0000385936856575609,0.00000548353345055135,-0.0000446571921950892,0.000000000000000117741304933272,-0.0000754505156602984,0.00000446046784682115,-0.0000395413443460902,-0.00147250546965662
"t48",1.18357757296085,1.43287902507633,0.464272218548503,1.10518140827188,-2.65632708209673,-0.986961930494385,-0.116679021059246,-0.785025740074277,-0.577975089022209,-0.0160191788819688,-0.311780184113554,1.08485095646181,1.8093246685824,1.78249413885871,-0.395282140617961,-0.278131360688291,-0.00897295962138067,-0.0336589894465579,0.0217284692743883,2.15628112763583,-0.00172358632564859,0.0376617604582879,-0.00226908613358601,0.00190133686128828,-0.00121457403888254,0.0897667578067453,0.0120910187238196,-0.0144669875870292,0.239164782210296,0.0228324532420686,-0.00281106909205367,-0.00000292619923836141,-0.0010667409174254,0.00961196572471548,0.0000444020794940614,0.000198743667174488,0.00264793168354041,-1.10920112205535,0.0570471516959959,-0.00104321701648621,0.000734505308886899,0.000872745304922951,-0.000873349313595321,0.000031457103525902,-0.0000574138112588349,0.0000372880206753783,0.000000000000000141832433520836,-0.000165080886592552,0.000247990245774822,0.0000317733440141877,0.0000232827431580904,0.00000384124573201677,-0.0000169687429571318,-0.0000994404286190399,0.0000385936856581625,0.00000548353345223118,-0.0000446571921947783,0.000000000000000707123989290378,-0.0000754505156600475,0.00000446046784786788,-0.0000395413443454104,-0.00147250546965943
"t49",-1.57162142855199,-1.52767806704407,-1.62520062743487,-0.621628393931471,-0.706751456887027,-0.255708766414191,-0.146492597010242,0.103387300397913,0.149201087290746,-0.693980205716842,0.690483902898571,0.856471585688389,-3.63643710833425,-0.0706905707665268,-0.0316559903213919,-0.223654769241564,1.59161721422259,0.399142425834492,1.08792187178147,-0.00192043991190069,-0.314456994496522,-0.00038020050937786,0.0298986344575303,0.00000288544882470934,-0.0136190819144889,0.000635150834123252,0.000173407825692805,-0.000149338231657349,0.000829132807185635,-0.0000281279188028035,0.000658866197572361,1.14613420544425,-0.0000522524380573801,0.000597290090961787,-0.0011607081361808,0.00364306615172603,-0.0000307757745029186,0.0000177975679065773,0.000122171628778013,0.00000210812223958436,0.000028030624393383,0.000037238001659253,-0.0000461442800663161,0.0103177436225029,-0.251223780436023,-0.00226544052060035,-0.000000000000000763366995105814,0.0000136131070751607,-0.0000116185596619035,-0.00000104384051228143,-0.000473432962885491,-0.000000065026095619375,0.00787194211504031,0.000000212930305093047,0.0000478033576837189,0.0000146604687267001,-0.000000315276406599844,0.00000000000000309214458508058,-0.000000592639225752785,0.0000582852856201289,-0.00018452269372307,-0.00000104637743396533
"t5",-0.101430687028965,-0.111024812278005,-1.27242333372655,3.47015769121332,-3.52098461687491,-1.24416556723502,-0.107809990722705,0.154886512996225,-0.398840094669026,-0.410125130440973,0.513323887076284,-0.324674986629573,1.78011754475483,1.66406973891324,-0.372677917914234,-0.297882394012024,-0.0114252504887267,0.00601465788110641,-0.00057328132695069,0.0760039542180651,0.000122726714472342,-0.00551216710600819,0.000518328792650614,-0.00093324012458745,0.00133274581852864,-0.121856584810386,-0.0402424621187592,0.0490231703444299,-2.32298243505887,-0.269644702057177,0.13760780100398,0.00051349231064979,-0.0151084221749639,0.128552022779413,0.000574829432567512,0.00249253453253907,-0.208596923324375,0.0326242149606925,0.392635049798445,-0.00832011893913404,0.00156011283523419,0.00188359625792416,-0.00188640573255214,0.0000664873861504849,-0.000119934468355296,0.000076755743335188,1.111957435,-0.000338071751510412,0.000505613319446555,0.0000642057275727328,0.0000470041591450631,0.00000758707041137302,-0.0000333199020854515,-0.000192560480485405,0.0000731587765071189,0.000010007598343394,-0.0000746397686723422,0.000000000000000338857674120943,-0.000112693371443608,0.00000660694381654566,-0.0000484449840886111,-0.00295428072329898
"t50",-1.08961533968097,-1.05435645036989,-2.8528709394657,-2.88184254135602,2.50564410295527,3.66446344548997,0.717232061056598,0.356958049718252,0.483895808868305,-1.93636560139685,1.15411141905482,1.82006241878815,1.58913778055721,0.54153616710828,0.377990630127672,2.96811460497972,0.320498846760867,0.192876420674733,-0.040274683646283,-0.189243190426464,-0.00247809209182815,0.0392862370245958,-0.00365478276836882,0.00224980919376157,-0.00196544532460447,0.118449264558082,1.24944874112964,0.235077048291943,0.0246646844152816,-0.00082009343701773,0.00868223697655809,0.0000603260145416141,-0.00265020101957857,0.0234730494452143,0.0000378875338482043,0.001402953647318,-0.00168613870114083,0.00090783480230761,0.00553863931831547,0.0000952690410706426,0.00096503421916304,0.00116756345278184,-0.00121273665794393,0.0000717068613466223,-0.000157911556420972,0.000239332762205655,-0.0000000000000454549197993803,-0.779855922293614,-0.000772321137090617,-0.0000109551230251997,-0.00000820414614271747,0.00000195816019197989,-0.0000135203064914244,-0.0000670992710778277,0.0000398775900934815,0.00000601566508011226,-0.0000353074829386581,0.00000000000000168038141916464,-0.000055303610695043,0.00000447123905452901,-0.0000334623749785354,-0.0000876350503319037
"t51",-1.4436687688271,-1.84933161869157,-3.69220106755855,-3.277213653043,2.24312545726796,3.52703439405322,-1.5314376385193,-1.60365502699852,-1.58014291595013,1.71777221789314,-1.15513654792706,-1.49222705372966,1.58913778055721,0.54153616710828,0.377990630127671,2.96811460497972,0.320498846760867,0.192876420674733,-0.0402746836462841,-0.189243190426463,-0.00247809209182943,0.0392862370245957,-0.00365478276836909,0.00224980919376193,-0.00196544532460348,0.118449264558082,1.24944874112964,0.235077048291941,0.024664684415281,-0.000820093437017073,0.00868223697655645,0.000060326014542189,-0.00265020101957807,0.0234730494452144,0.0000378875338471873,0.00140295364731927,-0.00168613870114015,0.000907834802307144,0.00553863931831762,0.0000952690410708396,0.000965034219164439,0.0011675634527837,-0.00121273665794424,0.0000717068613497548,-0.000157911556422093,0.000239332762202583,-0.0000000000000449747923264642,-0.779855922293614,-0.000772321137089991,-0.0000109551230251281,-0.00000820414614611132,0.00000195816019235256,-0.0000135203064875481,-0.0000670992710776513,0.0000398775900893734,0.00000601566507878584,-0.0000353074829387796,0.00000000000000103144438689489,-0.0000553036106954207,0.00000447123904728594,-0.0000334623749828188,-0.0000876350503331371
"t52",0.830620181376592,1.47906506468598,0.795328171094214,1.55317388521527,-1.03705485401214,0.25788693047443,-1.99667278671908,-1.48501152088138,-0.934323831750096,-0.266816518572809,-0.302576613447653,-0.620165331624395,1.87227038574397,2.28960510233404,-0.620657521433957,-0.650740822709034,-0.0289974535738801,0.0560465314971917,-0.0201603836698869,-1.04867799822081,-0.000221022871716068,0.00763196316575585,-0.00058221565073962,0.000674324337427576,-0.000550227207918445,0.0428648500627318,0.00704448574221036,-0.00846251417559753,0.186691806269704,0.0191701230065621,-0.00524906321259199,-0.0000157307037244974,-0.00000146685155218335,-0.0000462777826180044,-0.000000692124477925855,-0.00000694832909491011,1.23335781309193,0.024777998109877,0.326078263755239,-0.00719239408230679,0.000121087082846157,0.000206214894456323,-0.000255387848972935,0.000010699433695667,-0.0000200622999400046,0.0000132921782534541,-0.00000000000000076725380022736,-0.0000591207175334612,0.0000891053742563078,0.0000114723845128356,0.00000841003822500774,0.00000139359444141473,-0.00000615550502178969,-0.00003600372203036,0.0000138843308003014,0.00000193696894010348,-0.0000148717962826902,-0.00000000000000133508133284383,-0.0000230838364763083,0.00000135618036519881,-0.0000106233417405664,-0.0173926144649587
"t53",-4.97382808276123,-4.58890540936301,-5.75851844527402,-1.16826576771266,0.684154416262008,0.507223545073488,0.648818182429788,-0.127621299654064,0.618009717957833,-0.107539393463234,0.147447378475164,-0.337733626074563,2.08337176000397,-1.48104176310565,-1.09791840467586,-0.150772813284265,-0.00844456023461116,0.0161904751286648,-0.00444190005192124,-0.0415447676177459,-0.000984472129519801,0.740797662022973,0.000435389159234883,1.46460191331674,-0.000453655816872005,0.0615219503738373,0.00445915524093982,-0.012023063496937,0.0237834795509172,-0.00767690509539352,0.246794299324479,-0.0000913936545887687,-0.0476907710199069,0.00209781579494857,0.0000421627345593423,-0.000256856268747546,-0.000347196577771689,0.000222675004141083,0.00210451532726141,0.0101696699296045,0.786484896412714,-0.210144909059402,0.000117886244867359,0.000000551948319756614,-0.00000242762931291777,0.00000249068737121349,0.000000000000000310212812803145,-0.0000130964296862079,0.00150145934572121,0.00000628131156904346,0.00000172284208040843,0.000000958361676170959,-0.00000162123874885217,-0.0000273643853182809,0.00000423402860395022,0.000000655682961880169,-0.000458334083305312,-0.00000000000000459199629197496,-0.0440045064654052,-0.00000218210810301959,-0.00000217517258811168,-0.00000970120468887815
"t54",-4.90782198254569,-5.50348105457903,-6.45338296053106,-2.50896535891767,1.90162585647871,0.886940958889412,-0.353209627199672,-0.92653586362917,-0.998224899508783,0.087530380472356,-0.0428082712195546,-0.330163790080565,-3.43642290170746,-0.0418293607373812,-0.00788989839415669,0.11131981996274,-1.89555252920925,0.843923350535981,0.272221222976609,0.0105376068251311,-0.438052152535194,0.000202166491669271,-0.271406882014038,0.000020847174802372,-0.749119936483782,-0.00204361964623913,0.000173948816457247,-0.000150614651365163,0.000743400507266694,-0.0000234439659497585,0.000209726495883521,0.00105711760142295,0.000302584949066014,-0.0104976275560138,1.4429849205236,0.0724515971440533,-0.0000878448836412259,0.0000465292054953088,0.000283491167517301,0.00000487816134125034,0.0000535372050448177,0.0000670877510634259,-0.000074168448933586,0.00262435646582961,-0.00641254250977123,0.173467190766748,-0.0000000000000140752577606207,-0.0000048421765266953,0.0000414466710599602,0.0000728449747796774,0.530395187673378,-0.00000031752195356416,0.000667803850915,0.00000283284658504987,-0.000191404171742161,0.00113547698938466,-0.000000799479646277366,0.00000000000000229562661186488,-0.00000154396654491194,0.0000580802026187577,-0.000475309230233383,-0.00000282102478038437
"t55",-5.05940119128259,-6.10177868640155,-7.01680721500485,-3.09874779008431,2.24306282960865,1.44542186800788,0.0962787224395816,-0.279839306019688,1.03939479651692,-0.757082531252297,0.479938174380798,0.540608596279776,-3.43642290170746,-0.0418293607373752,-0.007889898394156,0.111319819962739,-1.89555252920926,0.843923350535976,0.272221222976612,0.010537606825134,-0.438052152535189,0.000202166491666269,-0.271406882014042,0.0000208471748032438,-0.749119936483788,-0.00204361964623814,0.000173948816448388,-0.000150614651359535,0.0007434005072762,-0.000023443965950274,0.000209726495884912,0.00105711760142424,0.000302584949063589,-0.0104976275560167,1.44298492052362,0.0724515971440636,-0.0000878448836366689,0.000046529205491941,0.000283491167509412,0.00000487816134491075,0.0000535372050381267,0.000067087751078309,-0.0000741684489377711,0.0026243564658074,-0.00641254250979634,0.173467190766802,-0.0000000000000140571925132066,-0.00000484217653030677,0.0000414466710634211,0.0000728449747822952,0.530395187673358,-0.000000317521959258489,0.000667803850927632,0.00000283284658591832,-0.000191404171737095,0.0011354769893645,-0.00000079947963878585,0.00000000000000348847817467961,-0.00000154396654513979,0.0000580802026065733,-0.000475309230230791,-0.00000282102477840083
"t56",-0.849369432993518,0.729248764067703,0.359941616650932,-0.631779305805661,1.20473872365249,3.37864485005309,0.406460330151356,-0.481939258030765,0.917366873572043,1.93689064886551,-1.60626484597693,-1.39979348089247,2.03680846001762,-1.28140163741787,-0.869474646572519,-0.105182222879239,-0.00549378054895708,0.00623008428244564,-0.00128699891720213,-0.0061296792345903,0.00129203141776218,-2.16007257491718,-0.00418583356589808,0.102745222199276,-0.00122910057979084,0.144934661677526,0.00729957325191587,-0.0195722599691451,0.0286761519238392,-0.00875958556474257,0.189938349924337,-0.0000554744302183092,-0.0128084328214815,0.0211298845089792,0.000202122366216679,-0.000931791047447218,-0.000541585707313363,0.000310833808777954,0.002115674283015,0.00325237150171896,0.0120211216942112,0.0139002218990214,-0.00112956082960006,0.000015489171431712,-0.0000286255578355758,0.0000190206810147145,0.00000000000000035136954678321,-0.0000869553543190332,0.00360005287068724,0.000041795739924045,0.0000112882497648494,0.00000514189538021723,-0.00000840975607791196,-0.000132998676960915,0.000019119495934879,0.00000270037649702883,-0.00057615799811377,0.00000000000000319476258115907,-0.000914174845515613,0.0000019717229266226,-0.0000160886973077523,-0.0000634993659071085
"t57",1.07133405590914,1.58703915165467,0.812156741431661,1.17947624458398,-0.352183404557995,2.44556234120129,1.87730876991304,1.69616556612736,2.00386976240292,0.0495396726156042,0.592163367274605,0.739028561426037,2.03680846001762,-1.28140163741787,-0.869474646572519,-0.105182222879239,-0.00549378054895667,0.0062300842824448,-0.00128699891720203,-0.00612967923459062,0.00129203141776318,-2.16007257491718,-0.00418583356589766,0.102745222199276,-0.00122910057979087,0.144934661677526,0.00729957325191539,-0.0195722599691448,0.0286761519238384,-0.00875958556474274,0.189938349924337,-0.0000554744302182068,-0.0128084328214809,0.0211298845089796,0.000202122366214959,-0.000931791047446281,-0.000541585707313631,0.000310833808778214,0.00211567428301654,0.0032523715017187,0.0120211216942118,0.0139002218990225,-0.00112956082960066,0.0000154891714347813,-0.0000286255578407792,0.0000190206810160312,0.000000000000000329477983854627,-0.0000869553543186146,0.00360005287068791,0.000041795739924343,0.0000112882497713916,0.00000514189537981062,-0.00000840975607650424,-0.00013299867696119,0.0000191194959335818,0.00000270037649915846,-0.000576157998113037,0.000000000000000171866025808612,-0.000914174845514938,0.00000197172292576548,-0.0000160886973077137,-0.0000634993659089899
"t58",-0.426310873641368,0.913382220323361,0.394789769622413,1.07174233117056,-0.338664464889812,3.19363369292073,-0.571204489920578,-0.708209214322185,-0.506265140208288,-0.342591568780696,0.166681723642859,0.453651453553137,2.03684193164596,-1.28151097146837,-0.869579326136411,-0.105198753030687,-0.0054947292737169,0.00623155816022838,-0.00128732403211685,-0.00613134819688739,0.00129248990732361,-2.16089271812819,-0.00418752060999659,0.102792858610168,-0.00122979149675551,0.145020750986002,0.00730498677190134,-0.0195868333612391,0.0287018659698817,-0.00876762937329789,0.190130762575687,-0.0000555321539470088,-0.012824680810297,0.0211571902769712,0.000202386840539974,-0.000933027806961536,-0.000542510717050127,0.000311406828419972,0.00212026716702934,0.00325946667316723,0.0120606293631567,0.0139509651318538,-0.00113431874557395,0.0000155729415218328,-0.0000287955413174547,0.000019146162239125,0.000000000000000483119646251543,-0.0000875491591322368,0.00362536297864437,0.000042106674690164,0.0000113727182025682,0.00000518566220450912,-0.00000848370958274117,-0.00013425856748175,0.0000193209377301352,0.00000273409809378447,-0.000586058863772858,-0.00000000000000213237421588301,-0.000935478873744819,0.00000201856435647931,-0.0000166341331612248,-0.0000667133994230891
"t59",0.322453391030106,1.6406404505203,1.46075768731226,-0.469518059898253,0.905401737383876,4.59072154522201,0.71398924734744,0.71849177121728,-0.295886679474234,-0.00220170826025223,0.747987574711517,0.655980517822147,2.03684193164596,-1.28151097146837,-0.869579326136411,-0.105198753030689,-0.00549472927371668,0.00623155816022954,-0.0012873240321175,-0.0061313481968872,0.00129248990732376,-2.16089271812819,-0.00418752060999571,0.102792858610168,-0.00122979149675526,0.145020750986002,0.00730498677190099,-0.019586833361238,0.0287018659698821,-0.00876762937329803,0.190130762575689,-0.0000555321539470965,-0.0128246808102961,0.02115719027697,0.000202386840540268,-0.000933027806962223,-0.000542510717049919,0.000311406828419802,0.00212026716702694,0.00325946667316625,0.0120606293631565,0.0139509651318533,-0.00113431874557433,0.0000155729415263676,-0.0000287955413164208,0.0000191461622365522,0.000000000000000330366804985315,-0.0000875491591321042,0.00362536297864559,0.0000421066746906366,0.0000113727181984055,0.00000518566220431906,-0.00000848370958134224,-0.000134258567481314,0.0000193209377310063,0.00000273409809532202,-0.000586058863773467,0.00000000000000519486417374125,-0.000935478873744147,0.00000201856435843023,-0.0000166341331609468,-0.0000667133994244482
"t6",1.26346275631347,1.71196408703187,0.335712382105523,1.51056157637246,-1.91515367009387,0.306578590937307,1.32101395880083,1.59037294622074,1.75699312396281,-0.257397073004718,0.157168864389326,-0.124907170393136,1.78011754475483,1.66406973891324,-0.372677917914235,-0.297882394012024,-0.0114252504887257,0.00601465788110608,-0.00057328132694941,0.0760039542180651,0.000122726714471687,-0.0055121671060082,0.000518328792651091,-0.000933240124587839,0.0013327458185286,-0.121856584810385,-0.0402424621187602,0.0490231703444308,-2.32298243505887,-0.269644702057177,0.137607801003981,0.000513492310650163,-0.0151084221749635,0.128552022779412,0.000574829432567774,0.00249253453253838,-0.208596923324375,0.0326242149606916,0.392635049798441,-0.00832011893913411,0.00156011283523503,0.00188359625792546,-0.00188640573255299,0.0000664873861063353,-0.000119934468350223,0.0000767557432661175,-1.111957435,-0.00033807175138169,0.000505613319420673,0.0000642057275743775,0.0000470041591096966,0.00000758707041102243,-0.0000333199020918196,-0.000192560480484994,0.0000731587765143124,0.0000100075983573261,-0.0000746397686726603,0.000000000000000536003101670193,-0.000112693371443876,0.00000660694381905645,-0.0000484449840865682,-0.00295428072330052
"t60",-6.93450029924925,-6.57495405265672,-8.29915565355074,-1.90295615995648,0.423008917324657,-0.271379035260227,-1.36244113943437,-1.43815119355436,-1.42081264709673,1.77293678607425,-1.94603775413031,-2.77367344591006,-3.39200851188688,-0.0386618152271548,-0.00698770396300422,0.0933827225077257,-1.54825994013326,0.596764819618436,0.183372168324534,0.00662111093912033,-0.160192075494116,0.0000509965064078242,-0.0332834545206615,-0.00000799958308890032,2.28336826085832,0.01359288375774,0.000880390939751625,-0.000749344838242825,0.00250319704850489,-0.0000779083461721191,0.000720785639877127,0.00380446445943705,-0.000274147127671591,0.00313458771519923,-0.0392839957717307,0.0148096942470107,-0.000100441362451983,0.0000549566928341346,0.000339801969313174,0.0000058458631085562,0.0000584405166869779,0.0000697545058947323,-0.0000702547822373359,0.00178694344475441,-0.00326900597327663,0.0115692096801388,-0.00000000000000322222948488309,-0.0000152878927839912,0.0000181045548835381,0.00000327814694880481,0.00695320333284871,0.000000282160845370111,-0.000834707449206064,-0.00000730681665052196,0.00185408583045197,0.0014488753768226,-0.00000294282572831787,0.00000000000000519047556622164,-0.00000455176911670827,0.000169755066947054,-0.00124781166043302,-0.00000698618210892594
"t61",-5.16798073167425,-4.88085737761097,-5.95606451659057,-3.02206539513728,2.0604558802592,1.34427932029159,0.0278517580468151,-0.272488683188878,0.220903550372386,-0.263808325880483,0.585399112081534,0.565679853737337,-3.39200851188688,-0.0386618152271543,-0.00698770396300374,0.0933827225077281,-1.54825994013326,0.596764819618437,0.183372168324536,0.00662111093912111,-0.160192075494119,0.0000509965064054303,-0.0332834545206627,-0.00000799958308444682,2.28336826085831,0.0135928837577397,0.000880390939761214,-0.000749344838246218,0.00250319704849942,-0.0000779083461723846,0.000720785639874687,0.00380446445943488,-0.000274147127676653,0.00313458771520016,-0.0392839957717303,0.0148096942470126,-0.000100441362455345,0.0000549566928324151,0.000339801969313241,0.00000584586310706453,0.0000584405166921917,0.0000697545058937141,-0.0000702547822377616,0.00178694344476465,-0.00326900597327535,0.0115692096801198,-0.000000000000000091488615790576,-0.0000152878927725252,0.0000181045548793678,0.00000327814694997013,0.00695320333284646,0.000000282160856884658,-0.000834707449203266,-0.000007306816645987,0.00185408583044788,0.00144887537687708,-0.00000294282573101707,0.00000000000000627157404869164,-0.00000455176911290636,0.00016975506696711,-0.00124781166042891,-0.00000698618210741427
"t62",-1.26426815394264,-2.02031098275031,-0.65082441356782,-1.93987445410403,1.30867248571203,0.880062844603509,1.21241462228076,0.900727711278441,1.52479727071436,-0.64727780662169,0.700495879391245,1.18800987326303,-3.63080943256725,-0.0700681169092275,-0.0312433548068557,-0.219648509699634,1.55958951773038,0.387062318911739,1.05190383039675,-0.00184982262569357,-0.297264811496545,-0.000357015035086906,0.0278840149621988,0.00000263605388316423,-0.0118840161593718,0.000543518436687638,0.00012785124621845,-0.000109597286225575,0.000358379320116802,-0.00000987022724555263,-0.000275742112863435,-1.16021141926993,-0.000117482522345093,0.00125893905730137,-0.00235816854501178,0.00713307516878659,-0.0000454761131475263,0.0000254504526126289,0.000167083966416706,0.00000288025862705743,0.0000362003304476301,0.0000473183012713131,-0.0000565400258827631,0.0102185813615478,-0.188167422059488,-0.00035465912099052,0.00000000000000105133379156331,-0.00000267177734101953,0.00000705636575416372,0.00000202175979340356,0.00101182702371818,0.00000146014102347784,-0.545798615525773,0.0000163951555671402,-0.00405489202866351,-0.0000815964150677663,0.000000154299782771505,-0.00000000000000328452136667935,-0.000000251087564097717,0.0000267491507195522,-0.000175091477226252,-0.00000144169840446133
"t63",-0.386315762600759,-0.588195686918122,0.588287366542385,-3.33105301138979,2.51557747781028,2.1424897803833,0.889774469588791,0.0614661102730292,0.398631954370505,-0.145557255428397,-0.415896181904764,-0.319126928601491,-3.63080943256725,-0.0700681169092265,-0.0312433548068549,-0.219648509699634,1.55958951773038,0.38706231891174,1.05190383039675,-0.00184982262569366,-0.297264811496546,-0.000357015035086174,0.0278840149621976,0.00000263605388286115,-0.0118840161593732,0.000543518436685217,0.000127851246219659,-0.00010959728622505,0.000358379320116265,-0.00000987022724681676,-0.000275742112860996,-1.16021141926993,-0.000117482522344132,0.0012589390573002,-0.00235816854501067,0.00713307516878811,-0.0000454761131476868,0.0000254504526137059,0.00016708396641786,0.00000288025862293236,0.0000362003304448122,0.0000473183012717187,-0.0000565400258816673,0.0102185813615574,-0.188167422059486,-0.00035465912099734,0.00000000000000127870429632816,-0.00000267177733694325,0.00000705636576060418,0.00000202175979079124,0.00101182702371872,0.00000146014102063852,-0.545798615525774,0.0000163951555639457,-0.00405489202867452,-0.0000815964150545479,0.000000154299786714123,0.00000000000000764777406751777,-0.000000251087569609293,0.0000267491507205402,-0.000175091477222602,-0.00000144169840939013
"t64",-0.629286017096726,-1.31369131583444,-2.73637855412151,3.27293717384048,-4.31650126411756,-3.39143308698688,0.81585946597689,0.541252608102481,0.959843411935892,-0.49078685874926,-0.33151857120977,-0.243129352029703,-2.38125818156866,0.0632618963908982,0.0498787888990566,0.338941403996746,-0.87587870039254,-3.74730651875613,1.05892289401523,-0.12896174336043,-0.497898461297867,0.0152410077796115,-0.273286527240793,0.000774591280254839,-0.0475211097320831,0.036056655531282,0.00565794367337076,-0.00484036903036526,0.0195926646584714,-0.000625371333029665,0.00656567235187948,0.00396445782996736,-0.00621860843267774,0.0875291024347237,-0.049764601994396,1.07203483798475,0.0000664708504635543,0.0000350030233524367,0.000665571723067474,0.0000115950052040451,0.000175466220555503,0.00021653706919671,-0.000224455384270953,0.000789000750609775,-0.00143515399145849,0.000925335309617894,-0.000000000000000229504198746209,-0.000060578106766493,0.0000658382314932551,0.00000850719011262867,0.000573978165118452,0.00000101379759665524,-0.000410503440952037,-0.0000260122132284914,0.000909825470252176,0.000125314164937504,-0.0000104896832464832,0.000000000000000386413105462053,-0.0000160459807483589,0.0000841411180119251,-0.000617950917531112,-0.0000247756303296725
"t65",-0.742292686444004,-1.35321528625414,-3.99392568190834,3.93899007766322,-4.53398283881222,-3.99516275226564,0.856575955691027,0.915583880897616,0.479342627214474,0.226000046054286,-0.0168538488970929,0.138818380767501,-2.38125818156866,0.0632618963908982,0.0498787888990569,0.338941403996745,-0.87587870039254,-3.74730651875613,1.05892289401523,-0.12896174336043,-0.497898461297866,0.0152410077796116,-0.273286527240794,0.000774591280255365,-0.0475211097320825,0.0360566555312829,0.00565794367337018,-0.00484036903036498,0.0195926646584722,-0.00062537133302968,0.0065656723518788,0.00396445782996949,-0.00621860843267785,0.087529102434725,-0.049764601994397,1.07203483798475,0.0000664708504623354,0.0000350030233536979,0.000665571723069344,0.0000115950052037541,0.000175466220554943,0.000216537069195892,-0.000224455384271209,0.000789000750605609,-0.00143515399145578,0.000925335309613817,0.000000000000000493293044628955,-0.0000605781067666434,0.0000658382314923751,0.00000850719011299511,0.000573978165124808,0.0000010137975964017,-0.000410503440951114,-0.0000260122132278166,0.000909825470254318,0.000125314164927903,-0.0000104896832465038,-0.000000000000000436502199685036,-0.0000160459807482384,0.0000841411180101748,-0.000617950917528936,-0.000024775630330338
"t66",-2.53051155620627,-0.906290844930537,-1.14036754937128,-1.69271996515191,3.32031732066707,2.77311136342036,-1.15416742011006,-1.6585157833868,-1.40027634253682,0.689096742473194,-1.27390730161138,-0.408318518348279,1.97849541286547,-0.504945727684816,2.30525777149115,-0.622291223006521,-0.0253011292624367,0.0324500886866312,-0.00849104687500787,-0.0752159947458402,-0.00101629392246223,0.0743385059554016,-0.00174850497680851,0.00554438852812789,-0.00421945530272625,0.824403744738627,-0.152901075617057,0.716749904956236,0.00154660769630429,-0.0306322438582528,-0.00051285337448582,0.000000305872803602118,-0.0017254156051819,0.0187401169385423,0.000206233363356197,-0.00121269583382834,-0.00013663145099008,0.000102546549895782,0.000913534972417923,0.0000902102759233574,0.000873595947574782,0.0014551646522536,-0.139350537586371,0.000000656728497585785,-0.00000452160292975592,0.00000262173929484929,-0.000000000000000445896377225777,-0.00000321108796503533,-0.0000662278101478569,-0.711875374777571,0.000106729387151613,0.000779902762417412,-0.0000213029815203339,-0.501401877405878,-0.0000188795122790647,-0.000000433193080450176,-0.00000581121386541538,0.000000000000000395518717011799,-0.0000153963488801887,0.000000345276477592055,-0.0000031227592566801,-0.0000123653713445453
"t67",-2.31616213610131,-0.920914395450179,-1.77592497164564,-2.43637792613413,3.922799450117,3.02218983840576,-0.652813353900791,-0.334903207650919,-0.788670515509319,-0.831990207588458,0.116985735582734,0.73841635181915,1.97849541286547,-0.504945727684816,2.30525777149115,-0.622291223006521,-0.0253011292624367,0.0324500886866304,-0.00849104687500897,-0.0752159947458401,-0.00101629392246297,0.0743385059554022,-0.00174850497680688,0.00554438852812813,-0.00421945530272682,0.824403744738628,-0.152901075617058,0.716749904956236,0.00154660769630525,-0.0306322438582524,-0.000512853374485868,0.000000305872802909402,-0.00172541560518188,0.0187401169385425,0.000206233363357414,-0.00121269583382902,-0.00013663145098971,0.000102546549895535,0.00091353497241795,0.0000902102759238658,0.000873595947575924,0.00145516465225441,-0.139350537586371,0.000000656728489806566,-0.00000452160293357387,0.00000262173929991236,-0.000000000000000202446586645515,-0.00000321108796488526,-0.0000662278101470506,-0.711875374777569,0.000106729387152096,0.000779902762417156,-0.000021302981519003,-0.501401877405876,-0.000018879512279298,-0.000000433193089634187,-0.00000581121386511728,-0.00000000000000161290032603775,-0.0000153963488803009,0.000000345276475676082,-0.00000312275925815952,-0.0000123653713437641
"t68",-2.18521943876363,-0.88921615473019,-2.67542328157683,1.36302005484076,-1.32116390651409,0.0394713524380774,-0.328094452474787,-0.720728704139361,-0.26154128396399,0.682382760165569,-0.0173192288023565,0.463611412897755,2.08477800211384,-1.48454086029959,-1.10030071265473,-0.150886901051785,-0.00844163521603639,0.0160303065142266,-0.00437893053123185,-0.0406715117837283,-0.000896680685732384,0.637670592910708,0.000338995990720205,-1.33856281344358,-0.00070006573338668,0.0905630702966883,0.00644824866753869,-0.0174051221209184,0.0382343180522905,-0.0126358850044694,0.468179298702798,-0.00018364029470211,-0.84303407101046,-0.0825266087203105,-0.000477019925846461,0.00151162824526298,-0.0000365282896281868,0.0000553742333767008,0.00170353191469284,0.0463188459236803,0.0196866171326461,0.0250602282105502,-0.000671620247635886,0.0000169103885580503,-0.0000445937796130355,0.0000686330698609731,-0.00000000000000492792790188693,-0.000634569566996519,0.4369677006369,-0.000150469787902528,-0.0000363549581122488,-0.00000399615674764098,0.00000507393136152015,0.0000455238189868714,-0.00000226708756220054,0.000000347214938825997,-0.302709198876489,0.00000000000000145068656926927,0.000424423114765055,-0.000000291098834761829,-0.000000107505783276663,-0.00000438621843064112
"t69",-2.36792744220181,-1.17005019964916,-2.91964453537037,2.99770677067114,-3.14594204188738,-1.93156916777674,-1.42957419157986,-1.47875587504957,-0.468755260260127,0.0945693193102721,0.537033717522184,-0.0174743431429044,2.08477800211384,-1.48454086029959,-1.10030071265473,-0.150886901051784,-0.00844163521603645,0.0160303065142258,-0.00437893053123189,-0.0406715117837284,-0.00089668068573316,0.637670592910708,0.000338995990720451,-1.33856281344358,-0.000700065733386167,0.0905630702966879,0.00644824866753813,-0.0174051221209178,0.0382343180522909,-0.0126358850044694,0.468179298702797,-0.000183640294702569,-0.84303407101046,-0.0825266087203098,-0.000477019925847783,0.00151162824526326,-0.0000365282896284683,0.0000553742333771291,0.00170353191469431,0.0463188459236795,0.0196866171326464,0.0250602282105493,-0.000671620247635671,0.0000169103885536339,-0.0000445937796135134,0.0000686330698652869,-0.00000000000000453452746010216,-0.0006345695669963,0.436967700636902,-0.000150469787901605,-0.0000363549581056847,-0.00000399615674824649,0.00000507393136383777,0.0000455238189867479,-0.00000226708756301607,0.000000347214934750333,-0.302709198876486,0.000000000000000514245788498454,0.00042442311476578,-0.000000291098833650762,-0.000000107505783767226,-0.00000438621843052629
"t7",-2.07936070962886,-0.509572354672916,-1.31355705269042,-1.51714435315164,2.72369601417854,1.9877305988232,-0.880271457252599,-0.60517627910602,-1.22846204760534,-0.737315366496136,1.02497627780323,0.728297381497944,1.95583637059632,-0.474572205927189,2.1084341650498,-0.552500564780637,-0.0221748203331005,0.0268962741628751,-0.00693494029325454,-0.0603076705838714,-0.000749906192577185,0.0533974820848253,-0.00122346332474804,0.00360806202193577,-0.00240007160557196,0.446542077113652,-0.0629007036485917,0.292922042345864,0.000411602657062057,-0.00751064715992413,-0.0000774380555584046,0.0000000375992688217423,0.000212134479264159,-0.00281127312709739,-0.0000347822088087029,0.000230974212471763,0.0000924647219928699,-0.0000895922666216836,-0.00129250964367285,-0.000129383738280335,-0.00393520492804873,-0.00930459690320904,1.64380454399927,0.000108178017089919,-0.000158573859655227,0.0000895049827563001,-0.00000000000000000470321371050854,-0.000389817401090933,0.00160327785962103,0.414959697725118,-0.00000956031960789907,0.00154507539599435,-0.0000361445326583144,-0.333499963416927,0.0000333486940816366,0.00000564334973922268,-0.000112583525163943,-0.000000000000000820244931604269,-0.000165471253057967,0.00000363993381804258,-0.0000260999769202617,-0.0000910066514338857
"t70",-4.24342636731398,-3.50345078016043,-3.41049539722889,-1.25443816328594,0.898129821627382,0.78262794433077,-0.419883479120486,-0.239214767417746,0.0215898046993708,-0.313464720228147,0.256699292139151,0.0641149292122427,2.08100337353062,-1.47205343759513,-1.08838161412002,-0.149037428635501,-0.00833707627990889,0.0159006556944346,-0.00435643177130541,-0.0406761333155359,-0.000956705975065985,0.71820845460435,0.000421156950172763,1.40809608025238,-0.000431520330005682,0.0583059381165318,0.00414863066218687,-0.0111813389968823,0.0216359324128294,-0.00695997622967501,0.220227836691116,-0.0000811569087965702,-0.0404217292247833,0.00176821996772086,0.0000354008985894254,-0.000214675516322347,-0.000257481833434182,0.000155581609339888,0.00118999896125565,0.00569736191324285,-0.684150999925554,0.675174357197059,0.00144137167294248,0.00000171682408199478,-0.00000671403108053768,0.00000637015461253933,0.000000000000000583790037673309,-0.0000329154922986169,0.00372765452956947,0.0000153123267200926,0.00000419356071258787,0.0000022911368754704,-0.00000387422717838078,-0.0000656942894744094,0.0000103653833933587,0.00000171178765333472,-0.00158967836960647,0.00000000000000251424574645637,-0.398498123431009,-0.0000230642167730722,0.00000532305174001515,0.00000261261757955978
"t71",-3.24045798809279,-2.381674441561,-2.7869677072744,-1.69454170667957,1.59564919402182,1.3881763517737,-1.65056943905602,-1.14001597287062,-0.838243186684461,-0.708788047301507,0.586821890832411,0.920331515320561,2.08100337353062,-1.47205343759513,-1.08838161412002,-0.149037428635501,-0.00833707627990872,0.0159006556944343,-0.00435643177130535,-0.0406761333155362,-0.000956705975065165,0.718208454604351,0.000421156950173238,1.40809608025238,-0.000431520330003653,0.058305938116531,0.00414863066218718,-0.0111813389968833,0.0216359324128301,-0.00695997622967498,0.220227836691115,-0.00008115690879663,-0.0404217292247834,0.00176821996772095,0.000035400898591386,-0.000214675516321708,-0.000257481833433817,0.000155581609339495,0.00118999896125763,0.00569736191324307,-0.684150999925553,0.675174357197059,0.00144137167294284,0.00000171682408439177,-0.00000671403107805173,0.00000637015461061657,0.000000000000000121848143088107,-0.0000329154922992265,0.00372765452956966,0.0000153123267212043,0.00000419356071330648,0.00000229113687506064,-0.00000387422717571064,-0.000065694289475312,0.0000103653833910647,0.00000171178765533583,-0.0015896783696065,-0.000000000000000660617075995354,-0.398498123431008,-0.0000230642167751283,0.0000053230517362879,0.00000261261757786796
"t72",-2.59683565949245,-4.45969259975558,-1.64396246307788,-3.03377922202743,3.64434878694834,1.59973627702888,-1.4021585651717,-1.49566472763327,-1.82210156802267,-0.0576811763806788,-0.101644471906587,-0.48465569381755,-3.55301500808167,-0.0594722098321189,-0.0230949819466457,-0.122339332674238,0.690309530827579,-0.333082023366383,-2.19220482329146,0.0168956602541074,-0.829696043707636,-0.000871840507292435,0.0626429698650925,0.00000522529320956807,-0.0216542338349253,0.000979069838860972,0.000234469662728456,-0.000201344751966098,0.000891904783232923,-0.0000284498692363639,0.000288297424688448,0.0073912833235251,-0.000120543966067311,0.00131594603068075,-0.00249167653948591,0.0076200102367767,-0.0000526834498597719,0.0000296873148258049,0.000195977133318976,0.00000337847849988712,0.0000426075146689116,0.0000564139154959067,-0.000071461751881433,0.546413588448269,0.010962136936622,-0.00038005656801987,-0.000000000000009597981960537,0.00000156742910781632,-0.000000496070013353911,0.000000177865640877058,0.0000937817094203335,0.0000000615586714968826,-0.000689745967599747,-0.00000205292060098714,0.00160324569375625,0.0000957123362260827,-0.00000138252221401384,-0.0000000000000010640708997794,-0.00000254786058040293,0.000251404661398243,-0.00090063679026718,-0.00000662277920221197
"t73",-2.87880228131309,-0.99961029852839,-1.90072912743709,-1.67676383993341,2.43327001277204,4.03754998339879,-0.109406164710557,0.0845970648316025,0.513301302887708,1.67310367197564,-1.68794962997342,-0.567819149130707,1.98144740512463,-0.508911067300805,2.33098113877103,-0.631422610430468,-0.0257103693970667,0.0331785228691064,-0.00869524551954769,-0.0771735120564082,-0.00105136104058136,0.0770972930160142,-0.00181772457362145,0.00580014898028687,-0.00446051092355708,0.87451787943918,-0.164893190838252,0.773228245893274,0.00169859051685197,-0.0337304807000933,-0.000571375795307268,0.000000341962352824223,-0.00198800203017187,0.0216631373268483,0.000238939711756178,-0.00140872584035913,-0.000168134038643346,0.000129087468914985,0.00122165520013245,0.000120892265857034,0.00157091998774599,0.00303310930117691,-0.404588554559127,-0.0000150675845470916,0.000016139391085155,-0.0000039554283406509,0.000000000000000834136657566716,0.00000387096331942147,0.0000667380517797673,0.513270921055839,-0.0000743742087618212,-0.000246465903713831,0.00000534430050750283,0.0652716580976251,0.0000000819088986336441,-0.0000000560429017659393,-0.00000156916494311897,0.00000000000000175481860030665,-0.00000526807111877907,0.000000119316016131958,-0.00000122759076297779,-0.00000524641742440789
"t74",0.177144206665961,-0.29387796093333,-0.950604851757177,-2.19916789011416,2.37142341553791,1.17018320859305,-0.0921425619482718,0.093481981410242,-0.702072153948382,0.141775661975934,-0.022468633244381,0.503237827281964,1.81190691225237,1.79637615051746,-0.399740315971665,-0.282341461814961,-0.00912399628827309,-0.0344749827266433,0.0222982282311142,2.21820187455481,-0.00179270580903739,0.0393128085140384,-0.00237686867995627,0.00201108557324834,-0.00130799242560575,0.097300444383659,0.0135789535821722,-0.0162606535404182,0.282446289020756,0.0271928309515713,-0.00349358483987514,-0.00000368937276147301,-0.00160529977779193,0.0148699566375516,0.0000701074357870101,0.000321894693964491,-0.0244998967433381,1.03869620205918,0.012448278386552,-0.000240332364848418,0.000444770010109416,0.000552738204928417,-0.000574519257999324,0.0000213329112432548,-0.0000390884948808129,0.0000254074499435806,-0.000000000000000101579092558234,-0.000112430796320908,0.000168786005080804,0.0000215832793414168,0.0000158117548857105,0.00000258847039105379,-0.0000114045829631021,-0.0000663684514960933,0.0000254424470953579,0.00000352369184324814,-0.0000267721359640158,0.00000000000000110363883087514,-0.00004100617528911,0.00000240615458965179,-0.0000179275171284859,-0.000486852866653653
"t75",1.41878336980166,1.71511714007407,1.09230441086817,0.489333017840005,-0.411088556253113,1.43043713183786,3.07731501916055,2.65556699711082,1.76173486251433,1.28871286474654,-0.395255492004476,-0.203528082714513,1.87266788714745,2.29212029172993,-0.621617880352981,-0.652052781881619,-0.0290616438838882,0.0562159549493483,-0.0202254068248173,-1.05231997260369,-0.000222019196344997,0.00766872790427714,-0.000585189378486087,0.000678274558676287,-0.00055411635992261,0.0431845005746161,0.00710960412620537,-0.00854104287982973,0.188762844494694,0.019387675879402,-0.00531447978381808,-0.0000159318083638248,-0.00000148946639458392,-0.0000470037856163069,-0.000000703110426366482,-0.00000706009997045272,1.25843750132943,0.0253184282977646,0.334328855188769,-0.00737518420149218,0.000125501736414522,0.000214436542420579,-0.000266862305881992,0.0000112874326737752,-0.0000212479913990175,0.0000141431774977197,0.000000000000000622700634797197,-0.0000630047080083257,0.0000950868724543175,0.0000122750876166072,0.00000900097157578391,0.00000150093936893142,-0.0000066405321258731,-0.0000389889803331401,0.0000151199420479169,0.00000212894736491769,-0.0000166429036522317,0.000000000000000675274738450105,-0.0000262832522172921,0.00000154580811494596,-0.0000123429974512759,-0.0205990305724491
"t76",1.18654093503888,2.17550453887081,1.15900693322409,0.81519279819051,-0.396331979858719,1.68330514031781,-0.301193861153714,0.256578691022123,-0.487939374606192,1.57718902481847,-1.4755096748455,-2.24475246931711,1.87266788714745,2.29212029172993,-0.621617880352981,-0.652052781881619,-0.0290616438838875,0.0562159549493502,-0.0202254068248182,-1.05231997260369,-0.00022201919634554,0.00766872790427726,-0.000585189378485907,0.000678274558677007,-0.000554116359922182,0.0431845005746168,0.00710960412620505,-0.00854104287982951,0.188762844494695,0.0193876758794021,-0.00531447978381848,-0.0000159318083654357,-0.00000148946639448539,-0.000047003785615791,-0.0000007031104277924,-0.0000070600999700536,1.25843750132943,0.0253184282977663,0.33432885518877,-0.00737518420149263,0.000125501736414432,0.000214436542420222,-0.00026686230588225,0.00001128743267466,-0.000021247991398591,0.0000141431774878084,-0.0000000000000000283145638533594,-0.0000630047080089254,0.0000950868724535397,0.0000122750876165737,0.00000900097157362941,0.00000150093936958933,-0.00000664053212299218,-0.0000389889803331454,0.0000151199420477376,0.00000212894736802263,-0.0000166429036520617,0.000000000000000387770989975333,-0.0000262832522174803,0.00000154580811825842,-0.0000123429974478572,-0.0205990305724492
"t77",0.234829564636873,0.593752663654989,0.108450619154741,-1.15197790606774,0.441143584909733,0.62238487849812,0.0881511081107638,-0.622077880833958,-0.57496338921564,-0.307403827793093,0.323083968373758,0.0734972205673548,-3.28685728042219,-0.0308498313437442,-0.00486857673413251,0.0383007106840257,-0.496237533446058,-0.229575790336397,-0.138900443134057,-0.00766093125981342,1.43083256126456,-0.000934112202966135,2.57521470240217,0.000278683974969249,-0.227084949620413,0.00854486738976994,0.00131634543121219,-0.00112424870422603,0.00407017793759485,-0.000127198046806186,0.00118886373803776,0.00654203762284843,-0.000440026408572504,0.00475932584062145,-0.00895661396877648,0.0272028000544563,-0.000168710394380902,0.0000922435710225452,0.000570691217721197,0.00000981857427759119,0.0000993806545333531,0.000119296326934542,-0.000121267340659939,0.00323367147923484,-0.00587795076007788,0.00368620267665177,-0.000000000000000801074139508221,-0.0000319345109044701,0.0000353674710122749,0.0000049052644636128,0.0023176415179197,0.000000574460200868777,-0.00176168200480199,-0.0000151748178290885,0.00410379905588873,0.000585933210554193,-0.00000843335032091049,-0.00000000000000147669184771048,-0.0000198589200065815,0.000796112834338146,-0.439203088345901,0.0000174502888390865
"t78",-1.65626638579565,-0.837440678434704,-1.48968932490862,-0.300356083180615,-0.812111225240828,-0.00441468747557539,0.878806969398585,0.443374820595642,0.880553310182518,-0.0796998603430778,0.771756012764582,1.23613465466901,-3.28685728042219,-0.0308498313437446,-0.00486857673413185,0.0383007106840257,-0.496237533446058,-0.229575790336398,-0.138900443134057,-0.00766093125981319,1.43083256126456,-0.00093411220296538,2.57521470240217,0.000278683974967725,-0.227084949620414,0.00854486738977037,0.00131634543121205,-0.00112424870422504,0.00407017793759543,-0.00012719804680548,0.00118886373803831,0.00654203762284902,-0.000440026408572356,0.00475932584062242,-0.00895661396876982,0.0272028000544553,-0.000168710394379994,0.0000922435710238855,0.000570691217722572,0.00000981857427767263,0.0000993806545334032,0.000119296326934224,-0.000121267340660048,0.00323367147923506,-0.00587795076007627,0.00368620267665858,-0.000000000000000786026542147223,-0.0000319345109045733,0.0000353674710127185,0.00000490526446416723,0.00231764151792329,0.000000574460200657993,-0.00176168200480453,-0.0000151748178290306,0.00410379905589146,0.000585933210553312,-0.00000843335032133541,-0.0000000000000030949272320131,-0.0000198589200061449,0.000796112834343575,-0.4392030883459,0.0000174502888407047
